AAA 1.231320 -0.284298 -0.478930 0.036334 0.129469 -0.782046 -0.066450 0.378483 0.062202 -0.125323 0.340824 0.262937 0.347936 -0.073262 -0.068900 0.025818 -0.137848 0.000253 -0.156940 0.132935 0.245874 -0.829260 -0.018472 0.051464 0.031628 -0.571737 0.233455 0.314240 -0.913371 -0.038966 0.498114 -1.707195 -0.401523 0.562830 1.059285 -0.248094 -0.516958 -0.586061 -0.018022 0.307457 -0.079124 -0.024542 -0.318765 -0.827797 1.661162 -0.505301 0.262667 -0.264455 0.065112 0.504833 -1.599929 -0.420172 0.776523 0.169436 -0.721137 0.494049 -0.616574 0.141769 0.458452 -0.337136 -0.431369 -0.658301 0.060242 0.347147 0.521583 0.102880 -0.805112 -1.103875 -1.373616 0.743137 -0.489400 0.114443 -0.474455 -0.461521 0.119681 -0.083898 0.423172 -0.410175 -0.114093 0.044189 0.644080 -0.261108 0.223223 0.424242 -0.629227 -0.086499 -0.356029 0.348221 -0.262335 -0.855763 -0.195488 -0.599358 1.009089 -0.185600 0.313361 -0.629089 0.801895 0.898869 0.676237 0.646758 0.051798 0.638645 -0.092204 -0.414268 0.046954 -0.071282 -0.428241 -0.091092 0.020644 0.053505 -0.600009 0.823225 -0.378850 -0.157679 -0.283732 -0.086920 1.195798 0.363409 -0.101937 0.596884 0.417781 -0.614365 -0.251593 0.649234 0.210616 0.049624 -0.022180 0.251616 -0.521175 0.361219 0.481442 0.906686 -0.451185 0.362201 0.818906 0.472649 0.131783 0.485323 0.164017 -0.509872 0.798020 -0.076682 -0.244582 -0.505189 -0.635756 0.372251 0.732856 -0.013851 -0.487795 0.033281 -0.261499 -0.201059 0.366785 0.105105 0.038783 -0.656186 1.800291 0.334468 -0.017162 0.281197 0.103619 -0.806204 0.274465 0.094871 -0.001145 0.380830 -0.492218 -0.363092 -0.089303 0.016269 -0.457051 0.293021 -0.116501 0.205508 0.185211 -0.050665 0.657821 -0.652212 -0.778533 -0.077628 0.125703 0.140571 -0.131898 0.012822 0.062883 -0.330101 -0.211585 -1.192274 -0.395760 -0.098382 0.060667 -0.214827 1.017219 -0.326178 -0.344687 -0.407962 0.445013 -0.957980 -0.119692 0.064495 0.121636 1.839172 0.576197 -0.301460 -1.442094 0.058326 0.441466 0.224641 0.037944 -0.776906 0.575656 -0.696615 -1.038991 0.664900 0.175982 -0.778104 -0.890610 0.300056 0.257892 -0.016510 -1.465714 0.077933 0.501882 -0.502959 0.142286 0.787691 0.113057 0.411137 -0.193380 -0.126042 -0.525373 -0.680384 -0.253646 0.448068 1.506415 -0.444386 1.122238 0.223562 -0.555965 -0.029031 -0.211850 -0.406070 -0.391940 -0.274206 0.433139 -0.177640 -0.065933 -0.007184 -0.825142 -0.233772 0.488045 0.369555 -0.106376 0.119214 -0.329240 0.226968 0.781427 1.205683 0.607092 -0.466715 0.235786 0.273392 -0.271571 -0.280048 -0.355454 0.377259 -0.545343 -0.328640 -0.330518 -0.003478 -0.026994 1.508009 0.538129 0.734727 -0.667516 -0.725101 0.610758 0.997333 -0.237038 0.112455 -0.554572 0.100671 -0.343551 0.411387 -0.298913 -0.670120 -0.357260 -0.617822 -1.823280 -0.159983 -0.398891 -0.702871 -0.107033 -0.517552 -0.241404 -0.047931 0.387930 -0.232541 0.401287 0.059795
CAG -0.564930 0.187327 0.849665 -0.453639 0.543277 0.831079 -0.202506 0.380448 -0.399255 -0.939615 -0.759620 -0.757882 0.163056 0.188113 -0.888483 1.238480 0.025728 -0.230398 0.175109 0.738689 -0.350955 -0.280159 -0.395905 -0.214780 -0.901817 -0.030172 0.113139 0.013707 0.062796 0.872551 -0.118330 0.104036 0.274827 0.028506 0.397690 -0.222345 0.279731 0.397928 -0.727183 -0.475490 1.013499 -0.251554 0.033829 -0.669159 0.782728 -0.535882 -0.225034 0.752618 0.182780 -0.777486 -0.560701 0.414333 -0.524976 -0.103679 -0.209176 0.024998 0.020982 -0.148713 0.236517 -0.288914 0.259803 -0.361038 0.391199 0.213572 -0.465902 -0.780103 0.763005 0.058252 0.569060 -0.692850 -0.653094 0.103461 0.243261 1.443888 -0.059284 0.226378 0.116236 -0.065640 -0.806158 0.122558 0.274974 0.427103 1.205129 0.082861 -0.076899 -0.860856 -0.759701 -0.587598 -0.224684 -0.178138 0.395596 -0.985844 0.482026 0.451664 0.592614 -0.006812 -0.824397 -0.743981 0.424389 -1.066225 0.452425 -0.231173 -0.325289 -0.495542 -0.675194 0.730729 -0.035256 -0.180042 -0.368553 0.954138 -0.127195 -0.055191 -0.773891 0.188365 -0.092037 -0.634189 0.388265 -0.374261 0.587932 0.124428 0.284755 -0.125082 -0.339486 -1.441528 0.110044 0.967956 0.257385 -0.386931 -0.354444 -0.549961 -0.033838 -0.583548 0.227028 0.648678 0.350520 0.852172 -0.380834 0.289375 0.482629 -1.437813 -0.123874 0.049012 0.587881 0.645521 0.122747 0.350188 -1.233658 0.610389 0.387067 -0.906228 0.005945 0.061548 -0.699488 0.923632 -0.482994 0.432318 -0.306131 -0.765636 0.039679 -0.435109 0.353263 -0.170344 -0.212005 -1.469639 -0.012153 -0.406958 -0.252934 0.534757 -0.255550 -0.591595 -0.908368 -0.530897 0.012421 -0.959689 -0.254913 -0.405212 -0.428618 -0.368283 0.129301 -0.625894 0.695173 1.299742 0.022857 0.137269 0.098868 -0.125975 -0.400650 -1.217100 0.641552 0.576648 -0.660898 -0.189670 -0.664151 -0.798548 -0.448025 0.823750 -0.123722 0.732743 -0.393926 -1.179581 -0.019776 0.881307 -0.817679 0.238605 0.098786 -0.108445 0.413594 0.863957 -0.150518 -0.517918 -0.996808 -0.617245 0.399049 -0.616361 1.068400 -0.589304 0.098723 -0.309078 0.241179 -0.544447 0.361545 0.340276 -0.668419 -0.741716 0.940202 -0.367761 0.224609 -0.354312 0.325035 -0.002044 0.208803 -0.063781 0.668920 -0.008251 -1.072970 -0.069480 0.175654 -0.213612 -0.638607 -0.082138 1.168669 -0.791466 -0.477018 0.680271 -0.414325 0.498884 0.062771 0.379343 -0.571218 -0.172909 0.095868 -0.199747 -0.816590 -0.105365 -0.205334 -0.436216 -0.041628 -0.909275 0.704304 -0.112834 0.987855 -0.324502 -1.101375 0.958987 -0.261247 -0.913850 -0.865541 0.198440 0.305215 0.293460 -0.539627 -0.923060 -0.865249 -0.059631 0.071626 0.087283 -0.321409 0.019677 0.270712 0.189735 -0.039762 -0.857486 -0.415435 0.509485 0.403978 -0.419980 0.163097 -0.282597 -0.647642 -0.444311 -0.698305 -0.034506 -0.072458 -0.564819 -0.090520 -0.433390 0.383136 -0.195027 0.519905 0.296907
CTG 0.247614 0.490622 0.166166 1.079508 0.336246 0.960722 -0.172599 0.663217 0.566537 -0.705687 0.509789 0.002131 -0.286632 0.368497 -0.077394 -0.064007 -0.358431 0.360821 -0.573001 0.462370 -1.260869 -0.172312 -0.131203 0.136483 -0.128854 0.793486 0.290658 0.160633 1.108922 0.156145 -0.756276 -0.062426 -0.217393 -0.098192 -0.629902 0.571471 -0.066674 0.209999 -0.005496 -0.282888 0.046662 0.410769 0.467265 0.129429 0.763948 -0.543449 0.912261 0.051955 0.077192 0.151317 0.842052 -0.361684 -0.167261 -0.611301 -0.122927 -0.141708 0.390433 0.225042 -0.939575 0.095768 0.710717 0.722236 0.339334 0.270950 0.993252 -0.197422 0.251790 0.184337 -0.075359 0.535249 -0.409964 -0.166784 0.510022 0.088131 0.664618 0.310249 -0.619999 0.293900 -0.014622 0.624277 -0.261789 -0.089526 -0.133619 -0.606874 0.331401 0.463821 -0.121631 0.088926 -0.334525 0.050286 0.381626 0.911288 -0.820551 0.000505 -0.299657 0.633035 0.152513 -0.071847 0.539557 -0.813872 -0.200067 -0.588358 0.559253 -0.309607 0.215532 1.093980 0.593286 -0.057020 0.582701 -0.548510 0.218445 -0.562001 0.430373 -0.007623 -0.407360 -0.456905 0.196363 0.211956 0.337359 0.447066 0.264711 0.189778 -0.408310 -0.831449 -0.291257 -0.031553 -0.163881 -0.814001 -1.404769 -0.297334 -0.127684 0.077964 -0.421304 0.858003 -0.803528 0.222356 0.238744 0.162999 0.804073 0.224384 0.852925 -0.439745 0.459728 -0.026290 -0.189129 -0.024941 -0.793821 0.195443 0.644147 -0.485423 0.590710 -0.041069 -0.641558 -0.121069 0.665920 -0.213754 0.232265 -0.711753 0.105842 -0.363747 1.283409 0.132270 0.064876 -1.104647 0.434631 0.059030 -0.161872 -0.177067 -0.407257 0.539526 0.603064 0.210330 0.413963 -1.335582 -0.270372 -0.798466 0.291611 0.298831 -0.326648 0.538032 -0.349280 0.312287 0.295475 0.002187 0.052623 0.334842 -0.015898 -0.356880 -0.631857 0.846648 -0.921332 0.410490 -0.196150 -1.343796 0.593779 0.645434 -0.462727 0.152141 -0.255738 0.921238 0.714230 0.337751 0.546202 -0.137298 -0.059333 -0.322084 -0.092100 -0.434028 -0.604667 0.589577 -0.617879 -0.007332 -0.119299 -0.333206 -0.264943 0.613688 -0.374244 0.520362 0.189260 0.167575 0.479896 0.114259 0.505058 -0.027000 0.500778 -0.340593 -1.016139 0.035143 -0.299842 -0.984570 -0.583084 0.245703 0.392062 0.270589 -0.074152 -0.042690 -0.745613 -1.037846 0.942644 0.039271 -0.096370 0.290269 -0.345984 0.114968 0.326139 0.685472 -1.480222 0.345991 0.672415 0.650114 -0.579650 -0.142399 0.102783 -0.282877 -0.379044 -0.752023 0.796770 -0.897088 0.019642 -1.202291 -0.760314 -0.146505 0.044280 0.211478 0.155793 0.105999 -0.015769 1.474921 1.108139 0.733967 -1.230522 -0.076786 0.087718 -0.386777 0.332828 1.679468 -0.380483 -0.170261 0.725253 -0.858100 -0.356632 -0.430547 0.184935 -0.290056 0.871286 -0.107220 -0.326903 0.124746 -0.480320 -0.325128 -0.321984 -0.294787 -0.090507 0.024385 -0.356505 0.260743 -0.941675 -0.398431 0.256029 0.484230
AGA -0.198947 -0.194320 -0.554466 -0.284308 -0.093266 -0.420738 0.106653 0.199502 -0.411157 0.147367 -0.411490 -0.310592 -0.298931 -0.631898 -0.519201 0.328947 -0.119055 0.329930 0.822322 -0.529707 -0.113856 -0.067575 0.251638 -0.431241 -0.106376 -0.511790 0.489033 -0.425802 0.057319 -0.042385 -0.804262 -0.431541 -0.306034 0.184107 0.417926 0.220660 0.249291 0.109406 -0.066692 -0.375763 0.192911 -0.367758 0.208019 0.669442 0.824042 -0.303143 -0.049631 0.274782 0.088035 0.347248 0.679719 0.541557 -0.597271 0.469812 -0.580276 -0.350969 -0.305251 0.104833 -0.046181 0.016583 -0.384936 -0.444264 -0.087234 -0.331239 0.059566 -0.499737 -0.040425 0.425742 0.056540 0.285817 -0.276865 -0.168287 -0.111175 -0.219682 0.234262 0.227864 0.124446 -0.458847 -0.312923 -0.268148 -0.001715 0.370945 -0.607218 0.128727 -0.144935 -0.052830 0.113074 -0.496621 0.100143 -0.421453 0.473805 0.193640 0.447058 0.347730 0.158281 -0.036036 -0.850368 -0.121899 -0.617641 0.125472 0.713399 -0.243866 -0.750300 0.317544 -0.788885 -0.057194 -0.826638 0.680483 -0.046429 -1.034868 0.696853 -0.476285 -0.699758 -0.710118 -0.272035 0.280112 -0.138759 -0.188664 0.381334 -0.726311 -0.517732 0.329238 0.196133 -0.601713 -0.004661 0.487043 0.204905 -0.371043 0.281480 -0.275593 -0.483394 0.328490 0.629250 -0.388260 -0.476330 -0.058692 0.123213 0.035677 -0.265594 -0.119992 -0.890265 0.336150 -0.115358 0.105065 0.456016 0.142746 0.445853 -0.131734 0.096040 -0.744677 -0.266033 0.094701 0.474713 -0.536241 0.442624 0.351647 0.303853 0.378852 -0.002903 0.047372 0.473139 -0.201902 0.497094 0.195827 0.322853 0.115879 -0.403384 -0.125369 -0.909912 -0.025955 0.267325 -0.367798 0.345106 0.868742 0.483555 -0.172775 1.090261 -0.121165 0.057031 -0.201427 0.026013 0.692960 -0.191149 -0.068002 -0.336180 -0.461026 0.040046 0.333758 0.607541 0.222846 -0.540292 0.054926 -0.027518 -0.011316 0.132234 -0.779247 -0.887181 0.785855 -0.229954 -0.183045 -0.529533 1.037204 -0.090696 0.601893 -0.416741 -0.056866 0.266282 -0.271087 -0.355386 -0.131905 0.165906 0.192003 1.136405 -0.477020 -0.210954 -0.082600 0.129897 -0.582404 0.010396 -0.843632 -0.438032 -0.008594 0.379378 -0.135396 -0.226251 -0.549143 0.228293 0.007920 -0.187222 0.343582 0.266957 0.198179 0.650771 0.057663 -0.058525 -0.234595 -1.165380 -0.325178 -0.304255 0.111517 0.077748 0.433386 0.647431 -1.008092 -0.152958 0.024301 -0.184123 0.061033 0.370533 0.213622 -0.099091 0.268772 -0.180920 -0.290084 -0.056351 0.552001 -0.364968 0.076207 0.070662 0.489666 0.478348 0.097257 -0.497763 -0.160067 0.938202 0.184474 -0.210554 -0.041210 -0.015058 0.393567 -0.298423 -0.451940 -0.067145 0.403310 -0.109505 -0.527438 -0.066120 -1.227965 0.657073 -0.068984 -0.625933 -0.067069 0.526281 -0.169995 -0.129214 -0.065286 0.218208 -0.436469 -1.108888 0.050201 -0.373261 0.431808 0.317325 0.388804 0.137551 -0.206631 -0.759828 -0.139451 0.312350 0.342802
TTT 0.948770 0.806267 -0.251600 0.133792 0.408541 -0.421674 -0.296222 -0.184915 -1.293291 -0.399263 0.385071 0.005669 0.877855 -0.678252 0.572010 0.511222 -0.164076 -0.088742 -0.228662 -0.914884 -0.411076 0.443666 -0.098715 0.660815 0.704851 0.710913 0.003548 0.018127 -0.504658 0.646254 1.235008 -1.468120 -0.062940 0.169492 -0.118732 -0.385375 -0.305707 -0.289920 0.249432 0.002632 -0.415970 -0.465845 0.963247 -0.612915 0.552417 1.092853 0.195551 -0.523933 0.785019 -0.310754 0.033675 0.615964 0.688041 0.399863 0.619882 0.506390 0.118255 0.085424 -0.256142 -0.402829 0.458679 -0.060659 0.032597 0.168214 0.785120 0.342699 -0.156694 -0.816965 -0.765912 1.188282 0.723436 -1.105910 -0.139073 -0.253563 0.275649 -0.913347 0.140226 0.957582 -0.263462 0.996245 -0.054254 -1.275401 -1.197474 -0.606631 0.295211 -0.252408 0.521882 0.034091 -0.842610 0.331424 0.022802 0.517996 -0.567844 0.214331 0.327695 1.002825 -0.301157 -0.245337 0.258471 0.290220 0.219063 1.284032 -0.629850 -0.781052 -0.786553 -0.274234 -0.185285 0.811078 -0.746364 -0.796435 -0.719916 0.092886 -0.045407 -0.695745 -0.889779 0.192032 1.601208 0.440532 0.604751 0.695201 -0.035473 0.121757 -0.414312 0.106388 0.664913 -0.698145 -1.071555 -0.768089 -0.532880 -0.365051 0.105425 -0.958521 -1.201871 -0.226786 0.353816 -0.212551 0.655112 0.236114 0.756933 0.834444 0.248199 0.175359 0.608804 -0.303774 -0.283019 0.193751 0.100880 0.537669 -0.359123 -0.077558 -0.111135 -0.295885 -0.676907 -0.314001 0.018104 -0.015204 1.334814 0.534988 0.191191 -0.600359 -0.318444 0.258955 0.074251 0.286384 0.907384 -0.789468 0.881670 -0.171604 -0.071297 -0.292267 -0.483882 -0.694541 0.360412 -0.535424 -0.412197 -0.100221 0.422619 0.545922 -0.835865 -0.106246 -0.863421 -0.590150 -0.441131 -0.623472 0.403679 0.179820 -0.929734 1.364334 -0.198802 0.019058 -0.212744 1.128339 0.596306 -1.212664 -0.216545 -0.012569 -0.298457 -0.070126 0.856564 0.018367 0.100497 0.954104 0.018110 -0.613697 -0.137471 0.510799 1.037873 0.349923 0.677049 -0.150510 0.052282 -0.083957 -0.663137 0.130321 -0.568786 0.049257 -0.342985 0.330558 -0.076037 0.744164 0.309939 0.528123 -0.117037 -0.529001 0.012162 0.467299 -0.069598 -0.172625 0.652168 -0.142891 0.131161 0.343003 -1.117589 0.346984 1.010025 -0.342839 0.528136 0.298637 -0.076924 0.189470 -1.559064 0.012326 0.911608 -1.945309 0.530590 -0.976322 -0.166053 0.343232 -0.864281 -0.597851 0.064397 0.300701 1.041100 0.636983 0.008352 0.516386 1.308279 0.682109 -0.773638 0.040265 -0.035605 -0.644347 -0.002253 -1.049643 0.291813 -0.575791 0.145938 -0.344067 0.413165 0.459502 0.455738 0.883663 0.445523 -0.231178 0.239410 0.389671 -0.254872 -0.087311 0.425511 0.039760 0.483879 0.008443 0.360319 0.383178 0.182776 0.126499 -0.319249 0.054033 -1.466043 0.151692 0.634342 -0.647984 0.415100 0.551772 -0.745621 -0.031363 0.489767 -0.127802 0.292646 -0.229137
AAG 0.459161 -0.025477 0.177047 -0.173180 0.221142 -0.372928 0.152531 -0.199514 0.152103 0.524287 -0.267204 -0.021966 0.409160 -0.022237 0.003825 0.369584 -0.102827 0.399215 0.147934 0.099019 -0.109935 0.751184 0.432274 0.009348 0.045722 -0.131031 -0.446130 0.044913 -0.717507 0.245345 -0.033742 -0.825247 -0.532272 -0.690655 0.336319 0.499983 -0.462936 -0.151786 0.520912 0.258805 0.378229 -0.086308 -0.164596 0.450735 0.839527 0.141328 0.618243 -0.600535 -0.419228 0.262188 0.395883 0.223601 0.329076 0.211399 0.677930 0.419384 -0.137741 -0.069571 -0.015059 -1.249314 -0.144858 -0.232904 0.080179 -0.491752 -0.401495 0.408497 0.656809 -0.528851 -0.290444 -0.260820 -0.295100 0.429762 -0.175859 -0.249532 -0.086073 0.065538 -0.630928 -0.201810 0.825590 0.035907 0.037756 0.472511 -0.584069 -0.424021 -0.443123 0.790564 -0.490436 -0.291395 0.038976 -0.303701 0.033334 0.100323 -0.014326 0.239128 -0.040870 -0.611347 -0.198525 -0.386094 -0.381039 -0.240778 0.804435 0.114169 -0.027036 0.156521 0.079633 0.594625 0.864730 0.191344 0.197063 0.069432 -0.054933 -0.147006 -0.124658 -0.226837 0.252793 -0.138535 0.130655 -0.258692 0.822808 0.193784 -0.390254 0.033876 -0.466686 -0.209166 -0.651334 0.228647 0.641703 0.259493 -0.668758 0.119781 0.388791 -0.270278 -0.969650 -0.102492 -0.838946 -0.055891 -0.269593 0.027195 0.279909 0.288667 0.440427 0.804143 0.035830 -0.132426 -0.201486 0.577072 -0.285440 -0.646589 0.522663 -0.595630 -0.648512 0.483765 0.122781 -0.644230 -0.204785 -0.104834 0.689243 0.784427 -0.520460 0.781879 -0.084270 0.558598 -0.137338 -0.993121 0.073665 0.434761 0.115296 0.047661 -0.032410 -1.006770 0.061875 -0.108619 -0.020890 -0.802733 0.275656 0.287519 -0.046129 -0.733281 -0.315304 0.168784 0.350181 0.926801 -0.368522 0.697869 0.016517 -0.595655 -0.648221 0.237717 -0.057112 0.564341 0.303155 -0.220303 0.170768 -0.254786 0.267103 0.086366 -0.622026 0.565035 0.676752 0.115032 -0.179381 0.967652 0.354302 0.357190 -0.061100 -0.249296 -0.029651 0.704338 -0.196612 -0.399521 -0.333300 0.362438 -0.333465 0.563659 0.015656 -0.315628 -0.540096 -0.609392 -0.614350 -0.477293 0.378249 1.024701 0.011394 -0.097589 -0.368529 0.513557 -0.036191 0.878436 -0.197647 0.558978 0.407677 0.073073 -0.019291 0.241874 0.307297 -0.130437 -0.472343 -0.889964 0.195373 0.162939 -0.211568 0.801652 -0.349746 -0.686348 0.192305 0.367714 -0.648178 -0.109505 -0.200269 0.000977 0.178372 0.126457 -0.437217 -1.068413 -0.094039 0.328158 0.490974 0.426909 -0.759225 0.364254 -0.211142 -0.034196 -0.138339 -0.133080 0.137456 -0.465228 0.024514 -0.355364 -0.319879 -0.249928 -0.530757 0.301739 -0.009533 -0.228397 0.586048 -0.005382 0.292799 -0.562373 -0.202372 -0.295538 0.302467 0.592365 0.095943 -0.297076 -0.183975 -0.142100 -0.026657 -0.324740 -1.125582 -0.336193 -0.042950 0.113667 -0.378282 0.036204 0.109356 -0.134993 -0.123626 -0.499553 0.149475 0.212644
GAA 0.398760 -1.116016 0.267093 0.250690 -0.048116 -0.151145 0.216736 -0.645210 0.600842 -0.495858 -0.848160 0.525439 0.833225 -0.912812 1.023132 -0.361107 -0.422238 0.679452 -0.275479 1.650524 -0.176830 -0.503393 -0.114114 0.255977 0.537585 0.230569 -0.464636 -0.129700 -0.584585 0.150279 0.281553 -0.724660 0.150643 -0.692727 -0.033110 0.102610 0.351727 -0.210557 0.302680 0.056346 -0.327460 -0.361224 -0.242826 0.353597 0.915723 0.356597 -0.924674 0.238816 -0.177116 -0.462820 0.254354 -0.035401 0.504110 -0.498732 0.553996 -0.411851 0.781580 -0.812946 -0.069538 -0.021725 -0.534676 0.307743 0.746583 0.024006 0.187606 0.026420 -0.081476 -0.257671 -0.234581 0.595750 -0.269223 0.212168 -0.813771 0.146226 0.142541 0.299615 0.127183 0.591283 0.680597 -0.729590 0.782877 -0.317650 0.113112 -0.208606 0.218652 0.074472 -0.180022 -0.013286 -0.057251 -0.081811 -0.352588 0.094511 1.331896 -0.815265 0.354584 0.611036 0.177263 -0.690684 -0.315747 0.029051 -0.245561 -0.279319 0.397695 0.179867 0.265989 -0.550183 0.326939 -0.175829 0.726415 0.443839 -0.174497 0.209718 -0.109648 0.105585 -0.150213 0.266522 0.019106 -0.805087 1.169300 -0.172380 0.277345 -0.440864 -0.506271 0.111520 -0.093621 0.260292 0.270897 0.962244 0.896281 0.181495 0.618772 -0.442236 -0.198893 -0.076955 -0.039967 -0.289540 -0.584821 -0.690453 -0.880762 0.269750 0.294059 -0.110023 0.326806 -0.285718 0.405360 1.126935 0.278888 -0.444953 -0.192479 0.097149 -0.045213 0.206359 0.950371 0.203138 -0.799332 -0.439147 0.718161 0.600767 -0.618071 0.071230 -0.525049 0.226307 0.572452 0.061756 -0.642566 0.330427 0.242328 -0.136699 0.866993 -0.198306 0.799610 -0.044150 -0.351269 0.279622 0.229090 0.533390 -1.189540 -0.205147 0.477555 0.394154 0.558540 -0.117083 -0.428916 0.043983 0.478857 0.484682 0.803554 -0.215955 0.192046 -0.275277 0.436965 -0.216127 0.292682 0.502208 -0.234032 -0.240087 0.010183 -0.445945 -0.302464 -0.401657 -0.614974 1.735530 -0.351534 0.239414 -0.413383 0.202663 0.550265 0.343546 0.945996 0.165198 0.003993 -0.372279 -0.233441 -0.687310 0.007765 0.216418 0.511071 0.456856 -0.550204 0.032933 -0.110231 -0.136565 -0.681875 -0.296737 0.473700 1.338600 0.024237 0.111613 0.267528 0.489619 0.022757 -0.191552 -0.504608 -0.262521 0.414296 -0.094499 0.552799 -0.542288 -0.387055 -0.393162 -0.100660 0.478964 -0.496160 -0.225775 0.492652 0.070608 0.855683 -1.078282 0.106988 -0.468271 0.070455 -0.473810 -0.117695 -0.044715 -0.527288 -0.120899 -0.575996 0.032635 -0.838174 0.213345 -0.334928 -0.332754 0.195620 -0.932974 -0.112820 -0.778248 0.344874 -0.203014 0.084537 -0.256518 -0.044268 0.297828 0.241056 -0.966399 0.174697 -0.458037 0.372668 -0.405954 -1.187990 0.290584 0.541552 -0.042128 0.359565 -0.253365 -0.185693 0.582576 0.222244 0.687518 -1.642951 -0.403869 0.205714 -0.834249 -1.168300 0.182309 -0.290828 0.163967 -0.381746 0.264868 0.048484 0.024403
GAG -0.437791 -0.030213 -0.176497 0.073959 0.097707 0.191521 0.208474 0.317267 0.241289 0.137620 -0.099777 -0.021323 0.029302 -0.308078 -0.723541 0.799533 -0.092551 0.009146 1.162782 0.292903 -0.138137 0.417394 -0.346997 -0.596717 -0.573068 0.006720 -0.038943 0.241451 0.507580 0.132969 -0.483100 0.199512 -0.004687 0.574453 -0.239150 0.047263 -0.216498 -0.612341 0.341325 -0.380949 -0.036202 0.005341 0.860556 0.291648 0.466128 0.183010 0.043287 -0.214776 -0.262012 0.503927 -0.080139 -0.224873 -0.779768 0.134806 -0.719198 -0.247096 -0.369038 0.021943 -0.140017 0.451800 -0.032080 -0.591094 0.039506 0.297684 -0.496376 0.176889 0.009388 0.591775 0.281565 -1.061662 0.337605 -0.461906 0.057996 0.166824 0.440509 1.073552 -0.040540 -0.023809 0.248412 0.187318 -0.001198 0.375137 -0.316565 -0.084181 0.380983 -0.729668 -0.967437 -0.204175 -0.737805 -0.222572 0.341307 -0.118791 0.068081 0.005095 0.047837 -0.028696 -0.350006 0.053005 0.464086 -0.115479 -0.055403 -0.711434 -0.444310 0.535221 0.435712 0.095030 -0.724136 -0.255861 0.351622 -0.334688 0.255301 -0.339149 -0.180937 -0.429748 -0.026935 -0.043998 -0.892180 0.093599 0.220996 0.067399 -0.081476 0.076453 -0.023111 -0.215239 0.070621 0.289707 0.551490 -0.074884 -0.216155 -0.388186 -0.453718 0.652707 0.419585 -0.057333 -0.029890 0.338061 0.592220 0.062469 0.024741 -0.182952 -0.814733 -0.477549 -0.028041 -0.029024 -0.004534 0.526937 0.297247 -0.169295 -0.245330 -0.319004 -0.308184 -0.089824 -0.318927 -0.030855 0.578825 0.273246 -0.183752 0.040105 0.229065 0.058859 0.644620 -0.056277 0.475315 0.306296 0.680207 -0.145090 -0.939239 0.363778 -0.399540 -0.147080 -0.264910 0.631894 0.943762 -0.102171 0.246191 -0.575070 0.336777 -0.540222 -0.036390 -0.141317 0.097339 -0.019973 -0.031147 0.201119 -0.061846 -0.463696 0.006351 -0.237510 0.711536 0.716622 -0.061111 -0.438587 -0.481555 -0.081417 -0.412902 -0.043343 -0.589579 0.021424 -0.502299 -0.188296 -0.200106 0.584441 0.225643 0.291898 0.033728 -0.026494 0.061232 -0.125195 -0.769684 -0.218083 0.136809 -0.369721 0.492083 -0.449306 -0.105645 -0.007188 0.706766 0.475618 -0.022044 0.211399 -0.354748 -0.429124 0.400028 0.032243 0.141176 -0.772250 0.258804 0.157038 -0.343918 0.598476 -0.212634 -0.148772 1.033268 1.082037 -0.283954 -0.008399 -0.091669 -0.256160 -0.094032 0.189374 -0.128057 -0.125198 0.078276 -0.000498 0.093528 -0.181730 -0.350618 0.641611 0.558289 -0.495761 0.285900 0.035009 0.054989 0.500101 0.314323 0.120265 -0.887026 -0.230917 0.288698 0.079016 -0.002261 -0.099522 0.186387 0.258306 -0.224444 -0.224036 0.013738 0.215448 0.736082 -0.172333 0.192706 -0.394899 0.175796 0.555048 -0.078454 0.366661 0.100377 -0.173585 0.340942 -0.240392 0.043901 -0.769986 0.111509 0.503814 0.205746 -0.141994 -0.229711 -0.585294 -0.201753 0.041551 -0.331507 0.575273 1.055691 -0.013287 0.138988 0.046659 0.196568 -0.169652 -0.014547 0.282548
TGG 0.099475 -0.491786 -0.712499 -0.245174 0.404195 0.045390 -0.424761 0.198107 -0.012489 -1.142886 0.355933 0.178564 0.325194 0.268068 0.082116 0.098030 -0.243429 0.027847 0.819474 0.788953 -0.731045 0.803976 -0.422890 0.568386 0.245283 0.864601 -0.323558 0.518374 -0.771731 0.080048 -0.034207 -0.557658 0.500461 -0.389019 -0.508200 0.253580 -0.072482 -0.306177 -0.012328 0.079629 0.853675 0.467662 0.419361 -0.680078 -0.758250 0.143229 1.225933 -0.597545 0.569868 0.595000 -0.051194 -0.326768 0.817918 -0.086276 -0.112839 -0.017451 0.243427 0.079426 -0.226948 0.278101 0.965856 0.583447 0.147891 0.071794 -0.001678 0.295802 0.581855 0.164552 -0.503375 -0.028749 0.006829 -0.017562 0.245329 -0.208875 0.322469 0.567705 -0.447142 0.555145 0.450986 0.911445 0.366153 -0.586811 -0.035463 0.255991 0.478573 -0.020859 0.972241 -0.089008 -1.238298 0.125977 0.587307 0.250378 -0.782102 0.276755 -0.082275 0.679362 0.418474 0.275994 -0.031145 -0.380748 -0.068987 -0.140368 0.405881 -0.048090 -0.005963 0.300617 -0.001275 -0.455453 0.708210 -0.754087 -0.640937 0.081506 0.583181 0.591059 0.133646 0.677070 0.030874 -0.345473 -0.207250 1.316766 0.553355 0.622339 -0.610145 0.032102 -0.275989 0.263200 -0.288344 -0.746038 -0.333490 0.150257 0.530923 -0.082065 -1.075691 -0.025251 0.195972 0.040479 0.540236 0.609334 0.154966 0.152518 0.014469 -0.053251 0.374727 -0.450970 -0.741040 0.908539 -0.419061 0.489664 -0.261447 0.582936 0.462346 0.017647 0.043854 0.300143 0.049380 0.103612 0.348137 -0.384948 0.091998 -0.541124 0.146339 -0.393397 -0.236774 0.273134 0.556774 -0.482664 -0.195119 -0.178377 0.057940 0.258163 0.274690 0.044745 0.259523 -0.828308 -0.009565 0.416093 -0.435393 0.189955 0.078384 -0.028325 -0.868385 0.220992 0.355014 -0.553993 -0.041232 0.204522 -0.493134 0.332697 -0.129769 0.881822 -0.922031 -0.539309 0.388747 -0.259923 -0.037317 0.030621 -0.101342 -0.341259 -0.448357 1.025353 0.304603 -0.853930 -0.075283 -0.477966 0.426335 -0.085441 -0.442984 -0.119987 -0.615641 0.138155 -0.139217 -0.174809 -0.428546 0.010867 -0.459156 0.279689 0.052422 0.183598 -0.368374 0.423498 0.605227 0.019565 0.795000 0.121005 0.367570 0.489268 -0.108694 -0.821993 0.048563 -0.708491 -0.429077 0.415839 -0.632225 0.372879 0.265727 -0.250587 -0.149486 0.128800 0.956950 -0.126090 -0.494602 0.385188 0.244042 -0.373413 0.571127 -0.743936 -0.673967 0.605708 0.401556 -0.726929 -0.646234 0.319135 0.786801 0.611738 -0.926050 0.018228 0.685672 -0.086505 0.497347 -0.068522 -0.590987 -0.712366 -0.242815 -0.810277 -0.185744 0.361044 -0.225665 0.511466 0.741563 -0.682588 0.153995 0.479099 -0.505127 0.375584 1.318583 -0.504133 0.022590 -0.061755 0.364702 0.303584 -0.326752 0.386807 0.276165 0.302745 0.932109 0.369892 -0.852272 0.069520 0.184118 0.186477 0.362884 0.271909 -0.258117 0.406256 0.066568 0.122021 0.363797 -0.813074 -0.514857 0.419155
GGA 0.648129 -0.190380 0.578670 1.383310 0.047513 0.056150 -0.291529 0.075721 0.419309 -0.426063 -0.249008 0.814615 0.421091 -0.169534 1.109510 -0.157121 0.388131 0.459848 -0.285105 0.493329 -0.282671 0.179524 -0.345539 -0.056200 0.113826 -0.249240 0.174293 0.867309 -0.043521 0.212018 0.199576 -0.656076 0.125419 -0.211627 -0.357511 -0.114167 0.258138 -0.273326 -0.442183 0.511609 -0.430812 -0.279365 0.131194 0.955386 0.087552 0.445996 -0.027616 -0.261254 0.227315 -0.099618 -0.109249 -0.795393 0.280589 0.308291 0.322655 0.743013 0.516440 0.437518 0.143365 -0.036967 -0.103297 -0.027523 -0.189978 0.091173 -0.444420 0.086775 -0.289509 -0.558482 -0.552460 -0.222101 0.895426 0.463506 -0.340550 -0.105195 -0.234166 0.596864 0.125170 0.137641 -0.345809 0.198185 0.399474 -0.512559 0.890750 0.160714 0.640438 0.228569 -0.395225 0.553157 -0.685845 0.001689 -0.384200 -0.276749 1.314789 -0.258321 -0.175479 0.705148 0.758625 -0.417954 0.541367 -0.268752 -0.407443 0.126216 0.593220 0.293348 0.427035 -0.347050 0.593881 -0.336092 -0.334217 0.213058 0.515754 0.293817 0.027419 -0.274042 0.386003 0.131975 0.553032 -0.244771 0.084871 0.241482 0.473286 -0.169768 0.510070 0.329841 -0.089023 -0.756949 0.286804 0.406445 -0.387769 0.453986 0.491707 0.493220 -0.682743 0.189584 0.383965 -0.515343 -0.096824 -0.204923 -0.498622 -0.075521 1.032192 -0.359163 0.514764 0.031272 0.328093 0.212069 0.312198 -0.375440 -1.213538 0.177306 0.179113 -0.523821 0.902054 -0.160016 -0.306910 -0.757647 0.620183 0.138823 0.246802 -0.049917 -0.116146 -0.574805 -0.293266 -0.114765 0.206049 0.151981 0.283923 -0.442819 0.356301 0.438492 -0.363469 0.411540 0.205511 0.057139 -0.222149 0.543828 0.658554 -0.919383 0.307923 0.678762 0.099233 -0.437403 -0.008043 -0.577003 0.027806 -0.763646 0.211725 -0.148351 -0.479398 0.225849 -0.465372 -0.642831 0.434348 1.244321 0.347776 0.149818 -0.513811 -0.215835 0.161235 -0.015837 -0.352269 0.340558 -0.194708 0.317076 -0.123204 -0.096701 -0.119690 -0.086170 0.315638 0.361053 0.293017 0.034214 -0.589284 -0.020521 0.196340 0.375955 0.912398 1.088950 0.058274 0.043182 -0.576554 0.204747 0.140364 0.116208 0.334809 1.118880 -0.132028 0.012170 -0.302966 0.693505 0.693740 -0.726335 -0.248498 0.006225 0.634769 0.617583 0.137831 -0.228499 -0.217524 -0.445512 0.696646 -0.465181 -0.262400 1.022836 1.567855 0.136851 0.162597 -0.075541 0.694226 -1.183498 -0.155088 0.135552 0.017387 -0.075815 -0.801532 0.314562 -0.285196 -0.395795 0.145005 0.457134 0.076004 0.043186 -0.235701 0.450531 -0.566656 -0.832590 0.938878 0.096411 -0.012667 0.379296 -0.473848 0.577011 0.133409 -0.668752 -0.210491 -0.187396 0.076682 -0.248160 -0.305364 0.346725 -0.095838 0.377916 0.481501 0.014210 -0.235040 0.556427 -0.410798 0.244464 -0.298775 -0.022529 0.163317 -0.323403 -0.254560 0.378578 0.161874 -0.123858 0.533508 0.684810 -0.395893 -0.191864
AGG -0.293276 0.509002 -0.306477 -0.012622 0.291495 -0.176965 0.364299 -0.087469 -0.190133 0.319423 0.217950 0.297256 0.129912 -0.189113 -0.351069 0.023448 0.257425 -0.145836 -0.177805 -0.403213 -0.092172 0.650557 0.567020 -0.165346 -0.135598 -0.443210 -0.517405 -0.253644 -0.127329 -0.102790 -0.099387 -0.097427 -0.178584 -0.373510 0.183383 -0.003824 0.185812 -0.130506 0.245072 0.082135 0.030373 0.270136 -0.115501 0.274366 0.192718 -0.008297 0.482897 0.248688 -0.090967 0.630043 -0.031570 -0.124312 -0.094165 0.377824 0.195476 0.474868 -0.525204 0.165383 0.217941 -0.052967 -0.017087 -0.404983 -0.036959 -0.122865 -0.074132 -0.147824 -0.169476 -0.397423 0.130912 0.325401 -0.234150 0.189469 -0.000070 -0.022582 0.106831 0.048769 -0.093482 -0.491570 -0.231288 0.006856 -0.134957 0.275190 -0.221118 -0.055576 -0.196759 0.404523 0.244637 -0.280445 0.349987 -0.438471 0.366840 -0.086170 0.004549 0.196832 -0.206776 -0.361678 0.013479 0.008729 -0.259079 0.384859 0.366303 0.381212 -0.445944 0.313811 -0.032108 0.155104 -0.105252 -0.141728 -0.270009 -0.147285 -0.323579 -0.361874 -0.273028 -0.064704 0.151921 0.393554 0.270833 0.485339 0.067164 0.325327 -0.094776 0.084657 0.073802 0.319515 -0.097306 -0.068207 -0.209046 -0.208281 -0.417017 0.173517 -0.401857 0.348401 -0.338169 -0.147996 -0.047893 -0.016431 -0.012649 0.181528 -0.063945 0.054740 -0.082897 0.056592 -0.346164 0.362703 0.169876 0.030107 0.372354 -0.207162 0.158860 -0.204382 -0.206099 0.112158 -0.004465 -0.540381 0.318516 -0.155517 0.063303 0.189137 0.275060 0.230050 -0.052831 0.322413 -0.329153 0.009515 0.297797 -0.069886 -0.148271 -0.257211 -0.282869 -0.335665 -0.004041 -0.075469 0.117473 -0.149827 -0.088106 0.113803 0.477434 0.011664 -0.259859 -0.098401 -0.352196 0.547550 -0.047868 0.126835 0.196384 -0.102208 -0.057966 0.049899 -0.014258 -0.225167 -0.168078 0.145692 -0.083744 -0.216553 0.337702 -0.048939 -0.123219 0.369543 0.479581 0.147027 0.084439 0.142526 0.434695 0.187671 0.015066 -0.292152 -0.001866 0.584965 -0.578853 -0.323345 -0.003687 0.150719 -0.037743 0.160410 0.337730 -0.304721 -0.249541 -0.724831 -0.016592 -0.391050 -0.435689 0.323657 -0.200254 0.093566 -0.567733 -0.090686 -0.010585 0.129766 -0.158443 0.114354 -0.004057 -0.094045 0.153183 0.228082 -0.163612 -0.178195 -0.350903 0.195660 0.180512 0.338967 -0.198069 0.397504 -0.013470 -0.648049 0.272992 0.250928 0.071287 0.222214 0.177967 -0.070326 0.028772 0.022170 -0.408148 -0.580702 0.026319 -0.033919 0.327308 0.228665 -0.625384 -0.271808 0.233408 0.378580 -0.470404 0.023505 0.158675 0.318121 0.098954 -0.138128 -0.492546 -0.204310 -0.248401 -0.142098 -0.117589 0.041911 -0.086788 -0.174467 -0.093845 0.467405 0.495334 -0.185108 0.119238 -0.055303 0.032447 0.018900 -0.349734 -0.103365 0.235443 -0.595307 -0.137214 -0.248055 -0.031034 0.204458 0.132097 0.296302 0.326147 -0.419883 0.270981 -0.386650 -0.072363 0.318007
CCA 0.032629 0.677520 0.281127 0.302515 -0.631262 1.601496 -0.128573 0.025578 -1.010226 0.310408 -0.146678 0.158209 -0.036585 -0.943611 -0.031204 -0.262552 0.474607 -0.058410 -0.347892 -0.257873 0.488496 0.314306 -0.796531 -0.547559 -0.004457 -0.005879 0.459053 -0.049510 0.582976 1.088098 -0.082231 0.360535 0.205256 0.802169 0.396198 -0.917847 0.001176 -0.063705 -0.290639 -0.538894 -0.422232 0.502675 0.567673 -0.076006 0.474633 0.308727 -0.376846 0.616234 0.588797 -0.474998 0.251303 -0.243697 -0.197616 0.550636 -0.357773 0.384124 0.424276 0.621176 0.164511 0.081845 0.285046 0.026337 -0.553765 0.304721 -0.155940 0.073607 0.000419 0.681053 0.086102 0.247311 0.474207 -0.319322 -0.753767 0.783739 0.236296 -0.677889 0.238440 0.071854 -0.422588 0.935123 -0.312019 0.236844 1.135255 -0.331365 -0.260953 -1.512861 -0.653061 -0.626012 -0.413216 0.080015 -0.289427 -0.428208 0.366098 -0.098228 0.466654 -0.191650 -0.129138 -0.418216 0.996100 0.128456 0.515856 -0.522618 -0.638972 -0.483317 0.343681 -0.436241 -0.061416 0.136718 -0.269845 1.011926 -0.566840 -1.283901 0.255305 0.078612 -0.473933 0.027345 -0.310409 -0.043117 0.144678 -0.223271 0.669995 -0.467233 -0.708480 -0.258949 0.182894 -0.029953 -0.026055 -0.255995 -1.240653 -0.514807 -0.895181 -0.070321 0.136089 0.291756 -0.193101 -0.154585 0.603366 -0.324298 0.389180 0.142078 -0.962144 -0.593328 0.547845 0.312741 0.461222 -0.441752 -0.232145 -0.230356 -0.162452 0.494568 0.847588 -0.221582 -0.371384 0.041203 0.681227 -0.790685 -0.250713 -0.788321 0.819100 -0.507631 0.564572 0.292130 0.274368 -0.270725 0.465480 -0.544204 -0.031319 -1.024056 0.268767 -0.279146 -0.957784 0.431696 0.661385 0.074810 -0.259078 -0.462186 0.624688 0.814237 -0.659353 0.715601 -0.132145 -0.266087 0.414049 -0.222609 -0.101241 -0.451798 -0.531989 -0.217040 -0.210944 -0.145870 -0.156395 0.387217 0.048060 -0.440629 -0.602598 1.106610 -0.336607 -0.217893 0.880761 -0.394658 -0.205687 0.262301 0.254366 0.144054 0.440427 0.617653 0.599561 0.042680 0.059103 0.258288 -0.042304 -0.187168 -0.177389 -0.142342 0.556966 0.949833 0.372438 0.380741 -0.164615 0.151451 0.384683 -0.294108 -1.050271 -0.337744 0.498744 -0.018276 -0.211088 0.208623 0.348536 -0.341752 -0.709677 -0.039571 -0.034906 0.463622 0.044974 0.408262 -0.532802 -0.203544 -0.840502 -0.151879 -0.005693 -0.616185 -0.010093 -0.086650 0.566345 0.416905 0.730337 0.126954 0.237277 -0.101712 0.465731 -0.903163 0.177728 0.734342 0.556117 -0.519937 -0.229487 -0.284507 -0.449740 0.421588 -0.622761 0.392376 -0.083488 0.637801 0.230336 -0.786995 1.076870 0.340441 0.057060 0.859533 -0.190848 -0.151614 0.232198 0.014791 -0.076827 0.541206 -0.285063 0.766250 -0.123183 -0.031192 -0.415617 -0.608133 0.256495 0.747904 -0.402648 0.417545 -0.455504 -0.135298 -0.003489 -0.320909 -0.010412 0.000868 1.187250 0.908560 -0.392652 0.717237 1.306078 0.202734 0.247898 -0.106352
CCC -0.030730 0.262951 0.472064 0.106483 -0.192326 1.248826 0.306720 1.289823 0.013377 -0.514931 0.332156 0.039729 0.256501 0.255975 -0.102982 0.534131 -0.283430 0.429531 -1.096041 0.437214 -0.623876 -0.127061 -0.281416 0.134843 -0.445213 0.413664 0.189402 0.246595 0.803214 0.450970 -0.123306 0.421943 0.619756 -0.088990 -0.285125 0.273400 0.032332 -0.034217 0.507381 -0.433903 -0.344169 0.507735 0.758708 0.071399 0.198931 -0.828396 -0.120702 0.413682 -0.001597 -0.039558 0.081883 -0.742700 -0.316007 0.127619 -0.103075 0.239095 0.975812 0.061920 -0.479966 0.245434 0.487062 0.025568 -0.173777 1.026962 0.426778 -0.241786 0.082192 0.276704 0.143236 -0.183263 0.125645 -0.313664 0.075771 1.366505 1.143614 -0.481383 0.288360 -0.046921 0.150968 0.374438 0.267166 0.191076 0.831501 0.250945 0.638988 -0.058325 0.175018 -0.567281 -0.289687 0.774907 0.083715 0.136019 0.285433 0.420294 0.545492 -0.049799 -0.034262 -0.638922 0.749870 -0.559529 -0.355642 -0.137459 -0.124617 -0.409861 1.118700 0.568785 0.464183 -0.190292 -0.233679 1.329798 -0.514029 -0.883745 0.480158 0.734505 -0.848828 -0.058749 0.095958 0.717772 0.352546 -0.371841 0.661576 -0.282298 -0.431176 0.266361 0.088981 -0.377274 -0.037207 -0.371448 -0.452086 -0.331816 -0.038722 0.118353 0.015872 0.660150 0.600997 -0.190159 0.292012 -0.168041 -0.441899 -0.620561 0.801630 -0.595124 -0.117089 0.885582 0.248137 -0.583449 0.044238 0.539368 -0.055563 -0.261555 0.906763 -0.349771 0.177136 0.175582 -0.049976 -0.347775 -0.256273 -0.239757 0.264231 -0.188743 0.170250 0.078335 -0.385697 -0.538889 -0.052187 0.032701 -0.365114 -0.369975 -0.305860 0.473944 0.010890 0.414119 0.362068 -0.362907 -0.130608 -0.285444 0.116662 1.007272 -0.122780 0.558349 -0.073005 -0.329196 0.605332 0.209706 0.155963 0.286609 0.265560 -1.171484 -0.758121 0.148898 -0.412977 0.150158 -0.117893 0.045211 0.391105 0.705598 -0.253318 -0.326719 -0.262387 -0.352957 0.450613 -0.258374 0.877113 -0.344484 0.453677 0.647711 0.270975 0.594961 -0.017761 0.432456 -0.797881 -0.223368 -0.919090 -0.131469 0.608628 0.007866 -0.187109 -0.364890 -0.255021 0.304447 -0.148454 -0.324403 -0.801572 -0.204371 1.085573 0.547221 -0.868920 -0.069937 0.696989 -0.931837 -0.202256 0.019925 0.427620 0.937967 -0.470599 0.112424 0.171711 -0.547713 0.333674 -0.236266 0.390033 0.041038 -0.482578 1.258017 -0.108685 0.951611 -0.136272 0.484163 -0.134851 -0.119578 -0.043281 -0.622977 -0.202602 0.406243 0.168832 -1.266375 0.241266 -0.237091 0.386003 -1.219594 -0.824716 -0.258381 -0.538694 0.958103 -0.687058 -0.213021 -0.097226 0.328323 1.054656 -0.186617 -0.205707 -0.190031 0.295972 -0.216479 -0.453712 1.165065 -0.988621 0.854141 0.267835 -0.460495 -0.267622 -0.543224 0.090596 0.962970 -0.024346 0.151269 -0.869028 0.477275 0.313095 -0.153059 -0.298273 -0.177797 -0.039325 0.012375 -0.599023 0.468427 0.539478 0.097441 -0.219042 0.655785
CCT -0.152979 0.431521 0.624550 0.073345 0.470456 -0.153255 -0.028567 0.613957 0.525149 -0.617057 0.150665 -0.083924 -0.170158 1.283439 0.771333 -0.090365 -0.381923 -0.080351 -0.741202 -0.011329 -0.761413 -0.641138 -0.627348 0.369797 -0.843628 0.479623 -0.444070 -0.227314 -0.153567 0.122599 -0.171768 0.111229 0.558105 -0.722040 -0.139002 0.370285 0.251808 0.008766 -0.236169 -0.316186 1.008323 0.057576 -0.025399 -0.261530 0.409540 -0.163831 1.086702 -0.602213 0.760072 -0.037852 0.288969 0.402120 -0.335709 0.141102 1.340075 0.922325 0.365247 0.214215 0.002489 -0.204473 0.644627 0.410058 0.561981 0.386166 0.045770 -0.599014 0.558488 -0.699724 0.080254 -0.489471 -0.334820 0.970530 0.282414 0.217387 0.886454 -0.309934 -0.336768 -0.017698 -0.183807 -0.091888 -0.079665 0.293448 0.605956 -0.225474 0.707818 1.012996 1.350105 -0.265096 0.237324 0.325052 0.248812 0.143814 -0.867732 0.739607 0.475630 -0.209973 0.591900 -0.016324 0.375019 -0.032155 -0.101703 -0.117611 -0.333923 -0.330939 1.021506 1.125299 0.470330 -0.043817 -0.128669 0.625591 -0.167529 -0.656539 0.782011 1.103978 -0.462222 0.187524 -0.354743 -0.257544 -0.130967 0.680999 0.403557 0.272632 -0.180487 -0.051160 -0.714064 0.464237 0.601634 -0.553737 -0.522210 0.205491 0.548223 -0.207675 -0.205972 0.452008 -0.760546 -0.674442 0.120738 0.073984 -0.513689 -0.019750 0.394441 -0.099658 0.290328 0.326193 0.157490 -0.548501 -0.431727 0.107720 0.448342 -0.395117 0.595105 -0.002199 -0.077881 -0.118336 0.204827 -0.059621 -0.109519 -0.802833 0.045234 0.432919 0.722344 0.819644 -0.803762 -0.613306 -0.162185 0.120801 0.980105 -0.492414 0.201398 -0.144650 -0.002437 -0.273167 -0.670180 -0.609222 -1.638025 -0.461286 0.616511 0.532468 -0.206739 0.671987 -0.747785 0.636086 0.785606 0.190118 0.101135 -0.036626 -0.191836 -0.240477 -0.620058 1.231976 -0.659105 0.344557 0.243329 0.192091 0.541268 0.400122 0.100471 0.605499 -0.387404 0.378998 0.244105 0.353518 0.523892 -0.394048 -0.419328 0.385905 0.591865 0.934459 0.281514 0.898837 -0.403023 0.352202 -0.858433 0.182502 0.480614 0.321039 -1.058836 -0.945479 -0.061010 -0.587685 0.924221 -0.228435 -0.229233 -0.403654 0.906723 -0.238314 -0.362079 -1.058762 0.411623 -0.336119 -0.502525 -0.041873 -0.209908 -0.501402 -0.245973 0.522929 -0.981459 -1.125519 0.407843 -0.719918 0.791141 -0.391039 -0.273619 0.927823 -0.055270 0.537992 -0.369152 0.024394 0.271831 0.064989 0.019741 -0.096966 -0.646223 -0.811862 -0.043553 -0.425840 0.515215 -0.137751 0.206293 -1.192666 -0.807931 -0.460242 -0.610071 0.105630 -0.895061 -0.050483 0.603969 0.393273 -0.068779 -0.006839 -0.345517 -0.029255 -0.526916 -0.085289 0.629606 0.184507 -0.644030 0.532271 0.607513 0.403638 -0.023045 0.106549 0.130523 0.307752 -0.150564 0.762963 -0.634316 0.873555 -0.108745 -0.334730 -0.697545 0.101939 -0.005565 0.361298 -0.430289 0.618046 -0.048124 -0.695486 -0.022615 0.775909
AGC 0.134281 0.234024 -0.076908 0.946478 0.097333 0.516183 0.401804 0.160918 1.034725 -1.329899 -0.289889 -0.634157 -0.740425 0.421766 -0.181746 -0.661637 0.074772 0.166786 -1.132824 0.078079 -0.514568 -0.950043 -0.123067 0.965654 0.186706 0.097882 0.202298 -0.100989 0.631294 -0.743517 -0.581970 0.181695 0.195792 -0.294714 -0.972194 -0.225035 0.210032 -0.050324 -0.404873 -0.135608 1.268706 -0.425347 -0.389628 -0.415661 0.137009 -0.530691 0.956966 -0.250782 0.300387 0.358490 1.184565 -0.126608 0.052623 -0.294176 0.131270 -0.218307 -0.163414 0.011715 -0.110732 -0.119756 -0.261157 0.003602 0.705291 0.279989 1.004612 -0.374875 -0.310170 0.561110 -0.155736 0.317627 -0.889047 -0.536088 0.767050 0.192903 -0.026884 0.407090 -0.682477 -0.196688 -0.578497 0.147859 0.161678 0.128684 -0.185909 -0.070051 0.620055 1.060734 -0.083134 -0.263306 -0.348613 -0.203500 0.792911 0.555208 -0.599400 -0.701873 0.125290 0.234410 0.126202 -0.242372 -0.307257 -0.191604 0.415189 -0.465606 0.718319 0.474884 -0.651993 0.559903 -0.345658 -0.048077 0.621510 -0.307325 0.203331 -1.063132 -0.204086 0.385264 -0.116702 -0.348905 -0.518374 -0.004573 0.254944 0.114189 -0.010562 -0.080349 -0.006767 -0.092084 0.529404 0.629755 -0.214137 -0.271362 0.017763 -0.258462 -0.047646 -0.744727 0.276982 0.756946 -0.019160 0.370263 0.185890 -0.062772 -0.440128 -0.024284 0.262515 -0.475576 0.418611 -0.375239 -0.174656 -0.037116 -0.240108 0.800581 0.620623 0.546776 0.422498 0.015928 -0.153824 -0.171467 -0.357158 0.355239 0.028692 -0.826408 -0.389821 -0.260341 0.129481 0.092636 0.045690 0.164414 -1.045508 -0.544357 -1.000685 0.345992 -0.560762 0.304761 0.878575 0.278426 0.136405 -0.200729 0.063688 -0.719172 -1.321676 0.651661 0.676637 -0.497007 0.849572 0.539364 1.330506 -0.655891 -0.173571 -0.113569 0.604546 -0.106530 -0.096544 -0.095249 -0.936150 0.154927 0.034413 -0.178672 0.791162 -0.442864 0.082261 0.792522 -0.237385 0.136612 0.456238 0.192315 -0.154401 0.491611 0.090681 -0.147673 -0.234149 -0.074388 -0.560693 0.203791 -0.665530 0.132668 0.352942 -0.199778 -0.480670 0.065509 -0.097306 -0.359851 0.021378 -0.270291 0.250154 -0.442247 -0.267406 -0.110332 0.562435 -0.509511 -0.617970 -0.024007 0.020820 0.028394 -0.382948 -0.312540 0.736380 0.142240 -0.075959 -0.101074 -1.377631 -0.201115 0.043485 0.417746 0.028348 0.335201 -0.216854 0.301689 0.099783 0.262314 -0.905367 0.053797 0.173450 0.541339 -0.249631 0.367510 -0.026610 -0.488027 -0.070250 -0.088112 -0.041944 -0.673694 0.433887 -1.198730 0.485845 -0.463064 0.098846 0.491066 0.321425 0.684162 -0.018941 0.605964 -0.438094 -0.333071 0.104863 -0.067844 -0.778717 -0.216155 -0.359944 0.143741 -0.630971 -0.380532 0.636399 -0.660822 0.097952 0.053782 -0.303169 -0.405728 0.435509 -0.121289 0.156290 0.031301 -0.043169 0.700409 0.016189 0.219631 -0.883932 -0.190689 0.164670 -0.430739 -1.193003 -0.599329 0.214209 0.071577
GCC 0.218909 1.401964 0.363914 0.363045 -1.223253 0.437909 0.242897 0.322583 0.377987 0.303126 -0.858560 -0.342320 0.572568 -0.218399 -0.259721 1.043408 -1.261908 0.115158 -0.772872 0.026919 -0.122679 -0.206107 -0.029771 -0.319062 -0.083738 0.359432 1.230243 -0.409728 -0.172964 0.888096 -0.342951 -0.750829 0.214035 -0.180574 -0.462206 0.129997 0.411109 -0.185359 -0.331936 -1.115661 0.391558 -0.067547 0.061582 -0.290046 0.765661 -0.280618 0.014053 0.113408 -0.190534 -0.080136 0.290579 -0.351314 0.795183 -0.034612 -0.890564 -0.017085 0.655743 -0.243149 0.002971 0.142409 0.358772 0.382677 0.069712 0.486246 -0.033244 -0.802691 0.644605 0.984532 -0.098734 -0.500148 -0.308959 0.179792 -0.567529 1.098059 0.423222 -0.155294 0.099629 0.542429 -0.852028 0.056132 0.621162 0.220106 0.756999 -0.866804 -0.112213 -0.377317 -1.030525 -0.824826 0.153557 0.407429 0.768461 1.021896 0.645271 0.127665 0.708346 -0.365080 -0.054993 -0.030350 -0.031325 -0.735835 0.104089 -0.640848 -0.110499 -0.025457 -0.059137 0.788785 0.451475 0.445407 0.835263 0.351338 0.141532 -0.029878 0.026195 -0.290003 -0.924126 -0.007845 -0.389185 -1.160433 0.049503 -0.832748 0.681659 0.020819 -0.243423 -1.339701 0.162244 0.993711 1.028716 0.119591 -0.354102 -0.392363 0.275249 -0.262856 0.208221 0.665835 -0.432358 -0.229894 -0.090436 -0.668989 -0.345492 0.534667 -0.322660 -0.355424 0.591738 0.551887 0.138961 0.272790 -0.988503 0.554526 0.238390 -0.432019 0.146466 -0.247222 -0.222577 0.606129 -0.377573 -0.406312 0.381993 -0.608137 -0.323191 -0.235499 0.898908 0.660471 -0.283547 -1.285284 -0.116127 -0.068570 0.661658 -0.102832 0.101369 -0.073349 -0.539919 0.182156 -0.006011 0.533467 -0.922399 -0.783706 -0.050305 -0.617718 -0.316801 0.454834 0.455060 0.475199 1.038007 0.546473 0.933073 0.020534 0.547184 -0.392291 0.096206 0.513983 0.859553 -0.637710 -0.044218 0.425845 -0.165248 -0.318517 -0.317208 0.051775 0.058522 -0.166361 0.361388 0.880695 0.290222 1.158834 0.060437 0.897144 0.914853 0.921000 -0.236770 0.455030 -1.020491 0.358228 0.174722 -0.627808 0.095043 0.556793 -0.731310 0.563352 -0.273963 -0.342746 1.383298 0.635259 -0.326995 -0.450668 0.407765 0.084255 -0.814701 0.364051 0.900862 -0.163865 -1.243007 0.324972 0.879746 0.561645 0.157320 0.076623 -0.509221 -0.966399 -0.491395 -0.362179 1.448022 -0.386223 -0.266605 0.429392 -0.418407 0.359082 0.214803 -0.975353 0.003283 0.890027 -0.581625 -0.478348 -0.594499 -0.698957 -0.242889 -0.472803 -0.759253 -0.719067 0.422939 -0.345638 -0.958725 -1.102868 -0.276648 0.044711 -0.120509 -0.162283 0.059117 0.785221 0.811530 1.456637 -0.801195 0.389758 -0.894753 -0.904524 0.259753 0.452157 -1.023962 -0.684384 -0.734781 0.648448 -0.535681 -0.983738 0.021924 0.328435 0.400012 0.397466 0.094373 0.693375 -0.772721 0.131262 -0.214359 -0.391756 0.894879 0.450105 -1.121115 0.576457 -0.950184 -0.297875 0.510620 1.156281
TGA 0.351286 -0.410320 0.007098 -0.816609 0.117596 0.316045 -0.533891 -0.586258 0.025395 0.224009 -0.805186 -0.453042 0.398211 0.241213 -1.121289 0.809325 -0.609243 0.798737 0.817000 0.516850 -0.097019 -0.002449 0.001088 0.078049 -0.232190 0.523304 0.110826 -0.033346 0.701900 0.211454 -0.392065 -0.276277 -0.375156 -0.141227 0.377425 0.146981 -0.394581 0.841845 0.217672 -0.142691 0.053523 0.188088 0.029120 -0.373264 1.523254 -0.750872 -0.706770 0.911372 -0.528898 0.099249 0.379814 0.115576 -0.225514 -0.129962 -0.315271 -0.536477 0.291597 -1.036929 0.174538 0.226899 -0.151852 0.407620 -0.437610 -0.180514 0.555180 -0.187175 0.525371 0.446809 -0.322171 -0.407049 -0.401825 0.559890 0.027971 0.271069 1.111368 0.145892 -0.208833 -0.110258 0.375767 -0.571105 -0.171748 0.083021 0.569609 0.654117 -0.035847 -0.973271 -0.749166 -0.364659 -0.119507 -0.562098 0.306563 0.280575 -0.363460 0.149077 1.265839 0.089187 -0.760807 -0.256562 -0.225147 -0.417435 -0.323306 -0.567239 0.409556 -0.186879 -0.007474 0.195977 -0.068163 0.400615 -0.245879 0.781766 0.097181 0.217091 -0.706169 -0.254484 -0.926556 -0.527706 -0.619510 -0.080738 0.561739 -0.225177 0.262720 -0.586356 -0.576037 -0.236577 -0.152638 0.344441 0.581571 0.430966 0.147770 -0.463206 -0.442006 -0.534012 0.697517 0.156583 -0.072179 0.594759 -0.390848 -0.241157 -0.109586 0.129489 0.065418 -0.119347 -0.071001 0.237826 -0.822597 -0.170497 -0.532350 0.341223 0.015974 -0.587991 -0.140746 0.001927 -0.172352 0.600576 -0.557666 0.163267 0.337532 0.324760 -0.603770 0.341294 0.415565 -0.599445 0.132481 -0.413981 0.141412 0.450615 -0.732736 -0.148368 -0.742376 -0.108681 0.176477 0.351177 0.058283 0.193960 0.377665 -0.437291 -0.028257 -0.457993 -0.375897 0.019614 0.006768 0.030094 -0.267228 0.795418 -0.766183 -0.062064 0.149397 0.279463 0.473649 -0.241942 0.759268 0.526277 0.442998 -0.569877 -0.788488 0.335645 -0.416517 -0.096529 -0.565736 -0.198634 -0.063510 1.244016 0.369534 0.746596 0.679628 0.891766 0.542395 -0.034985 -0.465769 -0.356789 -0.400944 0.059738 0.171852 -0.456286 -0.238541 -0.306904 -0.340939 0.167623 -0.913474 0.167716 0.434733 -0.450223 -0.765100 -1.137998 -0.345189 -0.198754 0.125170 0.096372 0.348924 -0.044868 0.093965 0.013036 0.604567 0.528533 0.432841 -0.484951 0.171832 -0.361962 -0.013632 -0.086542 -0.340458 0.170832 -0.519004 -0.470892 -0.721161 -0.504046 0.116326 -0.136249 -0.559272 0.114542 -0.696947 0.053398 -0.013549 -0.251475 0.274617 -0.238668 -0.517072 0.224186 -0.164194 -0.277442 -0.186823 -0.786772 -0.504905 -0.464628 0.583556 -0.274522 -0.888570 0.314358 0.431917 -0.013484 -0.033167 -0.098189 0.032187 0.397581 0.247826 0.545199 0.206556 -0.225225 -0.530375 0.544226 -0.143073 -0.307105 -0.125938 0.454919 -0.131512 -0.334989 -0.023116 0.286994 -0.981529 -0.539859 -0.246123 -0.401758 0.564428 -0.609779 -0.887820 0.280992 0.081583 -0.062824 0.457737 0.534783
GGC 0.623992 0.430626 0.123882 -0.469925 -0.659975 -0.015956 -0.109015 0.239490 0.367244 0.198896 -0.789258 -0.299879 0.479196 0.346759 -0.529628 1.204953 -0.522040 0.551183 0.219223 -0.209557 0.409648 0.575707 -0.335448 -0.264447 -0.208359 0.060511 0.879243 0.446837 -0.307679 0.677668 -0.212802 -0.641409 0.438566 -0.124137 0.035385 0.356145 0.365656 0.003451 -0.394522 -0.262846 0.591237 -0.107794 -0.398216 -0.071066 0.437700 -0.313163 -0.008329 -0.555031 -0.123513 0.091277 -0.163099 -0.431204 1.025387 0.243022 -1.012376 0.153724 0.576702 0.033535 -0.101229 -0.121205 0.961710 0.549124 -0.071029 0.437457 -0.803762 -0.182018 0.730118 0.013937 -0.746776 -0.988586 0.275525 0.553668 -0.549230 0.485921 0.017703 0.184894 -0.187343 0.172692 -0.397610 0.258874 0.753234 -0.137505 0.885153 0.279641 -0.016172 -0.275614 -0.425784 -0.228324 -0.567037 0.710566 0.530240 0.429470 0.143330 0.136256 0.752192 -0.371196 -0.035255 0.028182 -0.212692 -0.818110 0.438776 -0.301946 -0.228718 0.021135 -0.216094 0.439325 0.075398 0.315693 0.720641 -0.166473 0.485173 -0.002605 0.381344 -0.266751 -0.016183 0.652743 -0.172093 -0.651824 -0.268447 -0.437436 0.650568 0.502299 -0.156857 -0.688328 -0.510197 0.791131 1.303105 -0.026308 0.312257 0.211284 0.425223 -0.028772 -0.104803 -0.032721 -0.370807 -0.493358 0.228242 0.294311 -0.138498 0.142506 -0.181749 0.347823 0.662765 -0.005499 -0.162599 0.185902 -0.770867 0.046475 -0.102738 -0.219673 -0.080328 0.145586 1.019721 0.470149 -0.960712 -0.624535 0.527431 0.316385 -0.371375 0.052455 0.369302 -0.052323 -0.429542 -0.781685 -0.107242 -0.083520 0.398152 -0.838699 0.010038 -0.248677 -0.877956 0.127211 0.134379 1.170467 0.112633 0.070476 -0.015519 -1.128508 -0.012360 0.660471 0.012515 0.591082 0.088641 0.288032 0.510573 -0.462512 0.127387 0.013989 0.371996 0.370645 0.343591 -1.289437 0.880259 0.952803 -0.459232 -0.975722 0.140469 0.161414 -0.159975 -0.328151 -0.053691 0.457805 -0.149805 0.842328 0.581487 0.594776 0.166513 0.381500 -0.221918 0.512633 -0.707801 0.539299 0.337751 -0.656195 0.252094 0.507587 -0.187233 0.368857 -0.577854 -0.256357 0.985612 0.711001 0.308399 -0.580917 -0.080362 0.114650 0.025285 -0.047034 0.322425 -0.105592 -0.211292 0.609214 0.189382 0.359394 0.831875 0.331429 0.153087 -0.379854 -0.228165 -0.761877 1.456823 -0.605945 -0.037490 0.316364 -0.207368 0.232993 0.385621 -0.470482 -0.030906 -0.451177 -0.577848 -0.319188 -0.366247 -0.410144 -0.740066 0.091792 -0.414917 -0.609069 0.789056 0.561534 -0.493766 -0.694226 -0.558143 0.130476 0.248388 -0.359785 0.165200 0.148962 0.181841 0.566443 -0.095599 0.909564 -0.666843 -0.144572 1.290589 -0.586486 -0.640911 -0.947721 -0.622682 1.329557 -0.955003 -0.386761 0.837897 0.522141 0.527496 0.435604 -0.567613 0.816056 -0.347124 0.390416 -0.278113 -0.196248 0.267925 0.744123 -0.451364 -0.184825 -0.081545 -0.258820 -0.071047 0.477870
GGG -0.853471 -0.406675 -0.231120 -0.424131 0.176180 -0.726966 -0.338922 -0.366040 0.082080 0.221886 -0.754897 -0.200941 0.462556 0.535417 -0.286463 1.401880 -0.102585 0.204676 1.124670 0.707200 0.273190 0.585712 -0.314039 -0.832727 -1.584790 -0.144734 -0.061557 0.879510 -0.421370 0.385005 -0.008206 0.395505 -0.447150 -0.142939 0.236674 0.389365 -0.200342 0.352879 -0.288438 0.195600 0.072407 0.612372 1.098125 -0.157748 0.195539 -0.289774 0.136551 -0.029246 0.247997 0.683361 -0.591367 0.558578 0.101335 1.429302 0.632376 -0.043723 0.335304 -0.590200 -0.840342 -0.040052 0.181688 0.546798 -0.241370 -0.857572 -0.147413 0.566205 0.798326 0.355658 0.749399 -1.165368 -0.422500 1.119027 -0.175129 -0.210716 0.083530 -0.359560 -0.351386 0.039804 0.695588 -0.297760 0.306531 0.179787 -0.629386 1.100952 0.250751 0.052869 0.176300 0.272659 -0.138305 0.609326 0.096572 0.102915 -0.394148 1.418123 0.224950 -0.085784 -0.431487 0.246457 0.332066 -0.281435 0.258933 0.083337 -0.496843 0.595446 0.680708 -0.486618 -0.189845 -0.110081 -0.409577 -0.225621 0.177731 0.274300 -0.169241 0.959166 0.327939 0.142027 0.011895 -0.151040 0.424912 0.482056 0.378405 0.262192 -0.055383 -0.085522 -0.761189 0.769098 0.300727 -0.359642 0.536180 0.524354 0.301406 0.467089 0.057552 -0.203700 -0.496855 -0.386794 0.509751 0.713767 -0.557647 0.161609 -0.385550 0.392673 0.271694 0.305226 -0.349585 0.110946 -0.790485 -0.161764 -0.046901 -0.710316 0.502002 -0.354173 0.477869 0.334837 0.046498 0.372777 -0.745429 0.946964 0.070167 0.226758 -0.207926 -0.359344 0.148433 0.453420 0.802115 -0.159889 0.178000 -0.121835 0.414191 -0.313944 -0.419619 0.250805 0.205443 -0.946322 -0.405874 0.169749 0.821778 -0.483811 -0.727939 -0.196441 -0.534367 -0.095124 -0.916601 -0.025087 0.231527 -0.995548 0.214138 0.256647 0.128813 0.058144 -0.383795 0.386872 -0.421043 -0.262800 -0.473849 -1.029091 0.104061 -0.247384 0.284613 0.254911 -0.414300 0.054895 -0.190525 0.626936 0.039263 -0.001907 -0.106768 -0.198036 0.634079 0.179430 0.508768 0.166858 -0.311795 0.188598 0.271046 0.134779 0.309001 -0.946153 -0.846729 0.061972 0.916213 -0.003496 0.487651 -0.329069 -0.633101 0.007715 0.251194 -0.840386 -0.329865 0.321327 0.021897 1.062846 0.510167 0.565647 -0.305718 -0.061831 0.978799 0.443940 0.338468 -0.034888 0.294203 -0.318384 0.071870 0.158691 -0.105219 -0.536090 -0.205405 1.081379 -0.209639 -0.702538 -0.534324 -0.056507 0.205799 0.402817 -1.036171 0.044626 0.238083 -0.342265 -0.529000 0.600166 0.614850 0.029063 -0.251826 -0.733011 -0.531493 -0.094960 -0.459293 0.328981 0.682334 0.025388 0.378112 -0.285385 -0.181420 0.555791 0.844541 -0.513145 0.247672 -0.197667 0.098042 0.935589 -0.008490 0.019063 0.847902 0.599537 0.186761 -0.160627 -0.538671 0.771017 0.427872 0.244413 -0.712632 0.105869 0.513895 0.081436 0.193571 0.593804 0.164372 -0.909952 0.083833 -0.217679
GCA 0.259566 -0.379463 -0.485061 -0.686303 0.979012 0.824869 -0.604704 0.487920 -0.042300 -1.107786 -0.133390 -0.266108 -0.565800 0.623957 0.070598 -0.241435 0.299759 -0.433348 0.561387 0.478006 0.524393 -0.222659 -0.415311 0.647573 0.016348 0.166059 -0.354375 0.246333 -0.247911 -0.246142 -0.421128 -0.321926 0.262859 -0.088303 -0.242588 -0.073066 0.371697 0.124139 -0.407312 -0.418047 1.008674 0.408682 -0.627608 -0.199590 -0.499209 -0.058179 0.178854 0.393000 0.626259 0.495798 0.109252 -0.695118 0.844507 -0.310717 0.003499 0.010988 0.736407 0.206357 -0.148496 0.134950 0.798000 0.521680 -0.416470 0.237128 -0.407864 -0.023443 0.637802 0.351489 -0.410010 0.706381 -0.280786 0.356743 -0.683396 0.565322 0.202982 -0.244446 -0.687389 0.097965 -0.160220 0.669590 -0.157905 -0.305764 -0.357688 0.075890 0.499036 0.130584 0.828773 -0.371395 -0.250605 0.661992 0.224263 0.352010 -0.331718 -0.584697 0.048607 0.083439 0.266079 -0.144299 0.281343 0.024900 0.569265 0.114132 0.070412 0.251675 -0.241445 0.275147 0.180226 -1.364248 0.601665 -0.747613 0.671315 -0.531650 0.308793 0.496271 -0.260250 0.771042 -0.037593 0.107711 -0.358756 -0.054920 0.008322 0.578985 0.554315 0.337302 -0.613587 0.259157 -0.315380 -0.657840 -0.029636 -0.134258 0.230142 -0.285363 -0.111693 -0.042367 -0.404994 -0.160023 0.777796 1.085643 0.049327 -0.413330 -0.340784 -0.142525 0.257192 0.020376 0.158679 -0.097445 -0.676256 0.304353 -0.065307 0.735073 0.515838 0.690339 -0.005026 0.120661 1.221747 -0.117383 0.268481 -0.519647 -0.555314 -0.652618 0.062686 -0.007891 -0.600732 0.041849 -0.150431 -0.582686 -0.899332 -0.604493 0.507186 0.178026 0.048467 -0.530748 -0.150759 -0.055727 0.384033 0.733454 -1.237079 0.370136 0.695503 0.410062 -0.089502 0.765151 0.641383 -0.331055 -0.091648 0.590515 0.087779 0.201687 0.439911 -0.184000 -0.555445 -0.545396 0.474293 0.179278 0.488554 -0.433030 1.132415 0.248983 0.470124 0.317061 0.196876 -0.667261 -0.235333 -0.103654 0.695498 0.139699 -0.008607 -0.257116 -0.267922 0.473280 -0.211827 0.083091 -0.653526 -0.146997 -0.333248 -0.002373 0.129498 -0.428301 0.161047 0.179414 0.464006 0.405088 -0.461184 0.201825 -0.383056 0.237384 -0.485861 -0.753225 0.362181 -1.073958 -0.425932 0.795476 -0.521440 -0.139010 0.333726 -0.173904 -0.628402 -0.055407 0.479994 -0.237760 -0.286886 -0.003722 0.530973 0.350258 -0.351048 0.022333 -0.204472 0.120520 0.491448 -0.206104 -0.370343 0.039146 -0.016945 0.004811 -0.122079 -0.602200 0.303785 -0.304956 0.004181 0.365124 -0.241754 0.444364 -0.046838 0.046034 0.904328 1.087176 -0.523594 0.459487 -0.153786 -0.213440 0.079408 0.488301 -0.426311 0.421772 0.898408 -0.277861 -0.849015 0.735800 0.456347 0.170146 -0.309764 0.345813 0.543178 0.560179 0.319939 0.041032 -0.671071 0.115173 0.316231 0.688084 0.256434 0.180729 -0.960874 0.464639 -0.179797 -0.170105 0.567836 -1.173928 0.164599 0.458948
CAA 0.481695 -0.106578 0.002943 0.032583 0.931759 -0.236703 -0.085292 0.892967 0.179227 -0.991781 -0.445512 0.080820 0.205902 0.331177 0.907323 -0.715070 0.295318 0.184682 -0.589211 0.295710 0.074955 -1.172998 -0.262715 0.316570 -0.216994 -0.308413 -0.203960 0.047055 -0.088821 -0.584054 0.083220 -1.141619 0.302330 -0.117308 -0.434740 -0.372697 0.104046 -0.496620 -0.668700 -0.387791 -0.149232 -0.780912 0.375718 -0.007316 0.611417 0.348895 -0.851565 -0.177557 0.362529 -0.096266 0.506401 0.385706 -0.416039 0.035678 1.213347 -0.742976 0.755560 0.224817 -0.159794 -0.114019 -0.578405 -0.009020 0.136397 -0.154600 -0.601658 -0.554511 -0.166902 0.101336 -0.115197 0.186778 0.407914 -0.103407 -0.212210 -0.006151 -0.348802 -0.137383 -0.318161 0.864191 -0.357388 -0.606253 -0.032662 -0.338313 -0.294968 -0.188826 1.545409 0.886792 0.692532 0.006924 0.336494 0.711005 -1.058507 -0.810315 0.204204 -0.185691 1.048108 -0.079701 0.386358 -0.944797 -0.280905 0.191884 0.570265 0.213157 0.386841 -0.043114 -0.053713 0.333270 -0.082944 -0.168682 -0.911434 -0.325771 0.561173 -1.151889 0.307201 0.029389 -1.020725 -0.108535 -0.138553 0.433605 0.527295 0.128853 -0.085998 -0.090114 0.317008 0.194056 0.012812 0.038455 0.116936 0.326324 0.283614 0.093924 0.520680 0.643680 0.165994 0.661574 -1.006397 -0.414725 0.169459 0.126695 -0.906061 -0.615410 0.503091 -0.101496 0.453348 0.013306 0.519391 -0.378139 0.580479 0.089886 -0.595769 -0.166237 -0.462433 0.020328 0.413381 -0.428222 1.017803 0.112746 0.636772 -0.859121 -0.308643 -0.619012 -0.381582 0.135706 0.621462 0.024921 -0.044445 -0.016988 -0.307264 0.430834 1.197910 0.611072 0.353993 -0.535454 -0.353830 -0.071305 -0.469380 0.116021 -0.299477 0.469519 0.652991 -0.018020 0.887321 0.345127 0.850413 -0.785422 0.312936 -0.568281 0.250873 -0.226996 -0.134094 -0.468778 -0.341425 0.043710 0.083350 0.806618 1.210982 -0.202443 0.864486 0.129417 0.467438 -0.587896 -0.314376 0.878539 -0.773752 -0.296064 -1.140911 0.981055 1.026976 0.327892 0.501444 1.180251 0.122095 0.197103 -0.151991 0.699200 -0.083910 0.597773 0.196982 -0.454322 -0.000866 -0.231062 -0.553720 -0.638303 -0.061319 -0.633675 1.147280 0.087890 -0.527502 -0.393532 0.846085 0.728374 -0.142045 -0.690872 -0.035491 -0.319352 0.064090 0.600869 -0.651447 -0.745092 0.018840 -0.295844 -0.308046 -0.397944 0.816938 0.129914 -0.101955 0.700772 -0.329552 0.202046 -0.114868 -0.395568 0.208615 0.162618 -0.108654 0.260772 0.002621 0.398888 0.090978 0.128213 -0.561481 -0.012521 -0.056641 0.404521 0.253125 0.340907 -0.239005 0.161568 0.730593 0.255155 -0.455543 -0.256164 -0.252159 0.694870 0.161109 -0.239710 -0.516743 0.478097 0.049704 -0.070672 -0.336419 0.411772 0.667881 -0.037215 -0.033150 -0.417406 -0.408974 -0.197411 0.381820 0.171652 -1.377122 0.598894 -0.421228 -0.308522 -0.783351 0.098861 -0.769120 0.187813 -0.962140 0.215693 -0.306115 0.333760
ACA 0.890490 -1.274719 -0.413771 -0.062233 -0.375829 -0.993258 0.440222 0.424274 0.215280 -0.479005 -0.111659 -0.579942 0.108184 -0.383093 -0.288116 -0.712427 0.866704 -0.330453 0.176375 -0.381685 0.651030 -1.091631 -0.602374 -0.083392 0.401707 -0.535569 0.716174 -0.175164 0.212060 -0.745047 0.070217 -1.244158 -0.222475 0.318912 -0.626582 -0.135495 0.177458 -0.234576 -0.095352 -0.557846 0.239923 -0.178552 -0.871278 0.175743 1.029225 -0.447857 -0.855801 1.429551 0.192718 -0.508184 -0.221707 0.078359 -1.081346 -0.151189 -0.053805 -0.812621 -0.025088 -0.764609 0.335283 0.048113 -0.372634 -0.096572 -0.063830 0.492302 1.031627 -0.186655 0.008216 0.790812 -0.685770 1.697751 -0.285366 -0.328838 -0.956549 -0.132878 -0.297758 -0.327661 0.334325 0.229129 -0.277881 -0.800052 -0.158967 -0.138889 -0.996683 0.112563 -0.654939 0.078608 -0.122976 -0.018283 0.270862 -0.210958 0.136339 0.091574 1.540584 -0.757551 0.866788 0.032526 -0.893231 0.265261 0.433333 0.461031 -0.653321 0.318693 -0.155735 -0.416702 -0.656184 0.586280 0.069627 -0.308931 0.039581 -0.282174 0.609745 0.076528 -0.157865 -0.034083 -1.009582 0.589869 0.533606 0.532143 0.590099 -1.100802 -0.622696 -0.052782 0.486769 0.067990 0.867975 -0.357234 -0.685964 0.202311 0.804562 -0.357778 0.325324 -0.839241 0.298687 0.557665 0.640109 0.493946 -0.113497 0.676378 -0.007583 -0.980087 0.226003 0.231622 0.101384 0.537838 0.048312 -0.252159 0.356601 0.223486 -0.438226 0.009414 0.712535 0.220579 0.092740 0.343016 0.064304 -0.281440 1.303906 0.086425 0.290883 -0.859421 -0.383909 -0.616947 -0.152905 0.211331 -0.816497 0.243017 -0.701974 -0.938989 0.201757 0.060155 0.704242 -0.314630 0.113423 0.417901 0.762359 -0.019899 -0.496304 0.700496 0.102306 0.114605 0.507441 0.365399 0.110929 -0.603594 0.046130 0.221432 0.293566 -0.431361 0.848595 -0.586658 0.106045 -0.205283 0.815608 -0.092924 0.458548 0.404823 0.155170 0.053133 0.238924 0.114790 0.830580 1.339038 -0.192473 -0.266146 -0.499678 0.432310 0.795060 -0.856540 0.467460 -0.164296 -0.082501 -0.156559 0.500624 -0.380995 -0.157868 -0.410398 0.393950 -0.141171 0.189046 -0.147986 -0.898233 -0.159109 0.497465 -0.797682 0.192559 0.142921 -0.430535 0.109683 0.704999 -0.764248 0.653565 0.195231 0.280537 -0.446623 0.886280 -0.029867 -0.087926 0.146775 -0.798212 -0.123724 -0.303392 -0.399313 0.027469 0.637686 -0.225119 0.410107 -0.282956 -0.305442 -0.813666 0.482814 0.024091 0.031414 -0.062571 -0.275255 0.878201 -0.446391 -0.373726 0.456859 0.466365 -0.207160 -0.082121 0.399417 0.430342 0.546944 0.812204 0.575805 -0.770925 -0.236894 -0.271954 0.649244 0.842690 1.128847 -0.381588 0.464033 -1.082844 -0.758575 -0.562995 0.151995 -0.058472 -0.727038 0.464632 0.033857 0.461104 0.104683 0.141667 -0.424851 0.170934 -0.420090 -1.213314 0.267323 0.212552 -0.385490 -0.514740 0.062318 -0.970413 -0.583312 -0.200577 0.158481 0.427972 0.268758
GCT 0.808601 -0.508441 0.515862 1.590447 -0.893386 0.189621 0.255697 0.409878 0.504196 -0.098591 -0.273335 -0.142905 0.513152 0.029299 0.895378 0.389059 -0.237190 0.091952 -0.000085 0.838846 -0.822092 0.458896 -0.364314 -0.456008 -0.143068 0.869066 0.429673 0.372697 0.443228 0.227917 -0.109096 -0.086241 -0.453519 0.221887 -0.351752 0.727161 -0.810731 0.389297 0.102532 0.230450 0.369593 0.240921 0.880182 -0.178252 0.958596 0.065815 0.238005 -0.279893 0.369586 -0.618254 0.228509 0.165441 -0.103240 0.172985 0.472710 0.514234 0.169799 0.045113 -0.632914 -1.249022 -0.087503 0.686748 1.050008 0.281231 0.302285 0.414156 0.521471 0.088185 -0.527833 -0.334631 0.206483 0.354847 0.495354 0.222782 -0.003794 0.555356 -0.332309 0.741344 0.710084 0.255722 0.312380 -0.537829 -0.163131 -0.344691 -0.200479 0.282180 -0.610705 0.391241 -0.496681 0.053631 0.040166 0.123737 0.116513 0.437319 0.393905 1.245183 0.032900 -0.561732 0.347253 -0.958495 0.146623 -0.622825 0.237501 0.023364 0.031707 1.151275 0.683955 0.093509 0.218392 0.035052 -0.867254 -0.191619 0.427100 0.179176 -0.301567 -0.134529 -0.173313 0.468070 0.856727 0.378474 -0.031176 0.201096 -0.354634 -0.688265 -0.394040 -0.247454 0.330240 -0.125269 -0.783936 0.337261 0.906014 -0.535197 -0.671931 0.821647 0.071974 -0.381825 0.174693 0.026466 1.128702 0.366678 0.969352 0.813925 0.560646 -0.644018 -0.053157 0.373249 -0.923022 0.084658 -0.141305 0.035609 0.622872 -0.357835 0.166341 -0.553951 -1.022250 -0.445652 0.535299 -0.331591 0.831941 -0.661988 0.721565 -0.509191 0.879204 -1.460904 0.167845 -0.195330 1.101729 -0.922515 0.230812 -0.523536 0.018124 0.267876 0.447618 -0.711050 -0.458210 -0.200763 -0.041486 -0.055526 -0.333301 0.356632 -0.766196 0.277487 0.720995 -0.484884 0.399820 -0.266706 0.209243 -0.159819 -0.358601 0.976799 -0.391001 -0.217549 0.759666 -0.354489 0.080040 -0.310335 -1.506613 -0.290957 -0.024595 -0.180120 -0.209452 0.819445 0.329553 0.306293 -0.807792 0.325548 0.329825 -0.054677 0.215630 0.405309 -1.063574 -0.240207 -0.132269 -0.021384 -0.410471 0.543840 -0.199458 0.994230 -0.700130 -0.336692 0.764036 -0.097979 0.482379 -0.538879 0.186472 0.277180 0.070797 0.155913 0.076036 -0.033830 0.059922 -0.057898 -0.375339 -0.026991 0.877239 0.285502 0.269449 -0.829452 -0.049337 -0.294901 0.771003 0.036325 -0.613954 0.118537 0.709279 0.560122 -1.314161 0.105497 0.263669 -0.358352 -0.291350 0.438263 0.295159 -0.489721 -0.747494 -0.615670 0.791748 -1.160622 0.623939 -0.120814 -0.741251 -0.289198 0.368567 0.125509 -0.139917 -1.118232 0.133361 1.209659 0.624356 1.229606 -0.812188 1.025718 -0.355831 -0.506107 0.582339 0.410801 -0.080042 -0.996165 0.264998 0.369706 -0.286963 -0.364522 0.819664 -0.237776 0.508514 0.351230 -0.238626 0.812472 -0.661777 -0.457859 -0.529865 -0.205434 -0.229650 0.163250 -0.559417 0.500421 -0.635565 -0.063704 0.043372 0.332745
ATG 0.495396 0.380916 -0.462744 -0.256428 -0.777116 -0.404433 0.160608 0.383896 0.356096 0.065329 0.144356 -0.405486 0.046815 -0.014406 0.728917 0.065315 -0.322715 -0.365801 0.099705 -0.749511 0.213816 0.739957 0.242656 0.519585 0.870170 0.775496 -0.133113 -0.108930 -0.688055 -0.356935 0.272940 -1.515602 0.221046 -0.535942 -0.385092 0.098891 0.024745 -0.256877 -0.196296 0.417887 0.578407 0.054299 -0.494660 -0.089806 0.370104 0.433069 0.306943 -0.881785 0.437072 0.479876 0.261704 -0.052103 0.704125 -0.081702 -0.290485 0.191201 -0.201358 -0.253624 0.376320 0.173806 0.466273 0.348611 -0.438369 0.236923 -0.738021 0.513855 0.133205 -0.312297 -0.650303 -0.400083 0.086305 0.347390 0.449182 -0.407449 0.017955 0.634381 -0.228533 0.436279 0.212204 0.576334 0.329412 -0.671948 -0.161906 0.184375 0.151370 0.699013 0.766468 0.150398 -0.505040 0.081534 0.666016 0.596258 -0.117467 -0.422211 -0.092705 0.741612 0.824216 0.409498 -0.580474 -0.296439 -0.044619 0.144377 0.438454 0.630805 -0.353038 0.074696 -0.012588 0.148394 0.787115 -0.911202 -0.042146 0.611269 0.598391 -0.583172 0.192107 0.819246 -0.128942 -0.351398 -0.774552 0.474592 -0.083197 0.902521 0.440472 0.347573 -0.356729 0.355481 -0.019753 -0.233727 0.604122 0.211780 0.719665 -0.126835 -0.177741 -0.311640 0.147202 -0.675454 0.457329 -0.209668 -0.305771 0.132650 -0.259758 0.274134 0.082783 -0.378481 -0.036100 0.306257 -0.196197 0.195561 0.148982 0.680749 -0.195404 0.367282 0.296129 0.092061 -0.466345 -0.394062 0.941692 0.748267 -0.231277 0.073012 -0.100865 0.170352 -0.090251 0.192258 0.094009 -0.535357 0.750531 -0.114685 -0.173453 -0.026494 -0.099675 -0.206472 -0.083625 0.436187 0.617845 -0.029466 -0.670158 -0.243211 0.584940 0.085356 -0.674937 -0.139043 0.260314 -0.234570 0.244786 0.362117 0.082581 0.690616 0.741189 1.033274 0.021707 -0.959862 0.281521 0.642058 -0.056018 -1.226823 0.228389 -0.254735 -0.324643 0.250570 -0.166738 1.162101 0.128455 0.282943 0.350959 -0.073418 0.100781 0.342170 -0.064821 0.075181 -0.193445 0.334521 0.015340 -0.142338 -0.543573 0.354659 0.115400 0.684651 0.028902 0.355021 0.601633 0.240805 0.785551 -0.020224 -0.273854 -0.141311 -0.132162 0.043873 -0.013390 0.112408 0.219711 0.486205 -0.640703 0.213239 0.633937 -0.159630 0.020408 0.265461 0.295890 -0.373766 0.354072 0.341812 0.284399 -0.576818 0.182430 -0.699142 0.010958 -0.261823 0.244748 -0.194174 -0.156273 0.868389 0.155551 -0.587207 0.082093 0.464625 -0.382388 0.015240 0.474323 0.458383 -0.259180 -0.605340 0.320574 -0.648551 0.137909 0.264274 0.374569 -0.190522 -0.146190 -0.281694 0.066618 0.950612 -0.518011 -0.291466 1.061168 -0.921795 -0.124036 -0.282639 0.077105 0.539267 -0.346902 0.467574 0.687812 0.277660 0.621120 0.647540 -0.273907 0.382322 -2.073724 0.904219 0.503218 -0.016747 -0.681345 0.481613 -0.164985 -0.308289 -0.348134 -0.540055 -0.507557 0.222333
GTG -0.189281 0.094495 0.034419 -1.203788 0.352036 0.174365 -0.190873 0.061530 -0.307549 -0.972622 0.019850 -0.555331 -0.280044 -0.205530 0.307409 0.729728 -1.205428 0.050438 0.685857 0.248567 0.432839 -0.179678 -0.438889 0.404396 -0.485456 0.178748 1.108903 0.603958 -0.657554 0.878511 -0.263884 -0.218815 0.904196 -0.110700 -0.009550 -0.148526 0.488627 0.237481 -0.815121 -0.414029 0.336077 -0.108444 0.401461 -0.751497 0.028731 -0.165114 0.318834 0.033103 0.431388 0.116841 -0.409115 -0.109959 0.515736 0.234231 -0.029034 -0.406086 1.369782 0.071129 0.027755 0.460316 0.702588 0.836272 -0.135600 0.901489 0.105727 -0.646918 0.682816 0.260088 -0.058316 -0.154814 -0.035007 0.177007 -0.378833 0.518539 0.233860 -0.340488 -0.102021 0.255150 -0.560988 0.789829 0.731667 -0.409966 0.011293 0.331098 0.433146 -0.677067 0.572401 -0.182472 -0.360393 1.187791 0.163034 0.920791 -0.396994 0.842428 0.169848 -0.040100 -0.085007 0.738108 0.240168 -0.456773 0.212680 0.496167 -0.900546 -0.380900 -0.212891 0.120521 0.523397 0.214288 0.102982 0.193562 -0.600607 0.802273 0.217385 0.916958 -0.267135 0.404521 0.800953 -0.503618 -0.778984 0.031936 0.793245 0.051996 -0.531334 -0.479680 -0.458936 0.165530 -0.504728 -0.859969 1.131739 0.129894 0.451862 0.038530 0.009431 0.352460 -0.483946 0.276890 0.253068 0.611785 -0.532501 -0.273601 -0.663981 -0.173953 0.255459 0.241511 -0.217923 0.150333 -1.050339 0.896423 -0.201995 -0.084994 0.463381 0.442941 0.798760 0.733475 -0.152026 0.467405 -0.082442 -0.413658 0.348610 -0.129768 -0.313985 -0.120107 -0.084695 -0.040050 0.283696 -0.055957 -0.119426 0.056604 0.338906 0.370799 -0.772311 -0.551581 0.026077 -0.423723 -0.122533 -0.028011 -0.016907 0.621901 -0.418953 -0.111964 -0.235349 0.298913 0.437877 0.071783 -0.164124 0.180138 -0.046877 0.411820 0.059028 0.299256 -0.358529 -0.444417 0.206081 -0.255259 -0.166795 -0.224317 0.719011 -0.559532 -0.637680 0.330978 0.506160 -0.246334 -0.242373 -0.481640 0.785739 0.079944 0.371129 -0.471949 0.296402 0.992900 -0.575469 0.219987 -0.863337 -0.799429 0.501081 0.626124 0.201178 -0.909188 -0.055599 -0.353721 0.626979 0.400305 0.403161 -0.116899 0.213875 0.722842 -0.636836 -0.698410 0.505862 -0.525989 -0.545609 1.498163 -0.563886 0.318334 -0.074085 0.202369 0.788330 0.245762 0.303684 -0.253047 0.344201 -0.682720 0.600395 0.377822 0.036456 -0.605757 0.544475 1.265813 0.233460 -0.454632 -0.682374 0.409327 -0.438185 0.503167 -0.384167 -0.897683 0.533009 0.093435 0.904353 -0.376301 -0.422682 -0.838440 0.237561 -0.555304 -0.038639 0.352111 0.032435 0.131402 0.965235 0.058896 -0.698292 -0.126756 -0.161510 -0.003179 0.565847 -0.553946 -1.022973 0.526038 0.377767 0.659671 -0.866607 -0.258623 -0.088143 1.015980 0.539230 -0.119917 -0.926873 0.806538 -0.182763 0.802332 0.491929 0.094629 0.210188 -0.068096 -0.276751 -0.320168 0.843130 -0.826190 -0.278550 0.138495
TGT 0.307956 0.667805 -0.152421 0.026387 0.949916 0.660694 -0.375068 -0.469659 -0.248528 -0.345807 0.376834 0.503498 -0.124058 -0.009488 -0.472354 0.147429 -0.082888 -0.087859 -0.018187 0.162969 0.204434 0.067319 0.020032 0.329842 0.014656 0.087795 0.179472 0.162907 0.703186 0.239550 -0.728555 -0.075365 0.423029 0.260250 0.028576 0.038546 0.546013 0.230687 0.167587 -0.032250 -0.343067 -0.008943 -0.197297 -0.095156 0.076816 -0.323908 0.399877 -0.054344 0.049052 0.059777 -0.014149 -0.410382 0.415511 -0.438246 -0.613459 0.208975 0.028953 0.135802 0.011442 0.217253 0.326471 -0.111273 0.215403 0.009387 0.340369 -0.395186 -0.662442 0.122944 -0.406369 0.342278 0.159862 -0.519631 -0.284666 0.607506 -0.202874 -0.473850 0.129422 -0.160912 -0.729018 0.531201 -0.074946 0.081386 0.323406 0.157141 -0.180369 -0.793338 -0.028393 -0.415699 -0.230581 0.404589 0.197755 0.695657 -0.725944 0.096629 -0.031369 0.116491 0.011439 0.350347 -0.065466 0.421096 -0.143250 -0.188123 -0.050912 0.095233 -0.021121 -0.336339 -0.379986 0.050023 0.145467 0.019922 -0.286717 -0.503294 0.079577 -0.011546 -0.195761 0.212578 -0.019710 -0.056785 -0.420754 -0.252576 0.134889 0.165582 0.157152 -0.453191 0.174622 -0.281936 0.214306 -0.478736 -0.826049 0.100736 -0.768647 -0.063366 -0.062757 -0.199061 0.125289 -0.037878 0.500376 -0.070035 0.216028 0.613920 -0.271022 -0.477025 0.218713 -0.139567 -0.200819 -0.087439 -0.065854 0.288141 0.157736 0.020713 -0.106007 0.056847 -0.035447 -0.402149 0.404835 -0.253056 0.205207 -0.528347 -0.087968 0.012241 0.367105 0.437441 -0.728733 0.370365 0.592929 -0.499159 -0.521473 -0.410334 -0.479800 -0.027000 -0.003547 0.049931 0.238628 -0.026578 -0.005225 -0.369447 0.547299 -0.007147 -0.578561 0.360197 -0.099716 -0.425186 0.010243 0.114610 0.053551 0.179052 -0.005447 0.098240 -0.216379 -0.384290 -0.251081 0.454896 0.383559 -0.414232 -0.142185 0.040334 -0.027796 0.072624 0.137469 0.409341 0.144286 0.030989 0.179032 0.058722 0.664547 0.131532 0.111444 -0.269711 -0.518896 0.216885 -0.158070 -0.232255 -0.173919 -0.108045 -0.144907 0.088320 -0.363675 -0.205359 0.097292 -0.039603 0.430903 0.403532 0.053922 0.136009 -0.280838 -0.019119 0.103631 -0.022790 0.267649 -0.672393 -0.785305 0.178579 0.098638 0.375755 0.231385 -0.009413 -0.392766 -0.091413 0.235934 -0.096865 0.015548 0.265099 0.494702 -0.482779 0.230507 0.037367 0.411952 0.048850 0.282386 0.222971 0.057640 -0.475397 -0.071855 0.589482 -0.235828 -0.350505 0.174152 0.100766 -0.487413 -0.549747 -0.105052 -0.078531 -0.038411 -0.290026 0.498093 0.588882 0.113977 0.016775 0.054361 0.253505 -0.172466 -0.161815 0.282405 0.045261 -0.065880 0.309298 -0.443995 -0.269913 0.480915 -0.102400 -0.497610 -0.318509 0.173603 0.105377 -0.109485 0.303780 -0.316819 -0.027234 -0.194289 -0.420939 0.311422 -0.134987 1.015064 0.554735 -0.133401 -0.217604 0.520708 -0.337634 0.415016 -0.480579
CTT 1.018879 -0.160157 0.263282 0.825253 0.054614 -0.666427 -0.035690 0.298346 -0.292953 -0.473694 0.374985 -0.212151 0.834968 0.062369 0.713894 -0.189157 -0.402900 -0.371115 -0.309889 -0.145912 -0.802203 0.389180 -0.606559 -0.143514 0.736380 0.095283 0.419192 0.824456 -1.145549 0.239868 1.080146 -0.989164 0.108723 -0.539637 0.205207 0.122738 0.429536 -0.562828 -0.371504 -0.267947 -0.008908 -0.097200 0.224779 0.321455 0.912955 0.058983 0.130880 -0.699107 0.157875 0.538833 0.211415 -0.035969 0.492646 -0.299746 1.242316 -0.142587 0.483261 0.584336 0.606170 -0.926141 0.067520 0.198841 0.852358 0.340962 -0.042442 -0.212802 0.438909 -0.601109 -0.733960 0.450394 0.825129 -0.198579 -0.317053 0.280757 0.149910 -0.270142 0.084035 0.643303 -0.516306 -0.274436 0.179346 -0.200647 -0.411425 -0.406532 0.629669 1.064508 0.121830 0.172309 -0.085903 0.427708 0.251947 0.546084 0.254056 0.142719 0.754936 0.249846 0.096052 0.189057 0.003425 -0.676699 0.091961 0.334861 -0.083970 -0.810336 -0.038104 0.968528 0.911445 -0.041958 0.034415 -0.484806 0.138572 0.010984 -0.252487 0.154869 -0.831678 0.399410 0.703090 0.564952 0.306995 0.419730 0.354315 0.317961 -0.712722 -0.813377 0.126514 -0.023082 0.068485 0.068185 -0.985931 0.910416 0.754949 -0.213284 -1.146093 1.203182 -0.632015 -0.180641 -0.071467 0.231404 0.705940 0.160144 0.128178 0.292023 0.785776 0.666115 -0.078031 -0.692315 -0.152810 0.011899 0.298810 -0.108182 -0.345203 -0.254455 -0.033583 -0.354579 -0.551648 -0.492294 1.080384 0.406247 0.328810 -0.405217 0.179995 -0.136920 -0.169451 -1.166452 0.644722 0.126935 0.855676 -0.403112 0.771895 -0.214807 0.024831 -0.014497 0.278837 -0.428782 -0.430671 0.417373 -0.290415 -0.076255 -0.227652 0.631236 0.638252 -0.083220 -0.040264 -0.281816 1.175191 -0.573630 0.408209 -0.288669 -1.177669 0.057383 -0.043185 0.018503 0.845648 -0.517968 -0.210947 0.200527 -0.855460 0.324648 1.008372 0.076113 0.456604 1.102650 -0.638964 -0.257561 -0.012021 0.689350 1.025984 0.274686 0.800418 0.277508 -0.679742 0.220924 -0.755077 -0.443876 0.390565 0.046496 -0.462050 0.735178 -0.064890 -0.253132 0.036919 1.188740 0.151721 -0.827604 0.432016 0.582683 -0.536701 -0.199846 0.740603 -0.158585 0.081725 0.393715 -0.244527 -0.058925 0.886831 0.388233 0.177340 -0.153801 -0.032866 -0.446167 -0.394540 -0.862148 -0.266996 -0.202546 0.230145 0.446420 -0.463347 -0.437333 -0.748431 -0.028240 -0.538960 -0.830099 -0.058300 -0.279611 -0.682276 0.329340 1.284029 -0.384531 -0.167479 -0.138619 -0.370281 -0.430386 -0.242157 0.051251 -0.337979 -0.863173 0.305694 0.418201 0.163039 0.693350 -0.027474 0.979975 -0.023323 -0.434441 0.225076 0.279349 -0.441900 -0.439137 -0.004372 -0.193492 0.292720 -0.489691 0.590540 -0.318495 0.226761 0.085991 0.185247 0.355619 -0.898116 0.183377 -0.424306 -1.219907 -0.384375 0.696777 -0.769185 0.453603 -0.049507 0.099293 0.475370 0.256196
TGC 0.627963 0.869573 -0.512510 -0.934410 -1.062334 0.013280 0.476455 0.114883 -0.071507 0.322027 -0.174559 -0.767475 -0.456543 0.453203 0.720358 -0.224944 0.049212 -0.505678 -0.616386 -0.098556 0.688673 1.383264 0.488043 -0.563443 0.132321 0.476155 -0.686758 0.010970 -0.340215 -0.725176 -0.869467 -0.856949 0.712185 0.025437 -1.321252 -0.283949 0.611328 -0.038396 -0.563662 0.166182 0.205970 0.096065 -0.359359 -0.232228 1.667774 -0.207672 0.294656 0.010443 0.619785 0.621802 -0.006104 0.127291 0.289803 -0.034417 0.407152 0.039051 0.751246 -0.325641 -0.355506 0.110883 0.395703 1.062007 0.121023 0.462703 -0.267939 -0.277125 0.165726 0.075398 -0.712003 -0.176267 -0.190456 1.053505 0.136757 0.266972 -0.612086 -0.128772 -1.246694 0.283872 -0.695063 0.268735 0.622389 -0.263817 0.436587 0.576269 0.092289 0.624186 0.992583 0.069405 0.071276 1.170092 0.216538 0.103883 -0.104569 -0.119053 0.559465 0.415960 0.004834 0.388543 -0.311892 -0.845523 0.429018 -0.625319 0.600636 0.546490 -0.332142 -0.327217 0.516681 -0.397848 0.625444 -0.541353 0.457478 -0.444155 1.332329 0.095835 -0.584571 1.564925 -0.985290 0.411777 -0.852069 0.326436 -0.452799 1.566210 0.039159 -0.008635 -0.807886 0.777407 0.411289 -0.525621 0.023431 -0.000191 0.289388 0.036659 0.632949 0.910917 -0.747279 -1.617614 0.590930 0.092458 0.554056 -0.420621 -0.520465 0.242412 0.188741 0.135957 0.172986 -0.512787 -0.513228 -0.812777 0.527564 0.783599 0.424785 0.500989 0.519694 -0.282001 -0.522207 -1.063757 0.580016 -0.434047 0.617059 -0.745720 -0.531966 -0.130117 0.809879 -0.741981 0.424268 -1.266583 0.424273 -0.667705 0.058411 -0.361978 0.443998 0.240047 0.066948 0.959293 0.299437 0.784505 -1.584833 0.811259 0.764319 0.842041 -0.068721 -0.079307 0.651946 -0.385990 1.161999 0.113750 0.228203 -0.246603 0.566071 -0.004588 -0.370367 -0.054023 0.546905 -0.345322 -0.121265 -1.849434 0.042238 -0.530167 -1.242040 0.054292 -0.054720 1.552941 0.778312 0.709276 0.257559 0.763860 0.710246 -0.286417 0.003422 0.814765 -0.437998 -0.090896 0.283894 -0.159308 0.298518 1.078535 -0.047143 0.150520 -0.062876 0.642564 0.197478 -0.565868 1.179888 -0.381371 -0.196975 -0.554490 -0.278883 -0.025921 0.763688 -0.720005 -0.161447 0.549023 0.002378 -0.148849 0.766517 0.622799 0.409521 0.131977 0.044762 -0.986243 0.122891 0.159281 0.032958 0.003714 -0.779515 0.285043 -0.105431 -0.005852 0.338091 0.188031 -0.485327 0.338610 0.080714 -0.375640 0.361607 -0.403194 -0.059033 0.181637 -0.061477 -0.059302 -1.196439 0.397810 0.554293 -0.459114 1.145770 0.196869 0.666328 0.308873 -0.328148 -0.230249 -0.822054 1.065066 0.047515 -0.151609 0.745650 -0.651496 -1.053485 -0.073901 0.437831 0.299758 -0.874868 -0.007447 1.252011 0.245804 0.502752 1.182204 0.111558 1.078827 -1.085262 1.258216 -0.558642 0.071465 -0.920540 1.258973 -0.615640 0.764181 -0.634872 -0.706533 0.170205 1.108653
TCA 0.545386 0.428433 -0.330268 0.634243 -0.571411 0.234033 -0.119511 0.540116 0.028134 0.138533 -0.257963 -0.654602 0.318996 -0.223765 0.800166 0.074389 0.105504 -0.348643 -0.380773 -0.168478 -0.969352 0.321526 0.174845 -0.029265 0.183322 0.712778 -0.861435 0.239175 -0.028213 0.065371 -0.036581 -0.040080 -0.071269 0.068612 0.237686 -0.402351 -0.647202 0.087044 -0.133085 -0.102887 0.649603 0.732824 0.085772 -0.323112 1.303536 0.505859 0.119739 0.421843 0.476266 0.039173 0.269677 0.465228 0.147252 0.345788 0.663845 0.185381 -0.596325 0.025582 -0.530694 -0.710276 0.141308 0.329106 0.103740 -0.013017 0.939881 0.152051 0.382805 -0.682604 -0.455635 0.710360 -0.696086 0.267885 0.638053 0.439736 0.710450 -0.189379 -0.604119 -0.129682 0.624519 0.094235 0.486103 -0.457214 -0.773060 -0.280296 -0.336265 0.449689 1.511807 -0.499463 -0.107175 -0.242754 -0.256608 -0.191987 -0.386993 -0.513189 0.241217 0.782035 -0.121289 -0.808786 -0.008865 -0.098367 0.773056 -0.237871 -0.090925 -0.214366 -0.351398 0.828081 -0.138486 -0.237932 0.151423 0.144131 -0.356864 -0.869059 0.243981 -0.082771 -0.516615 0.335882 -0.714140 1.062483 1.079942 1.025190 0.116600 -0.004019 -0.429114 0.707710 -0.093184 0.375414 -0.505615 0.017724 -0.532631 -0.019709 0.307418 -0.456067 -0.209410 0.314360 0.186573 -0.291969 0.737617 0.262456 1.291677 -0.229575 -0.316361 0.408185 -0.552385 -0.786645 0.082242 -0.647942 -0.236969 -0.149125 0.454263 0.571670 0.830413 -0.621555 -0.331872 -0.336997 0.027357 -0.576288 0.290891 0.399218 0.279302 -0.540912 0.598274 -0.491617 1.268028 0.245808 0.451327 -0.558119 0.453173 -0.554826 -0.036893 -0.270405 0.412970 0.055882 0.110268 -0.011567 -0.449967 0.097077 -1.098047 1.031195 0.141428 -0.272322 -0.441994 0.317043 0.262994 -0.264732 0.924497 0.377408 -0.119069 -0.170334 -0.184737 0.193477 -0.326024 0.511888 0.446032 -1.232414 -0.182088 -0.851893 -0.572690 -0.512868 0.174812 -0.167613 -0.688134 1.260174 0.793001 0.487620 -0.715251 0.432486 0.510049 0.754831 0.105160 -0.399790 0.012956 -0.162603 -0.454892 0.053786 0.230011 -0.176107 -0.458426 0.862706 0.272391 0.582809 0.354497 -0.673538 -1.143594 -0.293188 -0.068546 -0.560637 -0.086815 -0.514523 0.036592 -0.469896 -0.629597 -0.272673 -0.340463 0.021952 0.386165 -0.531407 0.409581 -0.652820 0.039965 0.176811 -0.506418 0.234308 -0.816475 -1.173442 -0.085236 0.105646 -0.421579 -0.866340 -0.219249 -0.734184 -0.409473 -0.122459 0.356472 -0.772583 0.124194 -0.466705 1.071236 -0.250052 -0.314873 -0.108899 -0.105060 0.227823 -0.483915 -0.266874 0.736074 -0.599544 -0.188959 0.986335 -0.052313 -0.338608 0.150839 0.390617 -0.001189 0.279848 0.612971 0.545266 0.092218 0.660773 0.439039 0.493929 0.256422 -0.250146 0.392453 0.665283 0.033115 0.105049 0.008937 -0.215541 -0.840129 -0.531805 -1.129806 0.119911 -0.587379 0.415662 -0.410444 0.241648 -0.062082 -0.404713 0.055717 0.482599
AAT 1.181583 -0.587708 0.223994 -0.300702 0.687228 -0.155240 0.022034 -0.981849 -0.105075 0.025977 0.676207 0.066381 -0.922356 0.223785 0.498505 -0.105092 -0.408532 -0.502552 0.880074 0.307123 0.184325 -0.758950 -0.092249 0.558340 -0.314315 0.153103 0.051544 0.139208 -0.159197 -0.426505 -0.732253 -0.920129 -0.228672 0.808121 0.821386 -0.200456 -0.255147 0.285547 -0.208831 0.461888 0.415493 -0.542568 -0.387792 -0.769992 1.419960 0.320486 0.088344 -0.939950 -0.127005 -1.001576 -0.650285 -0.069922 0.124302 -0.175269 -0.605430 -0.412076 -0.216266 0.096739 0.421528 0.123084 -0.094268 -0.043062 1.083789 -0.013842 0.419307 -0.258437 -0.611684 -0.072405 -1.168509 -0.014220 -0.100981 -0.308911 -0.688346 -0.068496 -0.126555 -0.601539 0.828927 -0.184784 0.181872 -0.166289 -0.146513 0.205380 0.489991 0.594857 -0.835467 -1.192503 -0.663824 0.445262 0.095656 -0.359643 -0.422044 0.632855 -0.720633 -0.233709 0.516579 0.385367 0.948238 0.981455 -0.232082 0.933204 -0.234964 -0.123933 0.061275 -0.756327 0.218790 -0.478380 -0.205906 -0.909173 0.494689 0.240011 0.204076 0.058740 0.225620 0.293897 -0.407716 -0.520361 -0.082915 -0.205908 -0.964598 -0.449404 -0.064833 -0.596435 0.428551 -0.576859 0.462527 0.225306 -0.266646 0.305257 0.327800 0.266654 -0.348237 0.291794 0.690298 -0.314604 0.251935 0.556848 -0.334931 -0.558962 0.302588 0.030475 -1.080086 0.545919 -0.029449 -0.345928 -0.485789 0.374448 0.190211 0.018886 -0.180563 0.088258 0.039176 0.259696 -0.074838 -0.258511 0.083612 0.013697 1.263155 0.075043 0.090798 0.094096 0.280937 0.234588 0.391582 0.488715 -0.985345 0.400894 -0.043802 -0.831212 -0.125496 -0.340372 0.105545 0.212063 0.250498 0.409397 0.042928 -0.989820 -0.507819 0.033084 -0.166692 0.067547 0.070419 -0.673551 -0.024547 0.212674 -0.570927 0.028341 0.008533 0.174565 0.336864 -0.267339 0.012276 0.152534 0.893436 -0.451461 -0.696784 -0.021025 -0.208932 -0.949113 -0.704305 0.459577 -0.223692 1.748059 -0.366683 -0.843820 -0.472811 0.382282 0.460158 -0.571413 0.969218 0.226758 0.747488 -0.232356 -0.278462 0.007479 -0.635224 0.144718 0.170458 0.049737 0.320050 0.489116 0.013325 -0.134231 0.720520 -0.406237 0.573950 0.276379 0.650931 -0.175837 0.140099 0.107988 0.112992 -0.488443 -0.164051 -0.078551 1.132334 0.450830 0.216865 -0.134064 -0.397476 -0.078227 0.111528 0.168618 0.215463 0.058900 -0.723251 0.260172 1.053457 -0.029740 0.675681 0.510282 0.712350 -0.479828 -0.245018 0.615464 -0.105444 -0.206223 0.464934 0.265865 0.490335 0.233387 0.253147 0.236184 1.007627 0.198798 -0.014642 -0.458226 -0.094120 -0.264274 -0.067937 -0.205338 -0.132000 0.749639 0.242734 0.171251 0.234427 0.107601 -0.000859 0.216965 -0.031747 -0.412153 -0.556053 -0.199744 -0.267236 -0.173193 -0.584176 0.004007 0.200713 -0.032864 -1.474336 -1.095557 0.339169 -0.095296 1.347622 -0.282295 -0.525364 0.284666 0.656951 0.284258 0.280008 -0.924408
TCT 0.388874 -0.105723 -0.037943 0.437473 -0.717966 -0.186521 0.156467 -0.317964 -0.319585 0.000157 0.258000 -0.467124 -0.024884 -0.137216 0.486802 -0.117479 0.371676 -0.682569 -0.445942 -0.167923 -0.005138 0.448058 -0.019538 -0.150235 0.164182 0.181121 0.187036 0.263580 -0.984453 0.350284 0.220968 -0.640652 -0.336048 0.030633 0.748042 0.273697 0.808242 0.016678 -0.221043 0.138392 0.142299 0.589548 0.097705 0.653425 0.385333 0.238301 0.155997 -0.112471 0.517459 -0.563503 0.288320 0.385482 0.472879 0.220480 -0.022387 0.477405 -0.147865 0.730220 0.045290 -0.487890 0.318970 0.292678 0.072084 -0.430583 0.096013 -0.282129 0.212412 -0.182248 -0.414962 0.406671 -0.108881 0.042336 -0.402438 0.181576 -0.897658 -0.911379 0.314936 0.500692 -0.177256 -0.079201 -0.122880 -0.235384 -0.375180 -0.245274 -0.720854 0.271948 0.870789 -0.230702 0.398403 -0.069075 -0.358518 0.198406 -0.176897 0.335305 0.295489 0.554887 -0.464675 -0.415631 -0.280016 -0.303196 0.783995 -0.037463 0.022691 -0.571906 -0.882417 0.055477 0.314940 0.495177 -0.149709 -0.025438 0.014352 -0.048016 0.188054 0.265525 -0.472302 0.503287 0.700807 -0.450430 0.069652 -0.410340 -0.034790 0.520877 0.325259 -0.449671 -0.266705 0.005236 -0.519057 0.008482 0.001808 0.435914 0.220803 -0.163739 -0.531986 -0.543740 -0.468096 -0.294874 -0.003834 0.221100 0.458814 -0.581764 -0.542469 0.815653 0.259984 0.289619 0.428007 -0.323141 -0.009167 -0.155697 1.390302 0.117445 -0.045074 0.045379 0.140331 -0.198966 -0.040548 -0.559155 0.509008 0.449423 0.121031 -0.383445 -0.099599 0.262249 0.150334 -0.179823 0.000634 0.150079 0.614318 -0.537793 0.188509 -0.498908 -0.020431 -0.402586 0.412211 -0.099340 -0.362231 0.409542 -0.161460 0.139085 -0.310668 0.342253 -0.255622 0.069354 -0.160630 -0.607127 0.599209 -0.311610 0.310748 -0.230190 -0.707038 -0.402078 -0.561447 0.294385 0.162268 -0.277257 0.055312 0.099202 -0.410493 0.418371 1.423880 -0.282932 0.051883 0.736790 -1.041264 -0.245121 -0.465569 0.463990 0.563314 0.040437 0.997033 0.242270 -0.110014 -0.194717 0.401627 -0.249018 0.241069 0.237085 -0.178562 0.031492 0.338396 -1.027167 0.251298 0.334166 -0.016304 -0.456692 0.470357 0.439553 0.256803 -0.555314 0.680564 -0.149162 0.594355 0.871563 -0.791253 -0.787315 0.246135 0.487352 -0.499960 -0.079014 -0.157199 -0.232593 0.324941 -0.259068 0.225671 -0.226657 0.083845 0.407313 0.317797 -0.363282 0.135035 0.081166 -0.343539 -0.810221 -0.064565 0.331290 -0.666050 0.212783 0.764711 -1.044985 -0.496864 1.089188 0.100627 0.435553 -0.231778 0.631047 -0.318539 -0.450264 0.137712 -0.029647 0.109321 0.413220 0.178123 0.513510 -0.127907 -0.463276 0.289743 -0.393845 -0.033495 -0.758041 -0.003638 0.185481 -0.174590 0.426796 0.432152 -0.586813 0.148207 0.590703 0.271451 -0.161570 -0.646570 -0.510622 -0.312796 -0.172436 0.081357 0.741984 -0.469562 0.045061 -0.472171 0.212452 0.531685 -0.490070
TCC -0.213194 0.127960 0.628795 0.149497 -0.788764 -0.201273 0.568993 0.369202 0.456257 -0.311464 0.282990 -0.313383 0.059342 -0.397305 0.463815 -0.439491 -0.050281 -0.540066 -0.614594 -0.475478 0.574097 -0.788666 -0.618263 0.008408 -0.089803 -0.082561 0.570127 -0.045998 -0.328219 0.227262 0.121725 0.154222 0.683241 -0.083655 -0.480447 -0.139948 -0.223515 -0.452349 -0.731464 -0.471330 0.130821 0.007061 0.193727 -0.132988 -0.634507 0.005043 0.259728 0.341431 0.393227 -0.068678 -0.189887 0.127043 -0.216741 0.740123 0.230712 0.259288 0.260492 0.229549 0.264752 0.161106 -0.143245 0.333151 0.247118 0.832891 0.122582 -0.445172 -0.244292 0.504101 0.421172 -0.532468 -0.187045 0.274629 -0.138989 -0.054702 0.097240 0.019483 0.242681 0.102751 -0.417824 -0.078396 0.425460 -0.121523 0.066079 -0.613285 -0.449409 0.351310 -0.186046 -0.160842 0.109968 0.314124 0.231469 0.233683 0.573065 -0.125197 -0.094713 -0.129096 0.518873 0.045909 0.417385 0.488902 0.044291 0.276294 -1.057513 0.280875 0.155929 -0.014113 0.314955 0.404334 -0.248211 0.788133 -0.760360 -0.093983 0.298791 0.763573 -0.046301 0.126725 -0.065571 -0.617683 -0.455689 -0.394308 0.030965 0.367057 0.192906 0.330293 0.057495 0.193933 -0.081086 0.002891 0.519454 -0.256094 0.068672 0.066185 0.416980 -0.102725 0.209410 -0.320774 -0.392868 0.111472 -0.819392 -0.173779 -0.212774 -0.220011 -0.036962 0.100113 0.662399 0.003226 0.109188 0.086319 0.267602 0.285169 0.623862 -0.287836 0.529211 -0.302964 -0.427346 0.110102 -0.227701 -0.736032 0.666090 -0.129641 -0.034290 0.719662 -0.456698 0.036290 -0.580537 0.008898 0.580673 0.179975 -0.042736 -0.145283 -0.645244 -0.112467 -0.007776 0.069737 -0.330117 -0.364237 0.306846 0.607353 0.099418 -0.191596 -0.020819 0.554025 1.159604 -0.493596 -0.356391 -0.175786 -0.140501 0.207826 0.296625 0.150600 0.236242 -0.383469 -0.193267 0.532526 0.233687 0.244422 0.252218 0.094814 -0.148264 -0.053513 0.324741 -0.323863 0.505155 -0.395606 -0.137471 -0.025381 0.312413 0.066379 0.153074 0.322020 -0.145856 0.394683 -0.055376 -0.009133 0.328332 0.517718 -0.083232 -0.767680 -0.045458 -0.777431 -0.093612 -0.112730 -0.241380 0.307763 0.250789 0.123249 -0.337997 0.234218 0.249321 0.034804 -0.867410 0.021891 0.140959 0.080439 -0.296200 0.316541 -0.732509 0.257142 -0.333358 0.211649 1.171065 -1.116545 0.074959 1.003210 0.364561 0.212048 0.615142 0.249418 0.271780 -0.103563 -0.052387 0.230078 -0.506535 -0.311981 0.661952 -0.446746 -0.323151 0.121015 0.452051 -0.368870 -0.487574 -0.281005 0.292372 0.551673 -1.064295 0.318104 0.712474 0.129961 -0.313355 0.897023 -0.066514 0.164782 -0.656427 -0.530359 -0.735708 -0.678692 -0.788525 0.779593 0.287575 0.209812 0.495834 -0.095971 -0.267543 0.261608 -0.271918 0.548871 -0.182860 0.563037 0.148160 0.205435 0.556307 0.184108 0.096810 0.094314 0.077401 -0.246410 0.249055 -0.461371 -0.565177 0.379962
CTC -0.172852 0.422567 0.488987 0.739574 -1.303163 0.184907 0.032348 0.626332 -0.171819 -0.535680 -0.535656 -0.442731 0.405765 0.160261 0.122106 0.737721 -0.555306 0.100019 -0.393225 -0.193196 -0.520001 0.157274 -0.318212 -0.667672 -0.359597 0.590808 0.507800 1.168107 -0.990031 0.286072 0.653997 -0.329771 0.072520 -0.242243 0.640836 -0.483485 0.539919 -0.527784 -0.541564 -0.424267 0.208949 0.824973 0.865011 -0.436294 0.824976 -0.085894 0.266650 -0.102976 0.960912 0.745755 0.121546 0.233186 0.089484 0.933690 -0.149534 0.205947 0.391241 0.855443 -0.113992 -0.061290 0.391533 0.084494 -0.190997 0.060120 -0.681606 -0.029219 0.422804 -0.108012 0.086354 -0.764723 0.005166 0.512439 0.326025 0.218953 0.410749 -0.145460 -0.017769 0.724275 -0.170238 0.079107 0.615053 -0.984327 0.670965 -0.019362 0.590223 0.348626 0.934338 -0.349673 -0.779795 0.097447 0.260265 -0.453621 0.208543 0.953430 0.761595 0.610249 0.154597 -0.567521 -0.265118 -0.470671 0.189122 -0.443541 -0.009012 -0.396741 -0.279488 0.911895 -0.151238 0.760198 0.138135 -0.247816 -0.908512 -0.667956 0.351886 0.186352 -0.796110 0.451887 -0.185061 0.389627 0.246826 0.420658 0.762441 0.187441 -0.880598 -0.228111 -0.557505 0.320191 0.115774 -0.165428 -1.063232 0.150908 0.576628 0.259550 -0.286913 0.635178 -0.550433 -0.514297 0.610766 0.163302 0.112952 -0.352987 0.443165 0.128453 0.265739 0.233734 0.708350 -0.715393 -0.287317 1.027978 -0.158335 0.121647 0.313854 -0.821315 0.273722 0.449463 -0.391830 -0.623834 0.128530 -0.051780 0.568463 -0.673568 0.632739 -0.921143 0.332177 -0.629771 0.950344 -0.711108 0.789947 -0.115268 0.460057 -0.015951 -0.377972 0.213411 0.331695 0.224117 -0.517280 -0.431268 0.472015 -0.228641 -0.616274 0.460770 -0.202333 0.182559 0.757381 -0.998415 1.167083 -1.012038 0.858742 -0.528899 -0.913603 0.273851 -1.115834 -0.214677 -0.071041 -0.171144 -0.335373 -0.276485 -0.111780 -0.211995 0.080401 -0.461714 -0.018271 0.470510 -0.142097 0.285983 -0.691696 0.860760 0.950243 0.711123 0.133175 0.218625 -0.739828 0.382930 -0.391434 -0.244227 0.343223 0.428247 -0.927356 0.038074 -0.396040 -0.463672 0.508002 0.196616 -0.072525 -0.609313 0.766930 0.381203 -0.675794 -0.224568 0.611264 0.579022 -0.539160 0.158452 0.119480 0.288621 0.133497 0.307722 -0.411422 -0.077541 -0.542815 -0.600512 0.815238 -0.653352 -0.529854 -0.578961 0.537824 -0.000456 -0.904661 -0.093101 -0.404524 -1.034170 -0.804623 -0.025357 -0.000058 0.175316 -0.664874 0.224007 0.574782 -0.900994 -0.196178 -0.066547 -0.512147 -0.466054 -1.242701 0.369070 -0.696483 -0.894856 0.279606 1.461405 0.596144 0.374136 -0.084982 0.411290 -0.488232 -0.185796 0.914469 0.033048 0.267171 0.080966 0.157984 1.630677 -0.295596 -0.428173 0.492922 0.178472 0.428470 0.293802 -0.217907 -0.073043 -0.335451 0.315616 -1.197265 -0.885136 0.190082 0.585494 -0.740510 0.647715 -0.713794 -0.434513 0.164182 1.026919
TTG 0.497625 -0.146607 0.384644 0.826577 0.499923 -0.116293 -0.854698 -1.094219 0.543488 0.177397 0.247563 0.711219 0.075532 0.205257 -0.212995 0.202974 -0.217547 -0.110247 0.220373 0.998317 -0.035464 -0.026457 0.421663 -0.115336 0.053030 0.057407 -0.957772 0.106964 -0.014275 -0.046078 -0.119647 -0.718773 -0.261597 -0.331363 0.199344 -0.339262 -0.754297 0.402183 0.069837 0.236068 -0.710726 0.424709 -0.286112 -0.936708 1.179479 0.331658 0.196946 -0.327295 0.030208 0.570805 -0.596791 0.172066 0.471439 -0.299862 1.187786 -0.218845 -0.604948 -0.276441 -0.720702 -0.422038 -0.447160 -0.130057 0.884353 -0.291444 -0.353548 0.122523 -0.333573 -0.574048 -0.505773 0.332181 -0.403208 -0.189115 0.142544 0.150538 -0.172826 -0.047497 0.104945 0.227468 0.209455 -0.149459 0.051642 -0.359831 -0.886486 0.448404 -0.253050 -0.315501 -1.123739 0.646086 -0.260193 -0.153130 0.193407 0.543315 -0.642847 -0.124508 0.078206 0.443164 1.099351 0.295568 -0.338285 0.500347 -0.297882 -0.095224 0.148185 0.735383 0.094102 -0.611537 0.112310 -0.710685 -0.120250 -0.255107 -0.159904 0.678441 -0.139869 -0.107479 -0.537641 0.074585 -0.059916 -0.029894 0.022786 0.926982 0.056834 -0.343839 0.287833 -0.081682 0.180498 0.183744 0.509350 0.283987 -0.354611 0.834358 0.567699 0.443414 -0.603792 -0.159917 -0.179084 0.068461 -0.020060 -0.606899 -0.029374 0.828071 0.189092 0.054772 0.084403 -0.549389 -0.504661 0.314869 -0.715200 0.405062 -0.457065 -0.219898 -0.497991 -0.003176 -0.612898 -0.035675 0.286190 -0.483826 0.592152 0.277611 0.021460 -0.202848 0.258374 -0.003605 -0.484951 0.407901 1.209281 -0.139393 0.081188 0.099551 0.415322 -0.547121 0.237372 0.077437 0.029674 -0.819816 0.009495 0.181625 -0.537468 -0.736543 -0.077806 -0.066362 0.388261 -0.838158 -0.269538 -0.116525 0.752415 0.117418 0.435770 -0.272453 -0.495743 -0.135071 -0.138432 0.204009 0.256258 -0.564450 -0.438154 -0.166208 0.495193 -0.993074 -0.018104 0.398085 -0.032949 1.431290 0.682355 0.327085 0.397407 0.160432 0.708050 -0.245987 -0.659448 -0.240370 0.470744 -0.822532 -0.453426 0.394123 -0.108034 0.036278 -0.168725 0.656647 0.163236 0.469208 0.423010 0.516244 -0.236980 -0.283684 -0.853494 0.540843 0.191223 0.480829 -0.015943 0.619024 -0.596897 -0.641845 -0.246054 0.068426 0.641270 -0.132961 1.175884 0.967230 0.324296 0.190442 -0.368838 0.863824 -0.682768 -0.799314 0.008506 -0.336566 -0.380329 -0.311170 -0.146209 0.094740 -0.310818 0.074456 -0.707841 0.006715 -0.570869 -0.440314 0.589106 0.355312 -1.244685 -0.774696 -0.181961 0.192643 0.663037 -1.304334 0.382400 -0.135396 0.080304 0.478693 -0.260924 -0.150617 -0.459506 0.375285 0.690741 0.307427 0.250762 0.043763 0.540393 0.452109 -0.018506 -0.521852 0.581323 -0.080327 0.035414 -0.729471 -0.355691 -0.390112 0.493322 0.011870 -1.231771 -0.553643 0.533199 -0.244276 0.255083 -0.249545 -0.326252 0.016443 0.080458 -0.150885 0.159395 -0.981737
TTC 0.641808 -0.579986 0.347462 0.381579 0.471694 -0.468429 -0.268006 0.699478 0.411795 -0.794153 0.658846 0.045819 0.293444 0.365859 -0.164647 -0.773243 -0.435694 -0.416352 -0.215438 -0.296840 -0.313889 -0.742518 -0.482881 0.113691 0.800052 0.340231 0.145477 -0.012073 -0.038762 -0.400465 0.816479 -0.506470 0.330373 -0.388331 -0.320100 0.235224 0.466621 -0.225260 -0.272392 0.077663 0.318080 -0.067252 -0.108813 0.276139 -0.039417 -0.320755 0.384300 -0.485941 0.193611 0.417764 0.452394 0.138217 -0.614314 -0.930191 0.735155 -0.369673 -0.201628 0.080662 0.412485 -0.368605 -0.162237 -0.145145 0.196672 0.769822 -0.873778 -0.701156 -0.275121 -0.257053 -0.528368 -0.282795 0.809827 -0.648874 0.434870 -0.099048 0.265635 0.487377 0.175128 0.589170 -0.555602 0.112792 -0.287753 -0.196754 -0.736321 -0.277091 0.879880 1.148768 -0.096783 0.680922 0.113361 -0.204590 0.638603 0.172532 0.251477 -0.330013 0.582147 0.295686 0.498091 0.078134 0.213503 -0.271420 -0.473078 0.169487 0.047933 -0.056671 0.036933 0.923042 -0.129268 -0.606109 0.369106 -0.411858 0.267630 0.525606 -0.167304 -0.231697 -0.839268 0.170915 0.076499 0.263004 -0.633276 -0.325259 -0.123073 0.182806 0.849774 0.027178 0.266320 -0.115823 -0.054841 -0.223484 0.176372 0.470933 0.212612 -0.045407 -0.147561 0.343666 0.083302 0.153663 -0.192694 0.209003 -0.047410 -0.148904 0.131565 -0.127425 0.596465 0.080575 -0.216995 -0.498913 0.105321 0.855259 0.161868 0.231787 -0.353220 0.349581 -0.275698 -0.129673 -0.108927 -0.047337 0.611775 0.006115 0.156534 -0.578701 0.614892 -0.052662 -0.951664 0.065911 -0.091240 0.184345 0.075686 0.141966 0.328569 0.501041 -0.054778 -0.095078 -0.136814 0.034279 -0.047921 0.343974 -0.313990 -0.083863 0.656308 0.039368 0.738883 -0.143212 0.772115 -0.358258 -0.278578 0.060086 0.829823 0.085207 -0.415273 0.511443 0.272192 -0.888541 0.725111 0.948832 0.536188 0.188553 -0.231575 0.324137 0.137797 -0.088626 0.055927 0.118276 -0.725019 -0.731885 0.616601 0.533311 0.759354 0.144607 -0.265070 0.025321 -0.465794 0.009338 0.466913 -0.573721 -0.434432 -0.044832 0.065186 0.439614 0.233681 -0.797510 -0.663448 0.511341 -0.266081 -0.652309 0.056306 -0.463229 -0.160817 -0.095700 0.539321 -0.282729 0.421014 0.064320 0.035381 -0.158628 0.524020 0.241223 -0.856469 -0.038657 0.047464 -0.004447 -0.031029 -0.467680 -0.176243 0.458616 -0.421684 -0.041880 -0.514859 -0.145729 0.022172 0.790165 -0.170926 0.562482 -0.207201 -0.354878 0.309751 -0.071072 -0.046852 -0.103701 0.353481 -0.617531 -0.185427 -0.621996 0.410662 -0.064438 -0.173589 0.079546 0.563663 0.283490 -0.281106 0.130148 0.378721 0.479009 -0.092941 0.440011 -0.419438 0.149809 -0.204096 -0.646968 0.406655 -0.612609 0.688720 0.041637 -0.004112 -0.172312 0.266923 -0.112488 -0.417329 -0.091563 -0.281099 -0.159018 0.328871 -0.143048 -0.595513 -0.093161 -0.639596 -0.034358 0.064295 0.284816 -0.512098 -0.089540
