XXX -0.233082 -0.039131 0.176181 0.323591 -0.437141 0.891287 -0.249216 0.110654 0.145124 0.017146 0.674863 0.472621 0.371002 0.136255 -0.158989 -0.005875 0.452586 -0.585016 0.230672 -0.062569 -0.548309 -0.058399 -0.405198 0.162851 -0.832467 0.016008 0.268956 0.138656 0.434227 0.271404 -0.050513 -0.042439 -0.004440 0.499057 0.092873 -0.014385 -0.130454 0.080874 0.248248 -0.020816 -0.180621 -0.013277 0.368367 0.017907 -0.062039 0.328222 0.307587 0.177041 0.536328 -0.122020 -0.286650 -0.131753 -0.268698 0.192486 -0.681623 -0.228053 -0.025384 0.264923 0.308859 -0.185458 0.215709 -0.162927 0.858957 -0.185682 0.790089 0.206039 0.450137 0.530324 0.390497 -0.272550 0.367580 0.124875 0.444172 0.137483 0.213455 -0.116169 -0.485519 0.469304 0.544409 -0.672172 -0.015115 -0.010350 -0.121526 -0.466672 0.055863 0.035835 -0.237598 0.649974 0.159235 -0.067346 0.156007 0.025527 -0.361888 0.826012 -0.154331 0.100045 -0.652224 -0.240676 0.306614 -0.064670 -0.020443 -0.285389 0.585149 -0.519367 -0.044531 -0.168070 -0.437543 -0.595559 -0.092966 0.254994 -0.102752 0.192137 -0.043035 -0.332531 0.330076 0.545731 -0.256682 0.249677 -0.289319 0.476847 0.662742 0.182717 0.533552 0.148934 -0.070940 -0.228046 0.077591 0.342901 0.157944 0.103778 -0.703425 0.253810 0.269167 0.072804 0.082849 0.281060 -0.573509 0.150153 0.300508 0.036660 0.014370 0.258200 0.136814 0.022433 -0.232049 -0.146315 0.481166 0.729722 -0.177583 -0.272937 -0.527015 -0.039114 0.695898 -0.005691 0.195843 0.503119 0.492738 -0.110215 0.425930 -0.920297 0.384009 0.081162 0.510471 0.447144 0.515966 0.472128 0.553427 -0.028654 -0.203893 0.282747 -0.798321 0.205139 0.125969 0.096911 -1.208871 0.122706 0.172132 0.019126 0.087546 0.338253 -0.240507 0.894255 -0.250047 -0.109019 0.019755 0.311973 -0.591972 0.005497 -0.181408 0.174735 0.124781 -0.025384 -0.240543 0.112228 0.439355 0.481743 -0.565646 0.232089 -0.038194 -0.112331 -0.043830 -0.331280 -0.128300 -0.447528 0.491558 0.073046 0.433356 0.553194 0.025864 -0.009565 1.039657 0.517243 0.203232 0.262385 -0.202981 0.030614 -0.149018 0.197429 0.358796 0.251505 0.245212 -0.685908 0.394303 -0.039780 -0.647839 -0.504079 -0.139015 -0.762900 -0.567850 -0.876874 -0.352321 0.515931 0.543974 0.101171 0.214664 -0.262754 0.129530 -0.310858 -0.020622 0.256721 0.560529 0.327568 0.074855 -0.305711 -0.151384 0.596075 0.295100 0.279020 0.664952 -0.268756 -0.298967 -0.533958 0.245898 -0.299354 0.308147 -0.291437 -0.491176 -0.432204 -0.152197 0.260627 0.334140 -0.221038 0.105845 -0.615156 0.246807 -0.153879 0.436562 -0.323047 0.294902 0.060301 -0.252986 -0.081076 0.095938 -0.160415 0.118404 -0.468231 0.008236 0.470556 -0.385960 0.226426 -0.629105 0.559711 0.209703 -0.021816 -0.412080 0.241502 0.512395 0.056353 -0.381535 -0.197793 0.085284 0.407168 0.022259 -0.041614 -0.184953 -0.325747 -0.060351 0.313629 -0.231138 -0.089978
AAA 0.078554 0.058977 0.176454 -0.008380 0.146227 -0.032015 -0.027827 -0.130248 -0.072581 -0.111174 -0.036929 0.095947 0.116841 -0.382340 -0.217786 -0.496445 0.511123 -0.257699 0.061040 -0.020295 -0.107117 -0.184665 -0.086627 -0.259979 -0.237920 0.030091 -0.108246 -0.312072 -0.066886 -0.269322 -0.107709 -0.007970 -0.063308 -0.340162 0.098685 0.057810 0.032233 0.134468 -0.207208 -0.197220 -0.249624 0.065749 -0.139599 0.008056 0.135985 -0.179516 -0.024306 0.132898 -0.123098 0.415037 -0.203805 0.567632 0.224197 0.087278 0.145546 -0.211713 -0.156253 -0.080378 -0.069434 0.242831 -0.058231 0.065882 -0.279720 -0.224328 -0.022196 0.022368 -0.008403 0.074234 0.063567 0.166446 0.091587 -0.158634 0.085845 0.094220 0.040099 0.030061 -0.179401 0.013347 -0.041941 0.375885 -0.011937 -0.082740 -0.161925 0.125768 0.317840 0.119152 0.206900 -0.334485 0.068662 -0.037467 0.145000 0.176697 -0.198911 -0.058814 0.156178 0.048661 0.010972 0.134070 -0.186496 0.120598 -0.086155 -0.140513 0.162209 -0.332967 0.178673 -0.110500 0.177299 0.116933 0.276500 0.145494 0.013637 -0.299682 -0.371854 0.171837 -0.316068 0.029044 -0.154891 0.256051 0.070285 -0.094273 -0.294990 0.157883 -0.119905 -0.017454 -0.046608 -0.025257 0.227280 -0.150090 -0.160762 -0.089608 -0.156942 0.030902 -0.016962 0.046034 -0.131472 -0.237456 -0.124751 -0.018046 -0.144586 -0.280784 0.232178 0.157157 0.073585 -0.099984 0.195414 -0.106790 -0.364128 -0.258141 -0.053333 0.122234 -0.467393 -0.228602 -0.083007 0.080659 -0.114080 0.058148 0.121543 0.132447 -0.104732 0.020973 -0.093970 0.103069 -0.106670 0.124406 0.195761 0.149050 -0.104178 -0.107551 0.119799 0.140595 -0.129470 0.218380 0.218272 0.063173 0.050763 -0.073198 -0.213721 0.017139 0.022780 -0.218428 0.188391 -0.166658 0.566524 -0.054943 -0.396665 -0.043218 0.225471 0.074997 0.177638 -0.001409 -0.015734 0.038484 0.430072 0.075300 -0.239603 0.189093 0.273052 -0.235776 0.342631 0.243802 -0.057198 -0.068529 0.073708 0.226007 0.062062 0.115246 -0.160874 0.168746 -0.151211 -0.104344 -0.180829 0.212974 -0.007206 0.197248 0.109574 0.191840 -0.028056 -0.310025 -0.148116 0.213079 -0.333266 0.079303 0.202156 -0.228370 0.408193 0.191113 0.136690 -0.025298 -0.176063 0.162661 -0.207586 -0.162310 -0.034941 0.305875 0.438962 -0.145678 -0.050141 -0.302817 -0.118935 0.167006 0.321479 0.235897 -0.173170 0.128487 0.064498 -0.038157 -0.015576 -0.360007 0.335242 0.257634 -0.037865 0.350314 -0.129721 -0.228885 -0.078500 0.068101 0.071897 -0.471875 -0.204051 -0.114407 -0.022854 -0.141802 0.025291 0.313647 -0.398678 0.091432 -0.241110 -0.111841 0.053314 -0.311222 -0.274577 -0.495464 0.030548 -0.008798 -0.058568 -0.165210 0.028932 0.133830 -0.112568 -0.082097 0.016386 0.019029 -0.250560 -0.058177 0.436852 0.153797 0.218760 0.158594 -0.009573 0.273152 -0.061940 -0.218038 0.152106 0.295841 0.048844 0.505765 -0.274628 -0.076685 0.049541 0.307330
CAG 0.025819 0.130588 -0.079543 0.046097 -0.086366 -0.345738 0.124578 0.030070 0.058201 0.147366 -0.290612 -0.115369 -0.328928 0.003750 -0.073557 0.049666 0.139823 0.231937 -0.250219 0.111312 0.170361 0.008945 -0.161368 0.085927 0.121793 -0.140296 -0.185714 -0.076955 0.352942 0.056738 0.244558 -0.114529 0.083419 -0.130509 0.033517 -0.088780 -0.102790 -0.083499 0.175900 -0.071809 0.088813 0.092855 -0.199636 0.257237 0.103533 -0.213007 -0.044747 -0.183148 -0.175411 -0.169969 -0.120761 -0.066229 0.256975 -0.118205 0.014020 0.075388 0.075950 -0.142781 -0.084025 -0.020085 -0.052441 0.052523 -0.270005 0.000724 -0.089633 0.107395 -0.208278 -0.090771 -0.268719 -0.157568 0.098477 -0.214269 0.006575 0.204843 0.197594 0.249608 -0.013534 -0.004128 -0.128538 0.125765 -0.139822 0.246289 0.199249 -0.036704 0.127962 -0.262152 0.150430 -0.057703 -0.039380 -0.046121 -0.395753 -0.055922 0.041150 -0.323908 0.186340 -0.091229 0.103132 -0.125505 -0.145589 0.003020 0.226361 -0.347052 0.103509 -0.004663 -0.148431 0.056247 0.145064 0.129126 0.239671 -0.045782 -0.087971 -0.054191 0.052481 -0.131302 -0.086144 -0.159369 0.016916 0.251775 0.178433 0.041850 0.098608 0.223126 -0.125518 -0.234581 -0.133157 -0.014610 -0.083072 0.033797 -0.042805 -0.136414 0.119511 -0.193672 0.125828 -0.279990 0.069829 -0.280600 0.158628 0.089740 0.075080 -0.072070 0.185247 -0.003771 -0.089040 -0.085661 -0.019236 -0.049130 -0.129709 -0.299307 0.194432 0.297090 0.130873 -0.251773 -0.238080 -0.085517 -0.041866 -0.012070 0.088086 0.060331 -0.164290 0.229380 -0.120810 -0.047322 -0.178731 -0.074982 0.008725 -0.394590 -0.183241 0.107719 -0.317085 0.069945 0.076392 0.033704 -0.053719 -0.129821 0.196072 -0.071148 -0.075622 -0.230455 0.085484 0.043705 0.021887 -0.289591 0.030759 0.114547 -0.072197 -0.426440 -0.074007 -0.088840 0.062645 0.081857 0.080234 0.080989 -0.201965 0.461065 0.084774 -0.216499 0.291252 -0.163694 0.066812 -0.054279 -0.042090 0.277710 -0.175766 0.042248 0.087064 -0.035236 -0.201623 0.210464 0.105792 -0.005846 -0.466474 -0.251306 0.048218 0.062570 -0.097292 -0.083175 0.014439 0.291535 0.216921 -0.097173 -0.023023 -0.112593 -0.201238 0.184006 0.055629 0.051742 -0.300501 0.103973 0.047032 0.300642 -0.161196 -0.057480 0.031353 0.172185 -0.078462 -0.049049 0.115654 0.002111 -0.146526 0.090362 -0.172106 -0.129086 0.112692 0.151393 0.029835 -0.039412 -0.429451 0.152865 0.065973 0.188117 -0.014425 0.091960 -0.243334 0.076394 -0.021308 -0.051556 0.127406 0.001284 0.032681 0.152294 -0.076745 0.212053 -0.203321 0.010349 0.150161 0.150601 -0.226408 0.110193 -0.027921 -0.035803 0.008470 0.026571 -0.081147 0.081829 0.027552 0.233826 0.321068 -0.073470 0.090214 0.047884 0.384736 -0.219874 -0.015722 0.005975 0.033342 -0.054743 -0.032755 0.027481 0.311578 -0.349661 -0.119285 -0.186774 0.103128 -0.094117 -0.116469 -0.100211 -0.088782 -0.075509 0.254923 -0.354925
CTG 0.006495 0.167262 0.029721 0.359393 -0.024939 -0.228943 0.355911 0.188498 -0.110446 -0.164523 0.148663 -0.028097 -0.124446 -0.041135 -0.185236 -0.186659 -0.077254 0.107455 -0.177142 -0.210342 -0.042944 0.047369 -0.056536 0.066734 0.404057 0.259768 -0.098061 0.090628 0.002108 -0.292379 -0.010960 -0.049269 -0.018256 0.189017 -0.032944 -0.014198 -0.041234 -0.034481 0.131462 0.033841 -0.006836 -0.290099 -0.116923 0.071593 -0.237683 -0.038634 0.015383 -0.116142 -0.262800 -0.263436 -0.127274 -0.281701 0.059856 0.006657 -0.111799 0.288965 -0.020612 -0.001795 0.294218 -0.166344 0.054227 0.041703 -0.267313 -0.145522 -0.174634 0.056651 -0.143630 -0.095907 -0.171297 -0.125981 -0.094389 0.024241 0.118738 0.087701 0.084998 0.102186 0.108440 0.163895 -0.313870 0.218759 -0.083742 0.265458 -0.027162 0.051875 0.063194 -0.256125 -0.225272 0.005043 -0.009769 0.195285 -0.157106 0.166608 0.050181 -0.170669 0.236941 0.086065 0.161080 0.016290 -0.142666 0.094300 -0.033467 0.063910 -0.145430 0.147021 -0.006977 0.023540 0.133496 -0.178668 -0.172988 -0.175040 0.016952 -0.130503 0.009260 0.169280 0.134929 0.156556 -0.055816 0.020994 0.231833 -0.194407 -0.006983 0.155508 -0.179653 0.193775 0.233476 0.012304 0.075668 -0.016335 0.068136 -0.154920 0.242420 0.009329 -0.104123 -0.178140 -0.113503 0.103444 -0.105009 -0.173627 0.149317 -0.047882 0.112413 -0.216426 0.099890 -0.028959 -0.052375 -0.184507 0.149209 -0.400794 -0.085852 0.207695 -0.037775 -0.103498 -0.025484 -0.173911 -0.071182 -0.220661 0.199260 0.013997 -0.231085 0.038167 -0.363302 0.060883 0.014274 -0.243546 -0.030168 -0.154239 -0.177073 0.041723 0.052030 -0.191503 0.030090 0.046521 -0.144506 0.081123 0.172313 -0.114552 0.180265 0.047038 0.067084 -0.040712 -0.317985 -0.131713 -0.069684 0.064364 0.040460 -0.108707 0.161230 -0.094284 0.081559 -0.172471 0.078532 0.158026 -0.045859 -0.129210 -0.339868 -0.045945 0.177158 0.098609 0.048318 0.099986 -0.045157 0.183610 -0.222074 -0.045752 -0.149387 0.178301 -0.034365 -0.197464 0.135593 0.172336 -0.328224 -0.026367 0.128057 -0.119194 -0.112491 0.179511 0.022464 0.139556 -0.051046 -0.154889 0.146303 0.094903 -0.115624 0.031333 0.246343 0.060395 0.140146 0.092593 0.219317 0.296733 -0.018806 -0.085160 -0.130015 0.048225 0.020245 0.053969 0.042639 0.164425 -0.060051 -0.288745 -0.018422 -0.099510 -0.113844 -0.160429 -0.043270 -0.104950 -0.054450 -0.022497 -0.317112 -0.233548 0.116427 -0.150892 -0.267686 0.103204 -0.057404 -0.041069 0.203131 -0.180996 -0.094313 -0.056459 -0.189868 -0.136700 -0.065197 0.115822 -0.052936 0.121634 0.013963 0.235704 -0.088266 -0.027026 -0.190339 0.287769 -0.106072 0.161759 0.016338 0.116237 0.107070 0.000631 -0.058393 -0.019709 -0.018639 -0.034181 0.090721 -0.097461 0.161885 -0.213168 -0.325579 0.007106 0.094951 -0.169477 -0.090645 0.225220 0.038569 -0.030378 -0.294152 0.083070 -0.023681 -0.219087 0.169564 0.014598
TTT -0.062268 -0.218381 -0.022763 -0.338172 0.713944 0.228566 -0.129948 0.014326 -0.216784 0.065968 0.051348 -0.031446 -0.138641 -0.090789 -0.232068 -0.103021 -0.024871 -0.143944 0.171905 0.426470 0.390352 0.220999 0.091136 -0.309937 -0.146773 -0.365440 -0.131284 0.240938 -0.076736 0.138939 0.137373 0.252643 0.002848 0.038964 0.068280 0.282896 0.218358 -0.055456 0.002819 -0.140272 -0.389274 -0.129434 0.027023 -0.248410 0.057320 -0.333879 -0.215972 0.146333 0.153964 0.016807 -0.177632 -0.063405 0.340883 0.030779 -0.189864 0.190215 0.043833 0.096939 -0.059526 0.047638 -0.233914 -0.112538 -0.155476 -0.346064 -0.102175 -0.204620 0.015318 -0.039696 0.065962 -0.027135 -0.046019 0.046775 0.246016 -0.000206 0.147901 0.381764 -0.205282 0.060015 -0.126888 -0.049164 -0.080452 -0.146534 0.144612 -0.432159 -0.385033 0.057589 0.189197 -0.046190 -0.206298 -0.173941 0.264626 -0.144230 -0.015835 -0.506243 0.170654 0.099536 0.045968 0.083692 -0.182933 0.106822 -0.152649 -0.350286 -0.101520 0.160959 -0.395446 -0.366058 -0.124164 0.354794 -0.201894 -0.154063 0.102383 -0.198480 -0.136781 -0.006313 0.482103 0.171097 0.078356 0.186470 -0.002024 0.037302 -0.398241 -0.113998 -0.564105 0.101405 0.236030 0.045570 -0.219897 -0.308678 -0.075994 0.413380 -0.130153 0.123065 0.055363 0.247387 -0.068032 0.112584 -0.121882 0.325318 0.101310 -0.173576 -0.115336 -0.176809 0.054913 -0.108483 -0.016397 -0.096711 -0.323916 0.033108 -0.191293 -0.058943 0.031631 0.391624 0.182305 -0.017075 -0.245304 -0.095108 -0.384930 -0.040814 0.226839 0.027795 -0.165828 0.045857 -0.401201 -0.246245 -0.160905 0.112133 -0.243647 -0.224730 0.034553 0.006504 -0.072875 -0.086694 -0.225044 0.007863 -0.002411 0.059311 0.210431 -0.043403 -0.111588 0.209072 -0.082570 0.226765 0.363730 -0.013587 -0.132776 0.013945 0.387932 0.367666 -0.333573 -0.052900 -0.308128 -0.007684 0.043976 0.178562 -0.137561 0.012482 0.237803 0.536112 0.391922 0.236013 -0.229336 -0.316391 0.174539 0.264954 -0.012842 0.210131 0.025217 -0.044369 0.091153 0.227484 -0.055388 0.022598 -0.420572 0.070142 -0.025045 0.175712 0.060947 -0.018644 0.074368 0.122930 -0.264649 -0.218452 0.115079 -0.060382 0.302084 0.038327 0.143252 -0.033467 0.244586 -0.043798 0.071427 -0.050366 -0.506400 0.134153 -0.204045 -0.205462 0.207915 -0.077187 -0.066719 -0.076738 0.246495 -0.195301 0.072805 0.277697 -0.082258 -0.179128 0.057254 -0.460359 -0.153411 0.227444 0.233144 0.100928 0.117199 0.202567 -0.324692 0.197199 -0.142413 0.281116 -0.261987 -0.212370 0.233823 -0.181728 -0.280613 0.042379 -0.244418 0.180380 -0.187242 0.128556 -0.374841 -0.114045 -0.190367 0.296681 0.193026 0.167478 -0.007021 0.087014 -0.045383 -0.075185 0.111322 -0.178630 0.301809 -0.011766 -0.487439 0.142421 0.222909 -0.192998 -0.222620 -0.012085 -0.133014 0.001469 -0.215605 -0.116088 -0.000601 -0.066348 0.385378 -0.269639 0.066022 0.151701 0.335808 0.112229
AGA 0.120937 -0.063023 0.049899 -0.086307 -0.019545 -0.501908 -0.016797 -0.146363 0.110457 0.020581 -0.075002 -0.119392 -0.034053 -0.085811 0.106821 0.013675 0.164452 0.243147 -0.038627 0.073886 0.077759 -0.207402 -0.018314 0.175612 -0.097091 -0.104216 -0.032313 -0.236342 -0.034722 0.281531 -0.049104 -0.266618 -0.019577 -0.266234 -0.058648 0.165344 -0.044468 0.206123 -0.129064 -0.053543 0.040575 -0.015881 -0.275366 0.298272 -0.021710 -0.213143 0.101104 0.190612 -0.182838 0.236909 -0.154915 0.165572 0.302800 -0.076305 0.405554 -0.052732 -0.021797 -0.159472 0.059075 -0.212887 0.122084 -0.011761 -0.173712 -0.136352 -0.030841 -0.085914 -0.133527 0.117158 -0.275778 0.060674 0.085710 -0.343284 -0.098789 0.389118 0.120388 -0.005021 -0.004345 -0.055166 -0.166787 0.166542 -0.036458 -0.080316 0.123808 -0.131301 0.322394 0.061554 0.237229 -0.206929 0.100417 -0.013905 -0.068796 0.073388 0.038371 -0.179890 -0.017861 0.067958 0.318098 -0.049087 0.037058 0.102022 0.132689 0.135778 0.156635 -0.208485 -0.097356 -0.012111 0.293223 0.325567 0.057255 -0.019552 -0.015968 -0.080606 -0.067150 0.047731 -0.191865 -0.087581 -0.098261 0.130756 0.187705 -0.146079 0.069575 0.124722 -0.006849 -0.183896 -0.023061 -0.159676 0.003990 -0.125684 -0.296527 -0.231517 0.061344 -0.132332 0.034986 -0.034779 0.069411 -0.422098 0.096693 0.007979 -0.220129 -0.043853 0.326867 -0.013086 -0.075626 0.089650 0.181927 0.063557 -0.288817 -0.135804 0.104051 0.075575 -0.095209 -0.132008 -0.191538 0.026740 0.071613 -0.158382 0.124977 0.012641 0.028807 0.045969 0.033596 -0.024987 -0.147038 -0.113735 0.001534 -0.179885 -0.157450 0.133509 -0.061323 -0.021747 -0.136718 -0.224820 0.094991 -0.050109 0.116785 -0.198362 -0.298056 -0.394685 -0.052527 -0.115159 0.100911 -0.208559 0.435670 0.176520 -0.141345 -0.237992 -0.076555 0.160668 0.025596 0.114031 0.242501 0.416956 0.011383 0.273464 -0.125170 -0.037890 0.386776 -0.107032 0.064034 -0.065318 0.165080 0.162971 0.047473 0.355921 0.038316 0.105547 -0.196269 0.229547 -0.001841 -0.054868 -0.188959 -0.086421 0.193796 0.090720 0.178208 -0.016539 0.075880 0.002620 0.084543 -0.014020 -0.104375 0.082757 -0.062172 0.196643 0.218846 0.202964 -0.087293 -0.159742 0.024043 0.325908 -0.362257 -0.094464 -0.101136 0.335994 0.156337 -0.159852 -0.265504 -0.044275 -0.066465 0.239566 0.052656 -0.125190 0.250275 0.140956 -0.105320 0.145451 0.020313 0.099299 0.146984 0.215365 0.057883 0.090074 -0.141733 -0.017313 0.153028 -0.047732 0.226245 0.028052 -0.194260 0.155149 -0.236928 -0.060094 -0.227616 0.170465 -0.110440 -0.156651 -0.473828 0.221169 0.113023 -0.026510 -0.160979 -0.273773 -0.218609 -0.035399 -0.014058 0.047695 0.145434 -0.003728 -0.012329 -0.000410 0.289041 -0.141423 -0.066853 -0.126369 0.181334 0.067585 0.145228 0.440077 0.230764 -0.174996 -0.059781 -0.363313 0.179813 0.406274 0.092645 0.062701 -0.077274 0.021180 0.359695 0.000557
GAA 0.053922 0.103714 0.133753 0.084230 0.133172 -0.449003 0.069476 -0.112149 -0.083588 -0.204261 -0.020955 -0.093481 0.011839 -0.103219 -0.118722 -0.137447 0.315356 0.080712 0.136807 0.025270 -0.047213 -0.311073 -0.062002 0.083999 0.016650 0.089811 0.093838 -0.164818 -0.112337 0.072364 -0.193620 -0.126263 -0.145644 -0.230916 -0.254353 0.163587 0.152610 0.203079 -0.134133 -0.063361 0.105994 -0.076500 -0.293049 0.093477 -0.088308 -0.309771 0.121100 0.247080 -0.062134 0.502180 -0.138630 0.281022 0.288153 0.002981 0.325582 -0.034056 0.004705 -0.215379 0.153830 -0.102187 -0.001573 0.097395 -0.278945 -0.229260 -0.107741 -0.070783 -0.106631 0.095604 0.097415 0.039821 0.007275 -0.322627 0.097111 0.072277 0.204672 0.057433 0.120336 0.115237 -0.032414 0.241723 -0.089135 0.044386 -0.012337 0.052326 0.317069 0.094148 0.162478 -0.310430 0.096628 0.060764 0.093232 0.052141 -0.039188 -0.055072 0.096174 0.100743 0.241905 0.074203 0.008927 0.083541 0.036940 0.090494 0.065403 -0.131239 0.023282 0.005882 0.291523 0.212388 -0.056798 0.039168 -0.030389 -0.073426 -0.205924 0.129860 -0.112919 -0.191838 0.008067 0.103251 0.178381 -0.355119 -0.118259 0.062128 0.044858 0.055654 -0.033019 0.005003 0.080716 -0.076474 -0.097711 -0.096661 -0.027438 -0.001822 0.031924 0.018301 -0.175315 -0.330849 -0.017868 0.001063 -0.066893 -0.090427 0.305812 0.078660 0.283874 -0.011062 0.255896 0.187897 -0.309649 -0.122632 0.080688 -0.031052 -0.100154 -0.167437 0.017684 0.187763 -0.011721 0.038268 -0.044429 0.158411 0.103080 -0.041885 0.117148 0.011600 -0.207556 -0.132551 -0.038596 -0.225981 -0.170682 0.141249 -0.064937 0.100429 -0.257293 -0.026451 0.208889 0.097790 0.036339 -0.421058 -0.206614 -0.235769 -0.025132 -0.017610 0.005193 -0.140974 0.482186 0.011885 -0.188866 0.004847 0.040932 0.163860 -0.116751 0.206355 0.203565 0.135892 0.219113 -0.065551 -0.235393 -0.004543 0.351656 -0.094552 0.010924 0.099185 0.028183 0.020403 -0.011841 0.234771 0.053573 0.160363 -0.121687 0.191228 -0.143060 0.067552 -0.330233 0.163877 0.046711 0.204688 0.059994 0.178230 0.184828 -0.130594 0.076626 0.041657 -0.116426 0.123670 0.083702 0.078201 0.253004 0.044826 0.062552 -0.115741 0.120265 0.330973 -0.211166 0.024906 -0.318999 0.230771 0.354696 -0.075183 -0.154901 -0.056437 -0.111665 0.132579 0.078804 0.036966 -0.092936 0.229568 -0.096130 0.077080 0.058260 -0.017703 0.112179 0.045675 0.046673 0.044915 0.023410 -0.114969 0.108284 0.008707 0.288379 -0.259638 -0.219984 0.028062 -0.222961 -0.196459 -0.027626 0.296378 -0.102316 0.002056 -0.414665 -0.027946 -0.006226 -0.079036 -0.112585 -0.238480 0.027223 -0.023876 -0.075029 -0.020570 0.226490 -0.042425 -0.076850 -0.174193 0.110735 -0.077859 -0.042130 -0.046757 0.396959 -0.135666 0.051231 0.290819 0.030558 -0.102279 -0.031209 0.027061 -0.114927 0.461487 0.104050 0.174515 0.029550 -0.082435 0.275626 0.149278
AAG 0.069923 0.097863 0.087105 0.101470 0.067066 -0.180091 0.003014 -0.068441 -0.026603 -0.082850 -0.072904 -0.069176 0.084824 -0.200880 -0.121737 -0.221333 0.237037 -0.089700 0.050914 0.145231 -0.058639 -0.335813 -0.004411 0.028174 -0.051528 -0.019241 -0.083062 -0.249366 -0.019903 0.019364 0.105127 -0.162844 -0.076699 -0.208470 0.117317 0.240518 -0.071317 0.176968 -0.255716 -0.202577 -0.149460 0.126064 -0.242696 0.260666 0.019862 -0.228980 0.047713 0.060302 -0.058252 0.302000 -0.131581 0.243351 0.310216 0.043053 0.214963 -0.223147 0.006603 -0.172938 0.057628 0.076780 -0.006702 0.050066 -0.180297 -0.120099 -0.256187 0.014368 -0.149162 -0.025458 -0.212751 0.093593 0.233899 -0.203283 -0.004103 0.286585 0.033070 0.085076 0.032332 0.104193 -0.098008 0.278836 -0.042176 -0.018463 -0.107764 0.042684 0.444180 0.038807 0.119811 -0.210740 0.050456 -0.047443 -0.043718 0.052389 -0.152972 -0.053852 0.176415 -0.087321 0.147034 0.039410 0.056488 0.175302 0.119477 -0.156280 0.070024 -0.166731 -0.040553 0.114833 0.233682 0.180135 0.137321 0.027472 -0.051696 -0.204550 -0.036027 0.029963 -0.145223 0.014724 -0.084972 0.096787 0.047952 -0.255344 -0.159662 0.136496 -0.125231 -0.157632 -0.028117 -0.049557 0.017282 -0.174621 -0.237561 -0.094791 -0.066215 -0.043681 -0.084805 -0.020611 -0.022637 -0.370379 0.127679 -0.048853 -0.176541 -0.102716 0.188058 0.043535 0.060234 0.094803 0.218977 -0.072109 -0.389371 -0.196551 0.042410 0.203120 -0.266365 -0.210035 -0.087533 0.118716 -0.024026 -0.006222 0.031082 0.052443 -0.038603 0.229834 0.005381 0.072817 -0.134248 -0.064046 0.029399 -0.057333 -0.188147 -0.077652 0.002638 0.053710 -0.020470 0.158279 0.109736 0.098777 0.254191 -0.131536 -0.288063 -0.107576 0.058954 -0.136923 0.154111 -0.234145 0.298190 0.046522 -0.301638 -0.165958 0.116147 0.049336 0.055556 0.146058 0.118355 0.002738 0.254225 0.233336 -0.276553 0.011168 0.399876 -0.190739 0.255182 0.027925 -0.023249 0.101634 0.162215 0.295515 -0.024924 -0.084823 -0.180173 0.100810 -0.139776 -0.092955 -0.255806 -0.092469 0.039631 0.203266 -0.038594 -0.057747 0.051551 -0.061354 0.030567 0.169831 -0.235041 0.080107 -0.041754 0.040083 0.228521 0.310207 -0.091302 0.103292 -0.090306 0.175821 -0.128951 -0.094750 -0.050131 0.060130 0.249864 -0.060934 -0.125034 -0.134568 0.029249 0.160352 0.011121 0.229603 -0.053894 0.112996 -0.127171 0.036576 -0.126851 -0.033928 0.128228 0.130723 -0.075482 0.079342 -0.050731 -0.159562 0.044288 -0.002614 0.290556 -0.295280 -0.110532 -0.042794 -0.118671 -0.040105 -0.030418 0.185917 -0.117668 0.067728 -0.275615 -0.135491 0.030288 -0.131958 -0.071978 -0.248669 -0.077016 -0.064245 -0.043879 -0.064554 0.133642 -0.090163 0.014012 -0.061872 0.253491 -0.138552 -0.180714 -0.020369 0.179458 -0.089877 0.065154 0.109752 0.102376 0.003471 -0.119291 -0.174591 0.008131 0.363021 -0.037286 0.289715 -0.188995 -0.132335 0.328393 0.032924
TGG -0.144637 0.136951 0.052794 0.138366 -0.046468 -0.099872 0.210648 -0.016361 -0.070542 -0.305116 -0.076821 -0.048114 -0.143723 0.217918 -0.345277 0.066817 -0.181733 0.006963 0.074396 -0.143538 -0.074697 0.105146 0.052495 -0.112334 0.196347 0.337832 0.016124 0.012404 -0.042812 -0.188562 0.050422 0.095246 -0.289129 0.068863 -0.066960 0.035304 0.174229 0.037682 0.166605 -0.035062 -0.078514 -0.187107 -0.200296 -0.161863 0.148986 -0.039699 0.173182 0.071174 -0.245234 -0.104706 -0.027288 -0.188796 0.085904 0.031084 -0.254596 0.201473 0.002831 -0.034633 0.365711 -0.141834 -0.079419 0.025778 -0.308374 -0.002724 -0.174097 0.127578 -0.155870 -0.038265 -0.216393 0.019156 0.133542 -0.225782 -0.107479 0.141304 -0.025074 0.124749 0.076934 0.139984 -0.179288 0.297344 0.007430 0.225080 -0.162947 0.097272 0.163472 -0.173555 -0.305452 -0.048922 0.036731 0.110766 -0.000569 -0.018381 0.007021 -0.289147 0.092055 -0.020302 0.131682 0.006121 -0.026225 0.012017 -0.028766 -0.035490 -0.107295 0.221710 0.119800 -0.047445 0.315496 -0.008593 -0.141014 0.058980 0.171531 -0.135037 0.165172 0.242349 0.088673 0.157999 0.299288 0.043069 0.365845 -0.026682 -0.165093 0.130427 -0.311442 0.024870 0.297058 -0.106818 0.024481 0.155169 0.113870 0.071797 0.226877 -0.092241 -0.055931 -0.200717 -0.100989 0.070532 0.085269 0.126129 -0.063645 0.084814 0.125191 -0.271730 0.177989 0.165512 0.134882 -0.052295 0.087160 -0.219494 0.027725 0.001393 -0.164233 -0.044127 0.097300 -0.029360 -0.030470 -0.317614 0.074767 0.069828 -0.279560 0.130196 -0.416983 -0.008581 0.012722 -0.135687 -0.307857 -0.140775 -0.311158 0.165788 0.053422 -0.200211 0.147485 0.243936 -0.056280 -0.072231 0.241529 -0.204241 -0.015445 -0.070281 0.004587 0.075618 -0.162077 -0.227336 0.067610 -0.107034 -0.038615 -0.063554 0.110168 -0.133197 -0.124862 -0.002454 -0.235005 0.208641 -0.080939 -0.113138 -0.452897 -0.136529 0.127217 0.106934 0.000643 -0.085994 -0.121302 -0.153723 -0.147817 0.130326 -0.172074 -0.008382 -0.147795 -0.369810 0.166606 0.099928 -0.306634 -0.081001 -0.071824 0.096986 -0.257613 0.139570 0.090501 0.111117 0.019250 -0.161194 0.025519 0.248254 -0.067150 0.185317 0.228213 0.158181 0.038089 -0.012976 0.308995 0.130967 0.078069 -0.081398 -0.243605 -0.058769 0.073369 0.177291 0.115031 -0.011935 0.007609 -0.131736 -0.023637 -0.204074 -0.292263 -0.044396 -0.057206 -0.248894 0.137640 -0.057883 -0.336373 0.107165 -0.067917 -0.155993 0.027246 -0.020001 -0.099707 0.170831 0.079330 -0.114442 -0.188559 -0.037322 -0.105076 -0.000306 0.016583 0.227237 0.159676 0.151853 -0.191333 0.367223 -0.052632 0.019774 -0.197262 0.202145 -0.092989 0.225456 -0.204152 -0.159167 0.203353 -0.081791 0.044401 0.078638 0.070655 -0.091650 0.159169 -0.074226 0.188979 -0.281352 -0.034823 0.002021 0.030823 -0.106484 -0.083327 0.288865 0.015872 -0.294329 -0.184635 -0.001622 -0.315360 -0.168756 0.130196 -0.054444
CCA -0.033196 -0.032197 -0.040299 0.049894 0.002183 -0.360772 0.225419 0.205515 0.058187 0.049049 -0.207410 -0.066700 -0.122187 -0.132199 0.028969 -0.199855 -0.008096 0.239680 -0.122809 0.097213 0.201757 -0.060148 0.166986 -0.045873 0.201622 0.053214 -0.122670 -0.085498 -0.133330 -0.062481 0.109057 -0.364156 0.126248 -0.238533 -0.094836 -0.077884 -0.188279 -0.372167 0.294566 -0.185182 -0.112351 -0.230752 0.043645 0.124771 0.163410 -0.082772 -0.038975 -0.142099 0.012938 -0.241226 -0.073297 0.137476 -0.054146 -0.085002 0.017808 0.158548 0.017199 -0.180983 -0.236177 -0.116955 -0.035790 0.079356 -0.467800 -0.055332 -0.036289 -0.014816 0.002293 -0.130723 0.061961 0.000874 -0.269803 -0.018518 -0.057990 -0.016223 0.055414 0.289217 0.037097 -0.061125 -0.077492 0.114704 -0.229247 0.075102 0.111515 0.153164 0.226507 -0.289892 0.081458 0.109315 -0.217343 0.002203 -0.262183 -0.128569 -0.003337 -0.334948 0.172070 -0.298232 0.144491 0.181604 -0.228544 -0.194172 0.162977 -0.175710 0.120085 0.291220 -0.126123 0.030615 -0.019674 0.108321 0.189364 0.096351 -0.038654 0.078748 -0.065138 -0.065459 -0.217472 -0.474105 0.043674 0.418808 -0.104690 -0.072399 0.048097 0.027021 -0.028314 -0.081322 0.167951 0.177992 0.190132 -0.025895 0.018067 -0.135469 0.039657 -0.168435 0.222261 -0.300029 0.149477 -0.143021 0.123808 0.147407 -0.206979 0.106714 0.029340 0.124382 -0.127590 -0.314108 0.053219 -0.064937 -0.053133 -0.085498 0.187132 0.194462 -0.021059 -0.102122 -0.090600 -0.077470 -0.031068 0.108656 -0.041041 -0.036699 -0.304528 0.341282 0.006963 0.109692 -0.086651 -0.029946 0.174683 -0.447122 0.051730 0.188171 -0.347966 -0.047944 0.005797 0.183267 0.016345 0.013033 0.097579 -0.045139 0.209240 -0.002870 0.001014 -0.215173 0.149258 -0.132177 -0.145889 -0.149332 -0.230285 -0.625681 0.064559 -0.350285 0.085248 -0.078049 -0.191132 -0.137631 0.313828 0.231905 0.131673 0.015079 0.206390 -0.272802 0.104013 -0.071378 -0.113068 0.195601 -0.096085 0.022362 0.084774 -0.044082 -0.351429 0.191419 -0.043628 0.126250 -0.333075 -0.081071 -0.011747 0.211701 -0.153692 0.209804 -0.038010 0.062853 -0.012677 -0.146635 -0.044714 -0.387066 -0.154164 0.051553 0.109665 0.161581 0.071036 0.149178 0.125270 0.148971 -0.149482 0.031206 -0.067671 0.054037 -0.049060 -0.128847 0.253161 -0.067427 -0.065224 -0.079819 -0.224850 -0.074561 -0.060773 0.128837 0.008486 0.016462 -0.397025 0.055733 0.004679 0.108788 -0.239141 0.091912 -0.180028 -0.066574 0.073322 -0.116392 -0.040305 0.119760 0.017552 -0.170503 0.004200 -0.077161 -0.004197 0.050221 -0.005297 0.181970 -0.034030 0.117773 -0.174779 -0.143517 -0.016427 -0.091068 -0.075550 0.206613 -0.153292 0.084182 0.107884 0.014738 0.311598 -0.172134 0.049208 -0.204900 -0.163018 0.018350 0.018804 0.098603 -0.274808 -0.010823 0.254232 -0.193248 -0.008061 -0.051003 -0.061649 0.104344 0.171603 -0.061333 -0.209462 -0.163901 0.065875 -0.201879
GGA -0.038502 0.061403 0.093579 0.094221 0.031309 -0.399441 0.101319 -0.138951 -0.148505 -0.146324 -0.075332 -0.328269 0.138762 0.256803 -0.055116 0.032535 -0.115531 0.101985 0.082087 0.009084 -0.070473 -0.244491 0.090663 0.075399 0.115304 0.257974 0.167567 -0.113180 -0.023628 0.037676 -0.114885 -0.023850 -0.226467 -0.140398 -0.127615 0.069568 0.070420 0.077371 0.075557 0.035411 -0.117658 -0.098538 -0.297790 0.048719 0.070195 -0.243359 0.238259 0.195297 0.006271 0.117883 -0.052890 0.101516 0.125140 -0.058417 0.186339 -0.119525 -0.007524 -0.285713 0.439337 -0.163687 0.087186 0.065354 -0.262409 -0.175245 -0.155401 0.021759 -0.023343 0.023237 -0.141370 -0.101784 0.087337 -0.262994 -0.153566 0.065528 0.087609 0.055827 0.120438 -0.030879 0.081871 0.247344 0.006865 0.192069 0.089205 0.033251 0.247497 0.077617 -0.019094 0.019709 0.076067 0.017903 -0.059729 0.046953 -0.043376 -0.235185 0.039508 -0.062541 0.233289 0.044663 0.062498 0.130779 0.092909 0.133700 0.141479 0.168936 0.005476 0.167089 0.409366 0.143075 -0.052727 0.215307 -0.059010 -0.048659 0.131953 0.162729 -0.081304 -0.038902 0.236077 0.207279 0.280375 -0.199179 0.188828 0.065628 -0.068740 -0.141350 0.136090 -0.142293 0.033960 0.043408 -0.049379 -0.061654 0.006080 -0.011822 0.206325 -0.186612 -0.099926 -0.161450 0.150687 0.042342 -0.205708 0.162168 0.293367 -0.108666 0.165913 0.185481 0.233713 0.198065 -0.070531 -0.026410 0.048281 -0.133378 -0.166064 -0.033680 0.068964 0.110154 -0.065511 -0.300028 0.046728 0.018848 -0.123334 0.049953 0.144786 0.135625 -0.043702 -0.208632 -0.219623 -0.199595 -0.007822 0.228663 -0.088489 0.053768 -0.334298 0.039986 0.052493 0.020683 0.319962 -0.241668 -0.114291 -0.276658 0.050624 0.065354 0.052801 -0.173639 0.223396 0.016079 -0.131146 -0.077902 -0.141378 -0.053276 -0.243375 0.327954 0.065296 0.236046 -0.015836 -0.027631 -0.301498 -0.043461 0.318921 0.139113 -0.187295 -0.206491 -0.082624 -0.225005 -0.202613 0.162475 -0.087449 -0.019078 -0.145498 -0.058010 0.105028 -0.038212 -0.262498 -0.184355 -0.001512 0.236848 -0.129467 0.106651 0.198283 0.124783 0.164480 -0.069518 0.153645 0.303162 -0.061123 0.408049 0.239885 0.251385 -0.105715 -0.191928 0.220053 0.340641 -0.064506 0.029725 -0.250776 -0.000736 0.104471 0.195292 -0.078505 -0.034059 0.050065 -0.035113 -0.007404 -0.181542 -0.136619 0.031095 -0.167219 -0.037028 0.022733 0.043657 -0.158272 0.110982 -0.084035 -0.208865 0.064634 0.008310 0.045991 0.216583 0.265099 0.005431 -0.407130 0.039626 -0.210462 -0.033740 0.040381 0.231341 0.188922 0.199057 -0.409226 0.176381 -0.003770 -0.119229 -0.178339 -0.182939 -0.086725 0.065081 -0.082960 -0.179912 0.046734 -0.088037 0.149912 -0.088643 0.209727 -0.036368 0.238512 -0.258499 0.221032 -0.240563 -0.048615 0.216129 0.151856 -0.010531 -0.218664 0.231480 -0.019085 0.119327 0.067653 0.136084 -0.202485 -0.179621 0.304968 -0.033990
GAG 0.125707 0.112436 -0.132059 0.025886 0.036609 -0.204466 0.011520 -0.079808 -0.032490 -0.111004 0.017598 -0.298523 0.169972 0.039514 -0.152184 0.213822 -0.116429 0.171701 0.068380 0.098521 -0.167528 -0.262194 0.101978 0.275574 0.275194 0.122139 0.014073 -0.166347 -0.058208 0.310963 -0.014018 -0.232996 -0.017613 -0.042540 0.086354 0.191689 0.090811 0.150683 0.053336 -0.170704 -0.048711 0.009907 -0.249406 0.328980 -0.076707 -0.283284 0.135719 0.118682 -0.087376 0.295398 -0.043451 -0.001836 0.281308 -0.011742 0.113050 -0.081583 0.074126 -0.277240 0.312196 -0.242046 0.046948 0.071964 -0.188760 0.058230 -0.387903 0.005616 -0.142778 -0.016826 -0.388902 -0.061413 0.077571 -0.351365 -0.105645 0.114833 0.084896 0.054309 0.263148 0.163001 -0.107583 0.103128 -0.027503 0.244314 0.144576 -0.088485 0.425913 0.026607 -0.059238 -0.015378 0.058256 0.024591 -0.227816 0.010904 0.012861 -0.071592 0.181685 -0.000508 0.136454 -0.047321 0.282410 0.119572 0.121601 -0.093837 0.078422 0.080374 -0.330462 0.142199 0.371316 0.233527 -0.087881 0.029489 -0.062324 0.051673 0.096009 0.127549 0.017357 0.021059 -0.035352 0.057516 0.297706 -0.125879 0.193676 0.055599 0.031365 -0.261363 -0.055984 -0.125731 -0.111504 -0.060786 -0.235195 -0.201922 0.000096 -0.086380 0.147172 -0.014831 -0.120060 -0.316315 0.120543 -0.080047 -0.289568 0.089770 0.317703 -0.097069 0.135286 0.303532 0.032286 0.033159 -0.128233 0.092388 -0.042268 0.035564 0.112314 -0.075661 -0.042114 0.009172 -0.074459 -0.200491 0.009513 0.061419 0.093755 0.161388 0.038230 0.208811 -0.125929 -0.285589 -0.132592 -0.250174 -0.241484 0.124914 0.110125 -0.007850 -0.147195 0.018357 -0.075721 0.180347 0.302534 -0.168246 -0.152923 -0.237723 0.055862 0.049114 -0.006303 -0.267222 0.089184 0.172578 -0.118960 -0.164882 -0.105742 -0.113749 -0.100678 0.237740 0.383386 0.019698 0.009344 0.158333 -0.236516 -0.155663 0.294558 0.004683 0.068770 -0.179579 -0.031846 0.183558 0.003401 0.303100 -0.088294 -0.222551 -0.205628 -0.046948 -0.098449 0.068420 -0.348536 -0.187782 0.200055 0.132201 -0.003184 -0.067374 0.243295 0.172794 0.109189 0.036327 0.078102 0.097665 -0.127379 0.363763 0.005594 0.312483 -0.286712 -0.189631 0.014451 0.151267 -0.080473 0.031304 -0.157293 -0.043894 0.055171 -0.056269 -0.080187 0.104335 0.092814 0.000581 -0.003427 -0.042122 0.051273 0.252450 -0.191404 0.040049 -0.048000 0.128703 0.045636 0.111601 -0.028434 -0.169369 0.074009 -0.018336 0.167389 -0.022214 0.304325 -0.046997 -0.021292 0.105651 -0.132148 0.051820 0.016786 0.223596 0.209835 0.022558 -0.368429 0.194903 0.112660 0.139983 -0.109478 -0.079277 -0.074718 -0.161750 0.013597 0.021121 0.415690 -0.112663 0.027029 0.086915 0.415260 -0.136974 0.044451 -0.201823 0.056327 -0.352145 0.053084 0.442999 0.134537 -0.149914 -0.058667 -0.000198 -0.066274 0.301885 0.081584 0.115689 -0.066356 -0.150575 0.484589 -0.122377
CCT 0.120649 0.220130 0.054557 0.226378 0.059611 -0.286284 0.278154 0.259250 -0.098133 -0.042667 0.144753 -0.249342 0.042637 -0.221550 0.074191 -0.203448 -0.137069 0.134151 -0.122306 0.074635 0.191904 0.185169 0.119433 0.092070 0.289212 0.072302 0.122723 -0.117319 -0.079627 -0.240304 -0.008402 0.038782 0.188856 -0.042665 -0.088376 -0.051143 -0.271337 -0.275409 0.176611 0.070320 -0.186785 -0.271577 -0.001607 0.144628 -0.217454 0.032679 -0.222205 -0.056377 0.014750 -0.419358 -0.001590 -0.162235 -0.016151 -0.196591 0.021872 0.300231 -0.363788 -0.003445 -0.014365 -0.053816 0.169588 -0.026190 -0.405420 -0.272965 -0.157257 -0.023414 -0.002027 -0.309938 -0.010149 0.051595 -0.212951 0.196946 0.040334 -0.090841 0.118310 0.115306 0.105361 -0.181126 0.033655 0.226375 -0.173935 0.074816 0.090931 0.118399 0.087204 -0.181367 -0.186460 0.085230 -0.114339 0.066162 -0.204863 0.215631 0.158876 -0.233287 0.151533 -0.138350 0.038115 0.134816 -0.109165 0.111491 -0.178880 0.102148 0.018827 0.142023 -0.243118 0.008713 -0.008533 -0.250181 -0.008642 -0.294801 0.069365 0.042496 -0.027368 -0.028186 -0.047016 0.022006 -0.097109 0.136070 0.141653 -0.155382 0.102067 0.170919 -0.100003 0.053667 0.329340 0.212184 0.184041 -0.024981 0.106225 -0.270416 0.255521 -0.011481 0.075664 -0.128655 0.193096 0.172686 0.126727 -0.135808 -0.050275 0.201646 -0.066707 -0.162133 -0.083859 -0.186101 0.074685 -0.157832 0.152449 -0.148988 -0.120211 0.147714 -0.003562 0.002135 0.063368 -0.002639 -0.132596 -0.142683 0.141372 -0.159317 -0.090879 0.339221 -0.131715 0.151846 0.050592 -0.241175 0.067921 -0.119812 -0.178087 0.039691 -0.147809 -0.060914 -0.050885 -0.146325 -0.217275 0.055611 0.239930 0.071023 0.221938 0.099667 0.110452 -0.195092 -0.234615 0.014033 -0.046150 -0.175651 -0.019815 -0.166600 0.235865 -0.092094 0.069274 -0.167233 -0.013913 -0.036495 0.279394 -0.167894 -0.097803 0.086326 0.121565 0.014111 0.153171 0.150977 -0.185473 0.026064 -0.046231 -0.086811 -0.201831 0.306607 -0.159537 -0.089101 0.129591 0.035949 -0.358913 -0.110605 -0.036392 -0.092463 0.087017 0.086679 -0.055641 0.095273 -0.031392 -0.207318 0.091711 0.008106 -0.108978 0.058699 0.005513 0.067466 0.052477 0.158434 0.205998 0.315682 -0.031913 -0.117110 -0.075211 0.004635 -0.173153 0.180018 -0.077499 -0.030896 -0.036942 -0.288822 -0.151751 -0.023770 0.036005 0.019804 -0.111754 0.065571 -0.305091 -0.208028 -0.340795 -0.201631 -0.143494 -0.129455 -0.142529 0.210485 0.050970 -0.192915 -0.035757 -0.015173 -0.077606 -0.053336 -0.231085 -0.167631 0.005474 -0.019838 -0.213952 0.048767 0.239384 0.021093 -0.176315 0.028286 0.029159 0.176228 -0.085547 0.205050 0.019741 0.110163 -0.283476 0.110869 0.247865 -0.102561 -0.116420 0.093232 -0.092984 -0.028411 -0.026964 -0.115431 -0.383187 -0.000374 0.191152 0.033455 -0.113835 0.011492 0.044306 0.189483 -0.016522 -0.093922 -0.051519 -0.258927 0.057441 0.080078
TGA -0.006203 -0.016697 0.064374 0.045463 0.076782 -0.380591 0.149859 -0.076673 -0.095895 -0.248685 -0.141418 -0.004340 -0.250985 -0.007300 -0.060194 0.092196 0.173117 0.147930 0.087435 0.180340 -0.017130 0.034131 0.020543 0.052365 0.132004 0.096997 -0.071546 0.151189 -0.301896 0.172992 -0.158280 -0.182913 -0.030108 0.005671 -0.135298 0.285453 0.285417 0.250071 -0.117233 -0.193027 -0.035943 -0.393908 -0.175488 0.134152 -0.172345 -0.082838 0.024036 0.207816 -0.211889 0.236141 -0.137453 0.032848 0.176633 -0.014293 0.189916 0.316054 0.108285 -0.155468 0.253819 -0.226991 0.062245 0.076833 -0.286402 -0.042757 -0.196405 -0.100428 -0.168118 0.208173 -0.073013 0.080907 -0.188168 -0.110653 0.007755 0.029674 0.068831 0.024671 0.221578 0.135491 -0.336192 0.135054 -0.060027 0.014769 -0.045871 -0.106390 0.161704 -0.175856 -0.035120 -0.150404 0.103754 0.009177 -0.012515 0.097853 0.106024 -0.240094 0.169624 0.195646 0.464689 0.104768 -0.043209 -0.038399 -0.136774 0.077819 -0.114073 0.045187 -0.157816 -0.207508 0.348541 0.228180 -0.264230 -0.034745 0.154764 0.123242 -0.006391 0.322208 0.054734 -0.082485 -0.003846 0.010324 0.247948 -0.141002 -0.190490 -0.020799 -0.084124 0.114232 0.152792 -0.079766 0.047802 0.003873 -0.088969 -0.047964 0.127642 0.027811 -0.020687 0.066251 -0.142024 -0.141774 -0.160785 0.015484 -0.014774 -0.033183 0.187181 -0.137355 0.091773 0.055575 0.086385 -0.026844 -0.097786 -0.027905 0.016730 -0.008226 -0.039065 0.010394 -0.053030 0.140042 -0.124861 -0.015035 -0.035509 0.154848 0.210629 -0.187941 -0.131713 0.011954 -0.102769 -0.239748 -0.276637 -0.343569 -0.148628 0.170337 -0.056155 -0.234982 -0.021648 -0.172217 0.085430 0.100717 0.158344 -0.385193 -0.023284 -0.321993 -0.170822 -0.072697 -0.118444 -0.080284 0.020008 0.105466 -0.060212 0.007481 0.178700 0.104633 -0.227851 -0.036529 0.289454 0.267731 0.222076 -0.024075 -0.211100 -0.056878 0.113861 -0.040156 0.083518 -0.079815 0.013714 0.018358 -0.026674 0.219814 -0.053618 0.242719 -0.061147 -0.061116 -0.161781 0.097513 -0.253784 0.265413 0.120474 0.074658 0.153433 0.219960 0.226180 -0.120509 -0.004803 -0.077366 0.076249 0.028542 0.101084 0.035031 -0.010160 0.112988 0.194732 -0.119771 0.193583 0.188742 -0.021092 -0.001673 -0.310218 0.234247 0.068407 -0.206956 0.075527 0.165967 -0.013038 -0.127358 0.022398 -0.177208 0.134309 0.019577 -0.101151 0.009172 0.087971 0.043325 -0.151948 -0.024385 0.171252 -0.054626 -0.082357 0.089719 0.165835 -0.020576 0.166838 -0.104138 -0.177744 -0.004589 -0.167467 -0.133686 -0.085459 0.377506 -0.003573 -0.088296 -0.337511 0.351553 -0.002172 -0.042246 -0.232762 0.090717 0.159456 -0.012809 -0.050003 -0.045158 0.212035 -0.108836 -0.114783 0.010411 0.099675 -0.036636 -0.048913 -0.124624 0.280817 -0.186120 -0.093732 0.346867 -0.021709 -0.141767 0.044088 0.146116 -0.120684 0.274314 0.045445 0.028828 0.162471 0.061677 0.387859 0.315757
AGG 0.087437 0.307165 0.048297 -0.040832 -0.004936 -0.223584 0.074343 -0.157014 -0.111375 -0.144689 -0.135792 -0.226035 0.051629 0.016284 -0.135633 0.021964 0.021618 0.260921 0.058217 -0.048083 0.000911 -0.239445 -0.003708 0.014921 0.019129 0.034419 0.029409 -0.122082 0.122296 0.055173 0.030464 -0.161562 -0.259304 -0.239043 -0.079283 0.060507 0.035391 0.034461 -0.002830 -0.049057 -0.097159 0.181018 -0.108595 0.212772 0.227582 -0.128130 0.185832 0.191494 -0.000942 -0.089993 0.001559 0.026271 0.244276 -0.120951 0.041612 -0.179776 -0.229675 -0.088165 0.149977 -0.083767 -0.012836 0.002228 -0.287839 -0.091736 -0.313007 0.080689 -0.153395 -0.022275 -0.349377 0.006367 0.318493 -0.263668 -0.150502 0.282448 0.163146 0.152790 0.051799 -0.040538 0.030292 0.090643 -0.044045 0.076658 0.084409 -0.009822 0.262781 -0.034221 0.106754 -0.226040 0.136630 0.080850 -0.312117 -0.125488 -0.032121 -0.389125 -0.057625 -0.195656 0.029830 -0.104195 0.173534 0.168239 0.335720 -0.183913 0.120303 0.025510 -0.057891 0.205549 0.202754 0.034328 0.121447 -0.033938 -0.074861 -0.102482 0.145129 0.034116 -0.085527 0.003131 0.171262 0.106874 0.105319 -0.172324 -0.026214 0.179983 -0.060814 -0.350139 0.148437 -0.126547 -0.145218 -0.126447 -0.083356 -0.025314 -0.049775 -0.139344 0.118401 -0.177736 0.027854 -0.170182 0.345075 -0.113884 -0.234440 0.062984 0.217021 -0.056005 0.092065 0.279612 0.314040 0.025649 -0.230262 -0.157679 -0.007905 0.054333 -0.073531 -0.180956 -0.018491 0.015894 -0.044035 -0.252136 0.073256 -0.042175 -0.279089 0.388673 0.066007 -0.021902 -0.154569 -0.165886 -0.090809 -0.165362 -0.244254 0.143615 -0.030557 0.040825 -0.198704 0.218121 -0.170875 0.046043 0.292015 -0.149090 -0.199936 -0.103758 0.125220 0.024401 0.141026 -0.400524 0.227771 0.117466 0.019296 -0.170266 -0.197324 -0.111654 -0.084854 0.242481 -0.071284 0.308894 -0.062367 0.125424 -0.139028 -0.164709 0.279298 -0.110481 -0.026092 -0.093196 0.008096 0.179821 0.046019 0.040108 -0.127876 -0.018902 -0.193270 0.053604 0.144379 -0.076810 -0.308082 -0.175630 -0.105739 0.209798 -0.116190 -0.107754 0.065074 0.225090 0.186559 0.024280 -0.079237 0.293614 -0.069613 0.302449 0.236268 0.222334 -0.299785 0.003079 0.096502 0.204122 -0.193542 -0.135622 -0.082999 -0.184004 0.139626 0.094233 -0.092249 -0.050579 -0.071210 0.005543 -0.112773 -0.081366 -0.188608 0.202012 -0.051551 0.051165 -0.026502 0.195304 -0.029288 0.258342 -0.096030 -0.053287 0.038781 -0.103365 -0.112441 -0.012412 0.271766 -0.108088 0.011934 0.087415 -0.169787 0.141350 -0.154206 0.208203 0.320893 0.135027 -0.294854 0.072146 0.143287 -0.079774 0.032167 -0.143580 -0.059637 0.084951 -0.072271 -0.129441 0.270096 -0.005672 0.144652 0.097036 0.213976 -0.167225 0.185913 -0.174381 -0.015625 -0.222395 0.087768 0.141252 0.215246 -0.195364 -0.023658 -0.158994 0.106219 0.033009 -0.049178 0.061226 -0.247880 -0.193348 0.136327 -0.361926
CCC 0.124718 0.256390 -0.136515 -0.046347 0.013742 -0.271472 0.210637 0.331656 -0.059855 0.050775 0.009165 -0.352137 0.105536 -0.246937 0.001657 -0.112623 -0.178601 0.211106 -0.054381 0.010704 0.154901 0.139089 0.158909 0.120293 0.276185 0.129538 0.208572 -0.298198 -0.141053 -0.147312 -0.142190 -0.164292 0.326915 -0.291014 -0.093612 -0.238060 -0.301014 -0.674176 0.413156 -0.080469 -0.290554 -0.331706 0.022935 0.124818 -0.007422 0.015982 -0.349976 -0.000910 0.105887 -0.184557 0.098820 0.067734 -0.108843 -0.129041 0.027154 0.197537 -0.297120 0.045199 -0.359913 -0.135484 -0.058651 0.055139 -0.641152 -0.217292 -0.146243 -0.070922 0.074871 -0.201638 0.145803 0.092641 -0.268756 0.077298 -0.222983 -0.234956 0.111813 0.331825 0.036286 -0.187489 -0.025635 0.331533 -0.383045 0.175262 0.149165 0.209451 0.234931 0.011473 -0.099418 0.178627 -0.332473 0.130070 -0.343338 0.121178 0.299060 -0.214369 0.048603 -0.109124 -0.000146 0.275173 0.016976 0.028865 -0.235256 0.024707 0.084814 0.218489 -0.260094 0.098996 -0.160078 -0.119694 -0.033047 -0.113504 -0.046829 0.252475 0.040696 -0.028674 -0.144477 -0.374883 -0.078339 0.385441 0.055874 -0.046547 0.321139 0.004165 0.115606 -0.033902 0.378542 0.367123 0.190519 -0.130570 0.068518 -0.349744 0.287897 -0.169984 0.222635 -0.162052 0.355768 -0.050695 0.263355 0.100094 -0.409718 0.249860 0.134524 -0.000594 -0.138248 -0.112671 0.027346 -0.051060 0.099605 -0.082665 -0.019910 0.193759 0.254232 0.253928 0.063236 -0.092650 -0.100433 0.099369 0.131577 -0.035989 -0.114689 0.524308 -0.176405 0.083364 0.096301 -0.049806 0.209557 -0.251833 -0.229483 0.252225 -0.166691 0.045553 -0.012959 -0.357686 -0.006431 0.084461 0.264586 0.240806 0.242570 -0.020553 0.092379 -0.290846 0.052025 -0.127975 -0.101331 -0.188404 -0.096026 -0.310286 -0.011441 -0.381446 0.122374 -0.111091 -0.116522 -0.235654 0.259186 -0.036409 0.119446 0.160551 -0.221778 -0.243451 0.122543 -0.001946 -0.130140 0.239611 -0.027153 -0.244794 0.035734 -0.080161 -0.138985 0.109373 -0.099839 0.303120 -0.327981 -0.241602 0.073259 0.085567 0.123136 0.125486 -0.286780 0.067456 0.021593 -0.298020 0.189666 -0.266669 -0.258412 0.015850 -0.060981 0.056506 0.138913 0.140826 0.359045 0.253654 -0.088755 0.029918 0.079059 0.083623 -0.234246 0.211752 0.033103 0.047468 -0.000684 -0.108750 -0.286041 0.022010 -0.091941 0.239813 0.001517 0.014197 -0.377441 -0.171283 0.130165 -0.040925 -0.399253 -0.014892 0.172444 0.204222 0.289978 -0.334825 -0.090169 0.017844 0.222590 0.069472 -0.336806 0.005514 0.398711 -0.046981 0.083556 0.420069 0.112502 0.085963 -0.278955 0.171039 0.176127 0.043291 -0.184116 0.043047 -0.081956 0.175464 0.076486 0.108952 0.199744 -0.007735 -0.196775 0.201025 -0.101705 0.061792 -0.069265 -0.122993 -0.298370 0.301161 0.149743 -0.049520 0.107725 -0.133674 0.084250 0.196533 0.260832 -0.210426 -0.122098 -0.118194 -0.027765 -0.100688
AGC -0.050207 0.289997 0.098728 0.154653 -0.014430 -0.141388 0.086734 0.170009 0.163786 0.195219 -0.185848 -0.181781 0.217403 -0.054152 0.012060 -0.250488 -0.101361 0.043437 -0.248591 0.050713 0.082099 -0.351063 0.107619 0.301896 0.254418 -0.148445 -0.045124 -0.073363 0.103552 0.139818 0.209103 -0.117021 0.036762 -0.031272 0.124518 0.136570 -0.077208 -0.085418 0.068837 -0.110256 -0.058639 0.316329 -0.162734 0.262398 -0.131749 -0.241648 -0.202751 -0.187942 -0.133148 -0.010801 -0.002734 -0.169065 0.187029 0.024704 -0.002518 -0.136281 0.246545 -0.183378 -0.040377 -0.055031 -0.011019 0.139599 -0.077532 -0.038443 -0.207252 -0.031533 -0.208030 -0.399524 -0.238950 -0.064908 -0.015137 -0.111110 0.026725 0.151205 0.121105 0.081605 -0.000367 0.064770 -0.168370 0.194834 -0.102068 0.069701 0.167172 0.101552 0.311247 -0.004690 -0.037321 -0.024422 -0.151809 -0.020430 -0.175002 0.172669 -0.146870 0.173174 0.301714 -0.161745 0.088151 -0.121447 -0.021537 0.263159 0.151292 -0.219655 -0.040755 0.004544 -0.223422 0.207432 0.021272 0.101542 0.261279 0.152250 -0.101361 -0.030840 0.095602 -0.173190 -0.001311 -0.188718 -0.140166 0.200393 -0.046035 -0.093914 0.009287 0.070249 -0.100891 -0.085085 -0.133769 0.057897 0.016083 -0.064049 -0.312673 -0.330558 0.039134 -0.066526 -0.056545 -0.142519 0.129132 -0.225071 0.150088 -0.225640 0.021288 -0.018012 0.145520 -0.023029 -0.018384 -0.166580 -0.172794 0.029809 -0.103100 -0.169161 0.144446 0.334794 0.050755 -0.093768 -0.028696 -0.272464 0.039429 -0.052786 0.001495 -0.028019 0.102234 0.334845 -0.271179 0.186794 0.050672 -0.076855 0.244346 -0.027503 -0.114776 -0.039925 0.089418 -0.001447 0.065580 0.073390 -0.103676 0.029140 0.260315 0.057091 -0.166974 -0.165760 0.210185 -0.212753 -0.065875 -0.144217 -0.026875 0.171797 -0.260738 -0.269562 0.067086 -0.090309 0.171103 0.023324 0.190534 -0.071766 -0.043928 0.314118 -0.243379 -0.118705 0.376009 -0.098759 0.284656 -0.019031 -0.053813 0.229235 -0.071666 0.214998 -0.089270 -0.255079 -0.098719 0.008698 0.001836 0.082717 -0.347172 -0.277040 0.177988 0.057895 -0.072649 -0.132500 -0.050629 0.237685 0.051412 -0.027869 0.028405 -0.113208 -0.168735 -0.009874 -0.016290 0.133229 -0.163255 0.131462 -0.096110 0.240991 -0.052107 -0.248512 0.033665 0.116509 -0.094386 -0.095041 -0.110112 0.128383 0.095386 0.135693 0.077248 0.073707 -0.170192 0.250649 0.044933 -0.043217 -0.308796 -0.098193 -0.036377 0.088421 -0.038493 0.002524 -0.139301 0.027386 -0.000650 -0.101751 0.377489 -0.018130 -0.039759 0.003980 -0.060891 0.120506 0.031593 -0.001400 -0.113548 0.084817 -0.132512 -0.117336 -0.133007 0.007788 -0.009106 -0.023134 -0.019475 -0.109621 0.076589 0.307793 0.275855 -0.223029 -0.017142 -0.046258 0.395958 -0.184096 -0.159768 -0.108284 -0.010541 -0.236809 -0.198273 0.042502 0.071172 -0.124387 -0.063965 -0.084927 0.072187 0.264176 -0.084062 0.009431 -0.038553 -0.141069 0.399410 -0.198456
GCC -0.062230 0.414359 0.020845 0.137238 -0.096344 -0.159340 0.119300 0.231423 0.100486 0.037785 -0.102122 -0.175454 0.207270 0.031981 -0.027479 -0.090945 -0.126819 0.173910 -0.145145 0.047978 0.055533 -0.158156 0.086430 0.301666 0.318822 0.095147 0.178446 -0.136584 -0.082004 0.069859 0.041245 -0.227376 0.000233 -0.137895 -0.103744 0.016455 -0.131458 -0.473932 0.336764 -0.041045 -0.055768 0.049592 0.045090 0.116020 -0.090291 -0.013824 -0.166072 -0.041989 0.000225 -0.273269 0.207497 -0.192266 0.027525 -0.145595 -0.111213 0.098051 -0.034699 -0.007890 -0.149869 -0.220102 0.020991 0.129772 -0.239978 -0.023958 -0.169205 0.081224 -0.060213 -0.385983 0.017312 -0.034032 -0.171290 -0.049669 0.028088 -0.007019 0.185679 0.127129 0.054900 -0.146061 -0.044125 0.224466 -0.324631 0.174543 0.155487 0.238935 0.358628 -0.159064 -0.080917 -0.024152 -0.246136 0.159344 -0.360340 0.111501 0.061865 0.075507 0.094772 -0.130679 0.042040 -0.026944 0.016741 0.164983 -0.013189 -0.063244 -0.032083 0.211340 -0.313385 0.110176 -0.078955 -0.135284 0.119948 0.055414 -0.068506 0.156110 0.140283 -0.155711 0.014325 -0.385741 -0.074214 0.326340 0.036477 -0.037257 0.052190 0.105008 0.092268 -0.064863 0.125292 0.256755 -0.002746 -0.011207 -0.110716 -0.307382 0.230935 -0.131314 0.091339 -0.232357 0.252593 0.014577 0.175851 -0.058900 -0.201587 0.325165 0.086334 -0.060105 -0.022104 -0.179699 -0.018670 0.053956 0.146626 -0.079413 0.089406 0.263364 0.228876 0.089606 0.194814 -0.344365 -0.019075 -0.043880 0.145693 -0.118767 -0.047257 0.479231 -0.283423 0.076909 0.137622 -0.072953 0.229369 -0.211344 -0.238024 0.094302 -0.076205 -0.003663 0.045901 0.048980 -0.094947 0.053093 0.282193 0.148515 -0.013995 -0.096345 0.152741 -0.292956 -0.169534 -0.137688 -0.134914 -0.132055 -0.077638 -0.231844 0.076517 -0.270194 0.185596 -0.145597 0.006684 -0.073818 0.150107 0.099648 -0.063720 -0.080195 0.091226 -0.281552 0.203889 -0.007647 -0.220839 0.173529 -0.089554 -0.057758 -0.142491 -0.057703 -0.151020 -0.075462 -0.004926 0.114277 -0.357516 -0.130788 0.041123 0.092517 -0.041353 -0.015019 -0.167612 0.329809 -0.066072 -0.243438 0.149417 -0.154638 -0.125187 -0.016394 -0.131558 0.012924 0.049539 0.157280 0.172206 0.127575 -0.003979 -0.158935 0.029970 0.023189 -0.133248 0.107180 -0.057980 0.093304 0.090164 0.000053 -0.052094 -0.052583 -0.204350 0.192712 0.017682 -0.055787 -0.257280 -0.030675 -0.096048 -0.012167 -0.190024 -0.078852 0.155996 -0.018040 0.156002 -0.281016 0.179007 -0.076680 0.080157 -0.000547 -0.253948 0.021075 0.185439 0.071654 0.052008 0.196220 0.067275 -0.072304 -0.205011 0.052520 0.173522 0.013249 -0.085124 0.086597 -0.071479 0.243921 0.170961 -0.123200 0.158917 0.110511 -0.005933 0.037980 -0.039786 -0.011245 -0.129585 -0.347561 -0.235365 0.069604 -0.005082 -0.157070 0.073831 0.112483 -0.026475 0.142049 -0.033553 -0.202692 -0.205127 -0.182578 0.092871 -0.157599
ACA -0.089801 -0.086630 -0.122883 0.019142 -0.017517 -0.357423 0.076215 0.011338 -0.109929 0.128559 -0.403106 0.030059 -0.324409 -0.094474 0.109731 0.008394 0.187178 -0.021572 -0.166053 0.225573 -0.034864 -0.221444 0.036982 -0.170009 0.046295 -0.293548 -0.231592 -0.138048 0.102671 -0.071090 0.013943 -0.171763 0.108610 -0.279527 -0.047050 0.022453 0.096146 0.154971 -0.094874 -0.156980 -0.011928 -0.172671 0.065808 0.216329 -0.001444 -0.166955 0.149052 -0.267726 -0.231804 -0.166469 -0.278603 0.212612 0.121615 -0.032016 0.310393 0.062361 0.212390 -0.238580 -0.078912 0.232504 -0.129210 0.215263 -0.310075 -0.048293 0.004370 0.135712 -0.208469 0.054613 0.064890 -0.250049 -0.053785 0.060776 0.015428 0.109876 -0.117573 0.084280 -0.013970 -0.314413 -0.062844 0.137735 -0.071884 0.162588 0.074969 0.043273 -0.007338 -0.233620 0.289602 -0.050951 -0.054232 0.042926 -0.105136 -0.032010 -0.111833 -0.351919 0.033574 -0.074574 0.209852 0.067943 -0.474684 -0.094419 0.099081 0.091601 0.200747 -0.011660 0.160606 -0.099239 0.162679 0.373490 0.185180 -0.071460 -0.134132 -0.260747 -0.267957 0.076391 -0.237708 -0.068000 0.047288 0.126026 0.355452 0.115286 -0.203815 -0.064806 -0.359321 -0.107303 0.132709 -0.087272 0.023713 0.263870 -0.146504 0.089052 -0.061729 -0.144081 0.157068 -0.249362 -0.064480 -0.201779 -0.054981 0.139013 -0.052578 -0.373794 0.128993 0.231681 -0.174728 -0.147706 0.072512 0.061261 -0.094458 -0.231224 0.173379 0.084743 -0.174318 -0.279036 -0.398245 -0.231431 -0.159340 0.274838 0.165888 -0.076182 -0.209398 -0.162816 0.013693 -0.011931 -0.424881 0.335244 -0.076607 -0.292364 0.092556 0.297744 -0.164335 -0.041873 -0.001107 0.098918 0.217757 -0.090694 0.154231 -0.133056 0.024738 0.058624 -0.072398 -0.075074 0.061612 -0.127323 0.028774 0.096492 -0.180489 -0.289416 -0.031983 0.084912 0.095030 0.084171 -0.111255 0.143759 0.200327 0.344448 0.115943 0.063178 0.139466 -0.082024 -0.010546 0.019957 -0.009445 0.033390 -0.197051 0.067266 0.352541 -0.002254 -0.277972 0.066177 -0.074298 -0.227991 -0.236304 -0.024680 0.161683 0.122979 -0.124922 0.037466 -0.062575 -0.116833 0.255950 0.120095 0.109610 -0.038020 -0.138712 0.125560 0.352562 0.003821 -0.047818 0.133753 -0.065654 0.527483 -0.216611 0.170204 -0.147581 0.065828 0.082583 -0.090133 0.157315 0.018116 -0.095036 -0.066317 -0.110405 0.012479 0.070819 -0.017038 -0.095656 -0.153105 -0.119099 -0.066652 0.155573 0.089973 0.084416 0.277857 -0.362450 0.094922 -0.291343 0.166689 0.060420 0.051524 0.051549 -0.051645 0.010451 0.144920 -0.016581 0.054797 -0.124335 -0.058480 -0.241736 0.055562 0.031041 -0.344106 -0.180908 -0.418094 0.157338 0.124042 0.009350 0.194652 -0.230078 0.077991 -0.036754 -0.089859 -0.006860 0.017082 -0.191702 -0.304660 0.259996 0.196841 -0.155121 -0.178440 0.309118 -0.195195 0.023859 -0.397011 -0.010624 -0.036223 -0.137330 0.105729 -0.031253 0.105735 0.234062 -0.035544
CTT 0.051280 -0.018034 0.014865 0.020169 0.460013 -0.033384 0.042836 0.023370 -0.173924 -0.044736 0.328358 0.030790 -0.122807 -0.120556 0.082930 -0.182625 -0.149351 0.145795 -0.225653 0.226483 0.256998 0.250950 -0.041853 -0.122641 0.151328 -0.140523 0.032866 0.035477 0.119137 -0.100357 0.003028 0.250742 0.019122 0.033081 -0.010400 0.000601 -0.087184 -0.302889 0.121727 -0.170820 -0.062290 -0.143018 -0.029472 -0.136197 -0.293325 -0.178257 -0.116546 0.183295 -0.052110 -0.080876 0.005555 -0.054106 0.260953 -0.157269 -0.151360 0.300271 -0.111603 0.017628 0.094299 -0.094266 0.120535 0.000218 -0.392503 -0.195781 -0.128496 -0.208475 -0.016707 -0.217415 -0.151133 -0.217057 -0.170695 0.000551 0.101620 0.039639 0.223854 0.247389 0.006597 -0.076507 -0.036056 -0.025488 -0.034816 -0.007757 0.169994 -0.168503 -0.159589 -0.170751 -0.036912 -0.086735 -0.025072 -0.000012 0.046399 0.053480 0.154162 -0.344235 0.145316 0.141210 -0.039805 -0.018223 -0.165588 0.220772 0.029644 -0.107620 -0.042011 0.159318 -0.238742 -0.264446 -0.010002 0.055053 -0.135017 -0.214603 0.063539 -0.043331 -0.232718 0.016764 0.189351 0.132796 -0.050303 0.209397 0.214320 -0.119757 -0.003030 0.016162 -0.226526 -0.028913 0.079447 -0.063786 -0.215537 -0.261389 -0.006798 0.134818 -0.003771 0.033607 0.122886 -0.047813 -0.108648 0.148226 -0.121867 0.096878 0.225591 -0.091391 -0.066919 -0.107241 -0.030355 -0.302288 0.069328 -0.142768 -0.080783 -0.155357 -0.163308 0.033435 -0.027484 0.085882 0.153168 -0.148148 -0.254058 -0.282494 -0.093527 0.070604 0.019887 0.089470 -0.140971 0.191529 -0.159847 -0.305280 0.030562 0.034224 -0.165489 -0.251955 -0.082939 -0.030342 -0.071233 0.071630 -0.287760 -0.052296 0.059382 0.000664 0.179847 0.140976 0.019162 -0.014765 -0.300855 0.084466 0.259958 0.052048 -0.043432 -0.046425 0.315741 0.210526 0.064346 -0.134483 -0.080775 0.002730 0.060238 -0.049353 -0.136957 0.045519 0.398265 0.364779 0.124832 0.178899 -0.133939 -0.023402 -0.186713 0.127317 -0.102636 0.299522 -0.241934 0.086344 0.159012 0.010659 -0.223844 -0.061327 -0.123652 -0.335141 0.135074 0.141369 0.131010 0.085809 -0.039446 -0.027174 0.051503 -0.076468 -0.071794 -0.049367 0.284570 -0.012578 0.031690 0.099926 -0.039457 0.227267 0.052501 -0.222189 -0.368103 0.135140 -0.130464 0.105893 -0.042405 -0.040091 -0.132318 -0.239673 0.038035 -0.158109 0.185174 0.058120 -0.188641 -0.049042 -0.119188 -0.203025 -0.282772 -0.002219 0.142654 0.144609 -0.035764 0.202850 -0.118336 0.074025 -0.027115 0.102378 -0.081215 -0.056886 0.047497 -0.095986 -0.216590 -0.078233 -0.314988 0.137132 0.140234 0.086323 -0.262043 -0.041235 -0.196146 0.207356 0.116557 0.212176 0.124455 0.179547 -0.283497 0.017344 0.129840 0.018115 0.212431 0.007991 -0.144548 -0.013699 0.132692 0.073564 -0.322297 -0.144054 -0.008752 0.088340 -0.249938 0.042225 0.090860 -0.026014 0.197162 -0.134204 -0.044041 -0.189738 0.193472 0.125182
TGT 0.001733 0.112817 -0.133876 0.109397 0.031085 -0.057459 0.111488 -0.029460 -0.208400 -0.126538 0.049379 0.285988 -0.240285 -0.038769 -0.259668 0.016955 0.151785 -0.017388 0.135395 0.328703 -0.107454 0.297788 0.040042 -0.247946 0.159417 -0.044886 0.004206 0.059430 -0.052285 0.030829 0.079915 0.021411 -0.104511 0.250747 -0.195697 0.328756 0.102030 0.095969 -0.261888 -0.248257 -0.018755 -0.392503 -0.236392 -0.079308 -0.107898 -0.142391 -0.102138 -0.079353 -0.316760 0.078300 -0.224481 -0.092002 0.005132 0.001710 -0.053372 0.426299 0.068415 0.128982 0.168366 0.296821 -0.101149 0.244045 -0.353901 0.090376 -0.350981 0.079703 -0.241180 0.122568 -0.225516 -0.012317 0.171164 0.124603 -0.062829 0.068207 -0.111270 0.122052 0.381847 0.225024 -0.301427 0.100143 -0.034236 0.052135 -0.357526 0.167291 -0.081343 -0.342258 -0.218566 -0.026499 0.005942 0.128466 0.135589 -0.155322 0.097783 -0.305370 0.086545 0.032409 0.274145 -0.056909 -0.173395 -0.205755 -0.284542 -0.136095 -0.306291 0.000883 -0.038210 -0.264072 0.193967 -0.071199 -0.252735 -0.300097 0.014526 -0.027498 0.039535 -0.019297 0.091966 -0.084015 0.147099 -0.261035 0.220486 0.126545 -0.198658 -0.156773 -0.555186 0.084854 0.174070 0.112837 -0.014737 -0.233625 -0.017106 0.229787 0.107153 -0.063315 -0.193462 0.207990 -0.049938 0.009459 -0.253770 0.219549 0.154255 -0.172096 -0.028264 -0.101307 0.004080 0.174225 -0.089090 -0.179918 -0.206084 -0.188750 -0.174750 0.152693 -0.112703 0.027088 -0.014033 0.030841 -0.055545 0.037921 0.100164 0.207431 0.016166 -0.024689 -0.342554 -0.078832 0.129120 -0.214664 -0.233278 -0.321401 -0.379886 0.260647 0.008442 -0.298605 0.195260 0.038845 -0.037012 0.152300 0.023752 -0.182521 0.118537 -0.076662 -0.044316 -0.032508 -0.039044 -0.034209 -0.095173 -0.117952 0.028550 0.018111 0.521502 -0.026656 -0.030143 -0.269820 -0.076853 -0.007724 0.226319 -0.057816 -0.278544 -0.173191 -0.019748 0.162560 0.259630 0.146172 0.083888 0.051861 0.004953 0.253180 -0.144720 0.149637 0.229646 -0.282975 -0.019453 0.147119 0.075590 -0.014523 -0.127372 -0.214061 -0.142045 0.109644 0.041988 -0.050771 -0.054941 -0.201312 -0.106740 0.067138 0.042345 -0.344720 -0.138209 0.122713 0.138520 0.078647 0.047296 -0.060695 -0.035762 0.181241 -0.133795 -0.146751 -0.005262 -0.054825 0.023823 -0.125192 -0.018628 -0.300498 0.070017 -0.047687 -0.100241 0.029523 -0.247820 -0.116188 -0.070251 0.004958 -0.205337 -0.057801 0.048147 -0.179459 -0.161763 -0.006435 -0.096003 -0.044510 0.265367 0.065418 -0.059971 0.011174 -0.066060 -0.171006 -0.224937 0.124363 -0.134417 0.115918 -0.094029 0.206783 -0.126491 0.094655 -0.275901 0.401545 -0.063183 0.343319 -0.008151 -0.018395 0.261928 -0.072035 -0.060150 0.192761 0.090708 0.065271 -0.194168 0.134607 0.330329 0.040836 -0.224212 -0.137888 0.156925 -0.065938 -0.135848 0.105271 -0.100990 -0.259422 -0.049911 0.157232 -0.062045 -0.195162 0.267821 0.189869
TCT 0.253792 0.154241 -0.048355 0.147656 0.235153 -0.124365 0.065015 0.048946 -0.198948 -0.075452 0.215968 -0.063114 -0.292136 -0.302053 0.098929 -0.162024 -0.018126 0.092320 -0.045952 0.082862 0.140823 0.402985 0.110367 -0.053752 0.318799 0.138592 -0.153253 -0.052499 -0.033387 -0.417218 -0.016529 0.479948 0.150554 0.216451 -0.063503 -0.211346 0.006564 0.043969 -0.003140 0.132009 0.006003 -0.165630 -0.153740 -0.013915 0.028933 0.037584 -0.079832 0.068790 -0.163920 0.034791 -0.112806 0.066626 0.119487 -0.204596 0.045231 0.313780 -0.052244 -0.003007 0.198532 0.075210 0.087703 -0.125791 -0.043602 -0.155061 -0.230386 -0.191717 0.038042 -0.186300 -0.117566 -0.078485 -0.144497 0.203384 0.200924 -0.137310 0.056487 0.078703 0.163577 0.223531 -0.074747 0.090714 0.075766 -0.029314 0.029455 -0.102582 -0.243266 -0.134155 -0.180537 -0.110840 0.004251 0.047363 0.062533 0.105828 0.293008 -0.354673 0.168588 0.205278 -0.267838 -0.028887 -0.024411 0.135121 0.012739 0.021265 -0.057713 0.175165 -0.258844 -0.199430 0.179501 -0.202733 0.024865 -0.325651 0.014521 -0.014565 -0.032005 0.157131 -0.016795 0.295616 0.066282 0.014193 0.036023 -0.150638 -0.157767 0.046312 -0.187118 0.021604 0.022283 0.271971 0.023085 -0.083701 0.244594 -0.197114 0.101874 0.078012 -0.054029 0.060238 0.039035 -0.116878 -0.107384 -0.086052 0.302244 -0.099678 -0.182058 -0.183705 -0.048666 -0.127783 0.131910 -0.211578 -0.134474 -0.019087 -0.109058 -0.158244 -0.120957 0.099311 -0.077520 0.192702 -0.233579 -0.466238 -0.052555 0.146174 -0.040517 0.044898 -0.146956 0.057202 -0.253346 -0.350672 0.054351 0.238343 -0.216391 -0.195810 -0.150897 -0.104942 0.138744 -0.157977 -0.271749 -0.061750 -0.051809 -0.190079 0.193346 0.213297 0.076962 0.015458 -0.218473 -0.056030 0.212462 -0.066576 0.029986 -0.049468 0.137821 -0.058292 0.109315 -0.037973 0.208269 -0.126755 0.115464 -0.241140 -0.149818 -0.100603 0.182133 0.150953 0.101537 0.178950 -0.114837 0.163859 -0.007314 0.097170 -0.240949 0.149723 0.005773 0.081974 0.052572 0.010544 -0.111587 -0.054856 0.180656 -0.123264 0.062880 0.200011 0.206093 0.033464 -0.348123 -0.224125 -0.010258 0.122788 -0.080467 0.028127 0.060321 0.057592 0.055829 0.055832 0.104505 0.153422 0.091621 -0.045516 -0.203657 0.165457 -0.183206 0.164450 0.061796 -0.224958 -0.181589 -0.265035 0.088100 -0.128524 0.299601 0.075174 -0.148899 0.205997 -0.289629 -0.201601 -0.386977 -0.074113 0.143247 -0.116775 -0.368201 0.255791 -0.115343 -0.176566 -0.045187 -0.199600 -0.045192 -0.264460 -0.124711 -0.048247 -0.243945 0.141075 -0.331508 0.117419 0.141275 0.278414 -0.212739 -0.047872 -0.157785 0.383693 0.046337 0.070463 0.021307 0.027100 -0.137832 0.053320 0.041556 -0.055724 0.151545 -0.004058 -0.244150 0.062334 0.089508 0.012978 -0.112854 0.021425 0.259357 0.219868 -0.097223 0.257280 0.000374 0.004910 0.074938 -0.156885 0.134613 -0.176116 -0.008186 0.286528
CAA -0.096655 0.059007 0.065693 0.161469 0.053806 -0.252926 -0.001298 0.106645 -0.018828 -0.035395 -0.268344 0.023681 -0.033166 -0.208081 -0.047170 -0.138907 0.248100 0.074055 -0.137801 0.174933 0.058651 -0.166741 0.019484 -0.110145 0.042663 0.052114 -0.177309 -0.222361 -0.111162 -0.083369 0.087870 -0.200644 0.067099 -0.186365 -0.079132 -0.023704 0.008740 0.005032 0.068629 -0.149187 0.013956 -0.002144 -0.050432 0.040526 0.096543 -0.198512 -0.060353 -0.250647 -0.130882 0.003461 -0.223977 0.376750 0.151752 -0.085371 0.102978 -0.114188 -0.003355 -0.307444 -0.043666 0.105799 -0.093517 0.066018 -0.284652 -0.025222 -0.010323 0.068917 -0.119602 -0.124257 0.128904 -0.139629 -0.040273 -0.033160 0.106428 0.155517 -0.060699 0.163361 0.010931 0.005344 -0.074921 0.265597 -0.084067 0.018703 -0.031914 0.212342 0.227678 -0.195646 0.193726 -0.018738 -0.012383 0.052564 -0.089053 -0.086132 -0.161170 -0.126531 0.144790 -0.200546 0.178319 0.138379 -0.313626 0.012285 0.098474 -0.215413 0.124124 0.003470 0.104397 -0.194597 0.175209 0.099816 0.228372 0.121348 -0.064316 -0.152294 -0.276271 -0.010938 -0.204932 -0.172618 0.017478 0.313567 0.010329 -0.108745 -0.269189 0.068403 -0.293355 -0.094061 0.006246 0.128992 0.105637 0.017410 -0.111747 -0.048773 -0.091112 -0.098314 0.061517 -0.236940 -0.016661 -0.344335 -0.105815 0.043520 -0.047236 -0.200644 0.097794 0.120543 -0.049421 -0.215335 0.149617 -0.045320 -0.251752 -0.189253 0.117655 0.195840 -0.103678 -0.340715 -0.176006 -0.121462 -0.097709 0.139106 0.083984 0.015888 -0.288560 0.127105 -0.018116 0.077387 -0.318892 0.135638 0.088012 -0.223900 -0.058776 0.079201 -0.249734 0.104114 -0.066496 0.353630 0.207356 -0.112687 0.019100 -0.143873 0.015036 0.083835 -0.092057 -0.123495 0.069015 -0.111102 0.188245 -0.071265 -0.343179 -0.285398 0.181127 -0.045658 0.148860 0.017589 -0.110947 -0.070116 0.342108 0.283747 0.020697 0.036117 0.340776 -0.191500 0.024613 0.065121 -0.115244 0.033691 -0.005774 0.125285 0.124453 -0.108683 -0.289627 0.180849 -0.133618 -0.073170 -0.240640 0.053883 -0.055646 0.248458 -0.204784 0.134791 0.143603 -0.111373 -0.059556 -0.033426 -0.222470 -0.124754 0.017737 -0.020954 0.284964 0.134174 0.115981 0.203334 0.015549 0.250257 -0.239924 -0.016947 -0.058409 0.134932 0.231220 -0.132484 0.105923 -0.190821 -0.151451 0.080439 -0.103201 0.176657 -0.082030 0.046427 -0.061010 -0.061325 -0.268469 -0.083752 0.137039 0.109363 -0.067157 0.192297 -0.285202 -0.170389 -0.063539 0.089126 0.021660 -0.136831 -0.075221 -0.148261 0.081960 -0.080960 -0.090134 0.117761 -0.234701 -0.035389 -0.076873 -0.039405 -0.063809 -0.262060 -0.230502 -0.352346 0.078021 0.131559 -0.049959 -0.022416 -0.003518 -0.033005 0.178300 -0.242766 0.058704 -0.184389 -0.273093 0.084058 0.299162 0.133688 0.076121 -0.038598 0.184612 0.055983 -0.101735 -0.126138 -0.158911 0.137278 0.001179 0.201493 -0.144631 -0.120186 0.226391 -0.019269
TCA 0.057157 0.032752 -0.021261 -0.014131 0.045313 -0.305299 -0.253090 -0.038937 -0.004040 0.136751 -0.290496 -0.087359 -0.305375 -0.086416 0.092411 -0.087103 0.138108 0.151709 -0.130019 0.319583 0.114279 0.196887 0.024889 -0.110916 0.127208 0.026207 -0.279732 -0.119802 0.004006 -0.008956 0.227772 0.161489 0.108814 0.013930 -0.061125 -0.177470 0.126754 -0.085761 0.114127 0.065299 0.211756 -0.005244 -0.043735 -0.070902 0.343210 -0.058629 -0.038175 -0.106399 -0.128225 -0.134913 -0.106113 0.223956 -0.030061 -0.296716 0.090099 0.027607 -0.089067 -0.266327 -0.059799 0.213099 -0.025788 -0.129133 -0.101310 0.031439 -0.143593 0.085237 -0.078301 -0.068156 -0.074021 -0.138558 -0.105035 0.114773 0.022343 -0.044478 -0.110966 0.098795 0.119585 0.033967 -0.017530 0.085944 0.014027 0.043430 0.137720 0.090174 -0.168508 -0.232319 0.099619 0.122072 -0.073650 0.112734 -0.152800 -0.089682 0.037961 -0.395381 0.232712 -0.301193 0.045853 -0.012661 -0.211352 -0.046384 0.050773 -0.291469 0.241674 0.242929 -0.291354 -0.214319 0.156619 -0.040237 0.307858 -0.014853 -0.055693 -0.097266 -0.082055 -0.059820 -0.107548 -0.141904 0.046655 0.361869 -0.042804 0.024609 -0.109796 0.015653 -0.301192 -0.065160 -0.086430 0.182491 0.175573 -0.053129 0.057944 -0.187584 -0.088039 0.011167 0.124944 -0.149718 0.101107 -0.277174 -0.062411 0.013102 0.104614 -0.115230 0.118660 -0.047310 -0.191827 -0.143027 -0.079454 -0.073090 -0.235115 -0.076322 0.074515 0.136584 0.090244 -0.099659 -0.390115 0.057959 -0.113194 -0.051576 -0.051608 0.079096 -0.183573 0.242026 0.074052 -0.066782 -0.293739 -0.091435 -0.029651 -0.100103 0.019711 -0.029466 -0.307446 -0.028515 -0.099908 0.123412 -0.131866 -0.090685 0.011453 -0.176456 0.119632 0.116522 -0.005186 0.067519 0.137632 -0.075300 0.120623 -0.058388 -0.138629 -0.250236 0.219202 -0.021121 -0.155258 0.058557 0.042860 -0.132238 0.147960 0.281512 0.187363 -0.117627 0.310153 -0.048074 0.000987 0.030469 -0.033754 0.005740 0.119306 0.173854 -0.202959 0.047775 0.033065 0.177359 -0.027709 -0.200921 -0.192456 0.102005 -0.084892 0.171723 -0.143773 0.156817 0.311097 0.028473 -0.209584 -0.289427 -0.203072 0.023253 0.039078 0.063199 -0.027826 0.296020 -0.155563 0.010810 0.077249 0.240165 -0.177443 0.117707 -0.089770 0.117948 0.005093 -0.090223 0.172441 -0.305189 -0.264996 -0.167965 -0.027734 -0.094690 0.261569 0.075130 -0.012135 0.079622 -0.599196 0.020680 -0.188440 0.203016 0.054557 0.148381 -0.511771 0.077287 -0.111685 -0.023797 -0.081952 0.022348 -0.043452 0.035776 0.234279 0.100150 -0.356784 0.114431 -0.019660 -0.103157 -0.041654 0.149515 0.026784 -0.252092 -0.205254 0.101437 0.114490 0.088939 -0.017072 -0.075153 -0.022372 -0.062234 0.283535 -0.315444 0.333095 -0.187996 -0.359885 -0.014034 0.212098 0.172485 0.094625 -0.091671 0.446133 0.050988 -0.213340 0.062781 -0.028527 -0.001186 -0.031235 0.118560 -0.001462 -0.097187 0.128336 0.072362
ATG -0.211400 0.092186 0.202331 -0.005715 -0.078240 -0.206033 -0.023244 -0.160239 0.127603 -0.237735 -0.376520 0.089391 -0.312880 0.263033 0.045769 -0.150611 0.221314 -0.025432 -0.034685 0.144561 -0.100252 -0.022393 0.092822 -0.062145 -0.038555 0.108971 -0.149020 0.085679 -0.103235 0.021450 -0.035506 0.074545 -0.273439 -0.172290 -0.212090 0.073400 0.159304 -0.008475 -0.068252 -0.284587 0.058666 -0.340877 -0.026776 -0.159737 0.097694 0.127654 0.209572 0.354369 -0.257902 0.021655 0.098789 0.113146 -0.020168 0.042770 0.070101 0.372278 0.262668 -0.023854 0.019620 -0.168844 -0.069602 0.222547 -0.240839 0.079126 -0.070504 -0.035286 -0.140546 0.205469 -0.077953 0.105238 -0.032865 -0.149043 -0.139172 -0.002222 -0.186790 -0.026892 0.155083 0.083477 -0.266209 0.192247 0.014465 -0.132742 -0.171724 0.195350 0.124824 -0.250086 -0.049778 -0.268310 -0.046152 0.128356 0.052612 0.039995 0.006184 -0.160886 0.043691 0.035854 0.367535 -0.078304 -0.210861 -0.181774 -0.169968 0.051664 -0.194513 0.080082 0.119123 -0.166782 0.288765 0.200246 -0.193215 0.221464 0.118158 0.013103 0.115261 0.282718 -0.131591 -0.086233 0.304360 0.168897 0.265266 0.086591 -0.275231 0.055168 -0.185759 0.073709 0.225077 -0.055449 0.167979 0.062930 -0.093447 -0.105674 0.191552 -0.027482 -0.143188 0.028096 -0.037188 -0.092484 -0.075555 0.179875 -0.005187 0.044465 0.193945 -0.038107 -0.023707 -0.123276 0.121910 -0.094638 0.064351 -0.159792 0.210255 -0.017919 -0.329751 -0.050692 0.020655 0.092164 0.054034 0.013394 0.141074 0.184201 -0.033186 0.022502 -0.363024 -0.110265 0.210780 0.011096 -0.184535 -0.158444 -0.014921 0.353270 -0.020892 -0.414501 0.160034 0.033338 0.133730 -0.002693 0.126283 -0.308408 -0.050332 -0.291663 -0.034922 -0.236077 -0.019112 -0.115159 0.037634 0.080988 -0.162830 -0.248797 0.296175 0.059040 -0.075457 -0.118808 0.001811 0.360170 0.246263 0.090505 -0.275432 -0.140484 -0.005803 -0.150048 0.246158 -0.126674 0.152001 0.067937 -0.027874 0.236183 -0.231227 0.113372 0.018687 -0.149783 -0.044741 -0.070582 -0.158318 0.176051 0.108946 -0.025882 0.136187 0.109740 0.098222 -0.073001 -0.129812 -0.322058 0.110925 0.031588 0.165534 -0.177289 -0.108760 0.074072 0.065793 -0.193130 0.051332 0.024133 -0.059575 -0.070090 -0.264869 0.220467 0.190415 -0.119780 -0.043854 -0.182798 -0.036591 -0.145065 0.229582 -0.287549 -0.065971 0.065727 0.092652 -0.190699 0.013052 0.008950 -0.245647 0.220043 0.007572 0.144919 -0.135958 -0.084306 0.098244 -0.063074 0.159230 -0.033740 -0.173849 0.124172 -0.021993 0.020545 -0.024995 0.387685 0.237567 -0.096375 -0.414496 0.320014 -0.036370 -0.082474 -0.279894 -0.015256 0.185414 0.216841 -0.230646 -0.062142 0.258970 -0.345491 -0.120437 0.087539 0.232743 -0.080038 -0.068264 0.000894 0.393448 0.094549 -0.131105 0.002493 -0.111070 -0.256344 0.171290 0.199283 0.207753 -0.064859 -0.132675 0.013016 -0.148896 -0.020206 0.081195 0.301901
GCA -0.120396 0.524240 0.217811 0.089798 -0.083406 -0.172952 0.154357 0.120557 0.133357 0.064383 -0.509641 -0.055418 -0.031528 0.005338 0.077396 -0.116009 -0.045835 -0.018454 -0.279314 -0.119208 0.135170 -0.301177 0.102496 0.159839 0.262213 -0.059298 -0.178667 0.175469 0.262627 0.018349 0.124625 -0.161095 -0.170443 -0.052329 -0.163344 0.025524 0.177594 -0.063916 0.186244 -0.153229 -0.010001 0.275194 -0.105670 0.240189 0.075271 -0.129132 0.009314 -0.127741 -0.138556 -0.017240 -0.080863 -0.079195 0.061520 0.007021 -0.045331 0.038988 0.407652 -0.159642 0.057188 0.040747 -0.205850 0.250423 -0.245125 -0.034500 0.064837 0.037304 -0.125028 -0.438220 -0.138887 -0.138301 -0.184674 -0.203509 0.119446 -0.017861 0.156113 0.150581 0.042877 0.127250 -0.083102 0.090527 -0.107010 0.101903 0.110258 0.149393 0.104065 -0.194230 -0.109043 -0.090806 -0.185509 0.097844 -0.094499 -0.113273 -0.176420 -0.260275 0.051335 -0.205430 -0.076607 -0.142341 -0.192320 -0.146833 0.247703 -0.377334 -0.003493 0.083031 -0.075194 0.082692 0.156135 0.112302 0.347858 0.220924 -0.114929 -0.031167 0.047320 -0.121312 -0.019053 -0.389775 0.073308 0.241092 -0.011109 -0.012997 -0.221345 0.110486 -0.202224 -0.028260 -0.138695 0.140065 -0.059643 0.107900 -0.172402 -0.152593 -0.073647 -0.004966 0.030525 -0.310446 0.078356 -0.091906 0.101525 -0.213435 0.108073 -0.196140 -0.036348 0.113907 0.113300 -0.178627 -0.057155 -0.008689 -0.219109 -0.076566 0.331767 0.215467 0.012701 -0.183830 -0.006677 -0.234411 0.023574 -0.007974 0.042436 0.052683 -0.033196 0.055085 -0.182504 -0.065068 -0.056862 0.038806 0.237086 -0.078496 -0.150652 0.155961 -0.152868 0.060209 0.121660 0.327066 0.005790 -0.068517 0.025489 -0.046155 -0.172026 -0.141361 0.179517 -0.146859 -0.007128 -0.112738 0.008653 0.012413 -0.036681 -0.345044 -0.079688 -0.237086 0.011762 0.093306 0.043331 0.070462 -0.016690 0.292255 -0.094447 -0.298195 0.245480 -0.152385 0.151205 0.000780 -0.140763 0.142901 -0.223111 0.130653 0.100867 -0.186803 -0.214985 0.066688 0.055298 0.055217 -0.251196 0.014355 0.031084 0.315982 -0.151964 0.104756 -0.119600 0.247410 0.085445 -0.161275 0.067271 -0.148102 -0.202011 -0.022675 0.041072 -0.146286 -0.054558 0.007623 0.019154 0.375792 -0.107740 -0.189445 -0.205481 0.132403 0.056399 -0.062870 0.154658 0.054142 -0.082193 0.224780 0.069973 -0.135200 -0.375564 0.270121 0.176092 0.121245 -0.228352 0.026655 -0.117495 0.228710 0.046644 -0.048021 -0.239833 -0.140213 -0.264268 -0.082070 0.173715 0.083228 0.079828 -0.219516 -0.044736 0.286934 0.045731 0.129085 0.024417 0.219960 -0.156051 -0.048680 -0.124814 -0.218216 -0.116931 -0.126375 0.118877 -0.094744 -0.004836 0.297484 0.463634 -0.052834 -0.029646 -0.019162 0.200712 -0.204943 -0.174032 -0.121557 0.133963 -0.120117 -0.023727 -0.016897 0.233302 -0.323456 0.214110 0.088946 -0.117380 -0.025981 -0.021835 -0.110736 0.049698 -0.017874 0.147189 -0.365378
CTC 0.174971 0.303668 0.085294 0.211281 0.075999 -0.400845 0.036947 0.151588 -0.064672 0.121752 0.102102 -0.252861 -0.186630 -0.306026 0.234538 -0.176286 -0.186984 0.219806 -0.211339 0.060736 0.148098 0.295984 0.082214 0.160542 0.248749 0.162853 0.048953 -0.089766 -0.024642 -0.353775 -0.000505 0.257637 0.227962 0.080713 -0.008353 -0.390391 -0.017044 -0.376352 0.149722 0.180788 0.212843 -0.119032 0.002149 0.081022 0.004203 0.108352 -0.220059 -0.034616 -0.183413 -0.090304 -0.000332 0.084490 -0.109695 -0.312658 0.061123 0.131592 -0.219222 -0.163860 -0.009960 0.036348 0.074796 -0.193055 -0.416927 -0.259713 -0.185129 -0.176420 -0.052944 -0.199537 -0.138010 -0.176363 -0.347413 0.341478 -0.165416 -0.097711 -0.095047 0.038628 0.099402 0.044230 -0.028503 0.097147 0.007306 0.019288 0.147711 0.028526 -0.122374 -0.083353 -0.284856 0.082904 -0.067440 0.253587 -0.202094 0.250327 0.242681 -0.212595 0.200907 -0.096431 -0.085906 0.012826 0.019543 0.262187 0.028306 0.017387 0.169338 0.226068 -0.214466 -0.068221 -0.126632 -0.289102 0.246849 -0.217353 -0.021941 0.061151 -0.101246 -0.009923 0.018245 0.005810 -0.168149 0.279265 -0.005760 -0.225624 0.138179 -0.014671 0.015593 0.019131 -0.048814 0.208069 0.114135 -0.145002 0.233105 -0.355825 0.005730 0.190248 0.053385 -0.136710 0.167804 -0.200774 -0.060541 -0.320639 0.282656 -0.066428 0.120824 -0.085603 -0.214264 -0.255141 -0.037689 -0.122038 -0.104754 -0.129720 -0.107413 0.063612 0.113591 -0.028489 -0.212391 0.038542 -0.210605 -0.265426 -0.117931 0.095627 -0.083239 0.309139 -0.161810 0.111756 -0.168763 -0.268278 0.090041 0.170350 0.071117 -0.106733 -0.086142 -0.059927 -0.128652 -0.231897 -0.201756 0.062321 0.166596 -0.120422 0.234006 0.246072 -0.015270 -0.156302 -0.033547 -0.137206 -0.043773 0.052330 0.014872 -0.035202 0.026945 0.004906 0.044342 0.057922 0.166239 -0.159952 0.185641 -0.165182 0.089506 0.076207 0.087409 0.075880 -0.095952 0.042846 -0.071170 0.121276 -0.101505 -0.028448 -0.306966 0.060894 0.070949 0.291546 -0.068525 -0.185234 -0.295403 0.056515 0.156980 -0.077565 0.074266 0.220242 0.127021 0.022248 -0.241320 -0.260280 0.181334 0.022451 -0.052614 0.033539 -0.018018 0.141631 -0.058392 0.179466 0.120214 0.540898 -0.110441 0.011004 -0.095850 0.178374 -0.251699 0.151553 -0.071423 0.033752 -0.164502 -0.390016 -0.239002 0.031873 0.274738 -0.003485 -0.062871 0.285354 -0.477512 -0.075043 -0.236618 -0.109740 -0.075138 0.051530 -0.327938 0.321347 0.043912 -0.172310 0.072111 -0.111322 0.136568 -0.007726 -0.003641 0.147923 -0.168621 -0.039828 -0.144875 0.071605 0.322688 0.087481 -0.133941 -0.094620 -0.097610 0.337897 0.094667 -0.031015 -0.009049 0.006271 -0.225705 0.058174 0.091984 -0.217646 -0.072621 0.016485 -0.226579 -0.149355 0.056420 0.126121 -0.263852 -0.059287 0.323879 0.209213 -0.027155 0.144511 0.096532 0.218469 -0.079475 -0.038992 0.277506 -0.163828 -0.013430 0.143186
GTG -0.031443 0.123551 -0.187747 0.118373 -0.298510 -0.225213 0.222066 -0.051929 -0.045912 0.021308 -0.079892 0.186283 -0.241868 0.168900 -0.489263 0.048854 0.067484 -0.149812 0.284068 -0.028163 -0.239695 0.085159 -0.012619 -0.049141 0.066974 0.136733 0.030407 0.111862 -0.030043 -0.066118 0.183495 -0.327862 -0.305497 0.182178 0.131511 0.309154 0.140404 0.000505 -0.068080 0.046816 0.000364 -0.235745 -0.289071 -0.026376 0.156812 -0.037095 0.123394 -0.137255 -0.330850 0.007885 -0.222374 -0.259188 -0.131346 0.055323 -0.027491 0.178144 0.044936 0.177902 0.176458 0.128465 -0.066266 0.044809 -0.261572 -0.024534 -0.217058 0.306298 -0.214032 0.162689 -0.382290 0.069998 0.096318 0.065445 -0.136868 0.192349 -0.036268 0.051961 0.100987 0.121487 -0.333173 0.225801 -0.165359 0.322166 -0.287293 -0.017130 0.181277 -0.154826 -0.235449 -0.036763 -0.085422 0.169764 -0.141740 -0.031871 -0.042700 -0.219025 0.069676 -0.002173 0.309694 0.020155 -0.028172 -0.201964 -0.125256 -0.051570 -0.135703 0.114493 -0.053250 0.054165 0.081986 -0.070762 0.059416 -0.094925 -0.029188 -0.171204 0.254149 0.028894 0.168190 -0.359426 -0.162096 -0.052344 0.284716 0.111847 -0.016694 0.011773 -0.160759 0.013172 0.004434 0.004869 -0.054998 -0.159103 -0.017926 0.077063 0.144828 0.032619 -0.142662 0.060036 -0.006925 0.046567 -0.074785 0.153458 -0.091350 0.201960 0.205516 -0.169013 0.004039 0.345235 -0.252395 -0.069987 -0.200709 -0.265070 -0.053009 0.197748 -0.009555 0.135207 -0.158262 -0.072159 -0.021604 -0.125065 0.093946 0.067156 -0.080387 0.041623 -0.306016 -0.221394 0.165211 -0.145485 -0.191655 -0.309271 -0.182856 0.127514 0.214344 -0.273443 0.218721 -0.022577 0.058524 0.313864 0.298918 0.003956 -0.145754 -0.245033 -0.093726 -0.070647 0.137697 -0.267772 -0.111846 -0.135375 0.105347 -0.016247 0.149806 -0.188829 -0.155304 -0.141332 -0.021890 0.073097 0.060684 0.082845 -0.294746 -0.192443 -0.094177 -0.027861 0.216532 -0.014150 -0.044226 -0.147661 -0.086341 0.245957 -0.164033 0.166703 0.227113 -0.379203 0.009552 0.058251 -0.211706 0.059320 -0.086910 0.109427 -0.251123 0.169207 -0.147499 0.176328 -0.127101 -0.067781 -0.047137 0.108035 -0.001382 -0.088526 0.036731 0.391015 0.207091 -0.059687 0.211570 0.050298 -0.001891 0.151034 -0.067296 -0.034963 -0.002641 -0.157482 0.137860 0.125420 0.171759 -0.186469 0.106905 -0.248132 -0.164350 -0.205186 -0.059787 -0.162403 0.147128 0.179740 -0.185470 0.048177 0.043222 -0.114402 -0.047757 -0.119867 -0.054211 -0.047084 0.426325 -0.184869 -0.145255 -0.122176 -0.306935 -0.130145 -0.205821 0.298209 0.097688 0.391794 -0.264600 0.228331 -0.019892 -0.012337 -0.097873 0.398946 -0.456065 0.201712 -0.137303 -0.159033 0.406262 0.027555 -0.125006 0.226835 -0.091619 0.047973 -0.078338 -0.173948 0.091625 -0.244346 -0.183291 -0.034442 0.207609 -0.248510 -0.097367 0.149011 -0.004224 -0.202430 -0.334102 0.290263 -0.220596 -0.015608 0.078914 -0.001912
TTC 0.137400 -0.097495 -0.153276 -0.132241 0.430331 -0.067762 -0.224668 -0.014056 -0.152485 0.175726 0.137023 -0.073819 -0.209885 -0.084041 -0.059222 -0.006048 0.044618 0.078874 -0.094055 0.332988 0.233643 0.313426 -0.024674 -0.124629 0.118923 -0.031717 -0.109814 -0.090204 0.020105 -0.075764 0.079832 0.317666 0.119211 0.031190 -0.016006 -0.131981 0.019347 -0.236951 0.098969 0.110943 0.097710 -0.077553 -0.024809 -0.194953 0.182277 -0.110995 -0.141673 0.007013 -0.006834 -0.057827 -0.118137 0.161061 0.152312 -0.170412 0.029769 0.186045 -0.088089 0.016308 -0.064837 0.070067 -0.010339 -0.155145 -0.082272 -0.181317 -0.156136 -0.119139 0.094170 -0.065455 0.046160 -0.217394 -0.111792 0.076188 0.139193 -0.090091 -0.039910 0.156979 -0.023453 0.001120 0.010750 -0.029948 -0.044552 0.023348 0.218597 -0.171745 -0.379688 -0.076919 0.227526 0.015603 -0.144533 0.030971 -0.051868 -0.091638 0.137101 -0.397910 0.117409 0.149713 -0.088874 -0.068353 -0.128224 0.128891 -0.078115 -0.121934 0.025769 0.159029 -0.355455 -0.360352 -0.030889 0.062573 0.070488 -0.245810 -0.064257 -0.136547 -0.093037 -0.040247 0.129113 0.120234 0.069025 0.236776 0.025073 0.017732 -0.077322 -0.046352 -0.317840 -0.026094 -0.025010 0.238928 -0.123679 -0.332987 0.064693 0.039076 -0.010143 0.069373 0.099892 0.092044 0.077115 -0.203949 -0.138589 0.148340 0.101299 -0.078375 0.004667 -0.164075 -0.168992 -0.142204 0.032591 -0.128592 -0.226781 -0.029581 -0.138401 -0.009048 0.170361 0.159311 -0.122681 -0.030572 -0.222359 -0.257259 -0.142506 0.080694 -0.122166 0.245656 -0.050228 -0.015090 -0.369576 -0.261205 -0.016987 0.054958 -0.159351 -0.177429 -0.132148 0.073325 -0.072421 -0.173364 -0.154949 -0.045049 0.043827 0.035398 0.236222 0.089284 -0.109330 0.102991 0.018886 -0.016585 0.278848 -0.117693 0.040965 -0.097053 0.259131 0.140381 0.004653 -0.066221 0.009997 -0.046369 0.066232 0.144155 0.072293 -0.114796 0.219242 0.258469 0.107571 0.163596 -0.151686 0.017504 0.059130 0.161001 -0.256279 0.144621 0.104859 0.170837 0.050250 -0.082041 -0.062767 -0.087808 -0.116102 -0.115481 -0.029717 0.136033 0.136075 0.105558 -0.274455 -0.208498 -0.143248 -0.047961 0.038143 -0.047986 0.141917 0.098513 -0.045651 0.045687 0.255051 0.108460 -0.074641 0.187501 -0.182557 0.126066 -0.244882 0.035761 0.016499 -0.240451 -0.162871 -0.182189 0.028815 -0.168574 0.368137 0.142815 -0.073757 -0.000877 -0.371132 -0.192757 -0.140997 0.131157 0.139948 0.071251 -0.119604 0.167092 -0.158518 0.036898 -0.043482 0.184465 -0.075849 -0.129973 0.100674 -0.015324 -0.304942 -0.010583 -0.147994 0.129861 0.010394 0.101790 -0.210548 -0.128361 -0.097279 0.223680 -0.005564 0.186812 -0.006176 0.091967 -0.133792 -0.053650 0.263156 -0.080447 0.252135 0.007904 -0.302906 0.224152 0.202219 0.002111 -0.083160 -0.040477 0.261301 0.149556 -0.196562 0.079327 0.052887 -0.091114 0.204467 -0.190871 0.055638 -0.141224 0.109612 0.140661
TGC -0.257274 0.445353 0.255044 0.120330 -0.025529 -0.054191 0.147071 0.160496 0.108020 -0.028225 -0.197501 0.025021 -0.067590 0.106870 0.048040 -0.031998 -0.170111 -0.035465 -0.197308 -0.046225 0.166188 -0.120034 0.043717 0.183370 0.310586 0.153906 -0.065282 0.308361 -0.039194 -0.023631 0.025962 -0.275432 -0.157775 0.022566 -0.110764 -0.006317 0.126813 -0.323180 0.059835 -0.137379 0.055188 -0.036439 0.052046 0.049712 -0.178805 0.050019 -0.042086 0.004792 -0.139540 -0.080099 0.079219 -0.201687 0.033880 -0.164342 0.020995 0.133177 0.225134 0.106377 0.010430 -0.107906 -0.114696 0.212236 -0.075144 -0.046214 -0.046583 -0.022040 0.005542 -0.356358 -0.062194 -0.195024 -0.321545 0.069807 0.071746 -0.002516 -0.035577 0.002778 0.060386 0.090195 -0.266832 0.158122 -0.207488 0.042913 -0.020263 0.060039 0.049602 -0.301753 -0.147967 -0.163882 -0.215229 0.213557 -0.122734 0.008870 -0.061791 -0.194129 -0.104192 -0.000244 0.267307 -0.069283 -0.213920 -0.057537 -0.117874 -0.077698 -0.145818 0.259609 -0.121791 -0.066392 0.016942 -0.125494 -0.064768 0.033903 -0.053741 -0.109611 0.049908 -0.000690 0.241550 -0.349245 -0.073287 0.148864 -0.008038 -0.009346 -0.328028 0.071503 -0.235185 0.114159 0.083522 0.189928 -0.220283 -0.078962 -0.180719 -0.014895 0.136269 0.096519 -0.156636 -0.161907 0.071614 0.116514 -0.261081 -0.161383 0.043666 0.016250 -0.058070 -0.017168 0.051704 -0.084470 0.017538 -0.205238 -0.085430 -0.221717 0.094748 0.209507 0.159016 0.156193 0.062856 -0.258698 -0.042053 -0.063602 0.160319 0.060819 -0.025002 0.063723 -0.364930 -0.176554 -0.043573 -0.189870 -0.029295 -0.098976 -0.205540 -0.049148 0.012029 -0.183701 0.223569 0.155773 -0.065186 0.041363 0.201880 0.080778 -0.012405 -0.047508 -0.069410 -0.235917 -0.225360 -0.066409 -0.104062 0.079042 0.051240 -0.152486 0.170762 -0.128717 0.111102 -0.243662 -0.048362 0.198220 0.206523 0.223273 -0.248084 -0.263263 0.089763 -0.054893 0.216712 0.153965 -0.087399 0.065844 -0.153016 0.070563 -0.207890 0.104690 -0.008103 -0.202303 -0.047878 0.056188 -0.124088 0.184854 -0.078755 0.057261 -0.075687 0.220050 -0.189102 0.230819 -0.272023 -0.266653 0.173783 -0.103121 -0.004225 -0.102617 0.125464 -0.068251 0.348527 0.087801 0.303905 0.278657 -0.015527 -0.249047 -0.329423 0.127976 0.062842 0.018769 0.017636 0.282785 0.064951 -0.030046 0.031492 -0.262448 -0.258665 -0.066976 0.137688 -0.017590 0.021715 0.053197 -0.380309 -0.043719 0.224992 -0.070930 -0.113063 -0.082007 -0.167938 -0.193985 0.244435 0.017483 0.035051 -0.270882 -0.154716 0.028034 0.080567 0.222360 0.037447 0.219701 0.013535 -0.001981 -0.221652 -0.205436 -0.140649 0.160392 -0.023217 0.038046 -0.099641 0.276388 0.236074 -0.134636 -0.149673 0.213653 -0.024503 -0.027212 -0.198136 -0.055602 0.091946 -0.172260 -0.243562 -0.073602 -0.070209 -0.246633 0.220184 0.304903 -0.064499 -0.099325 -0.173572 -0.083534 0.138084 0.028260 -0.031235 -0.045166
GCT -0.100166 0.454168 0.193767 0.379292 0.036454 -0.213580 0.177550 0.105042 -0.014466 -0.067111 0.009648 -0.110433 -0.012795 -0.010105 0.100867 -0.169247 -0.049043 0.072667 -0.189511 0.011707 0.124515 -0.125955 -0.053071 0.300007 0.259867 0.076674 0.012115 0.230032 0.125575 -0.112609 0.099774 0.046946 -0.122242 0.087385 -0.131043 -0.015026 0.014670 -0.097961 0.030253 -0.014263 0.113987 0.042973 -0.029200 0.066920 -0.335106 -0.086862 -0.045446 0.003450 -0.063826 -0.180211 0.050498 -0.305330 0.185598 -0.235771 0.006262 0.069207 0.071363 -0.035125 0.196876 -0.116721 0.087766 0.124745 -0.056697 -0.178163 -0.143803 -0.023431 -0.122539 -0.419734 -0.155928 -0.209396 -0.077556 0.161329 0.191171 0.082609 0.175526 0.104438 0.134221 0.064254 -0.063830 0.138273 -0.111353 0.090979 0.078877 0.026789 0.114644 -0.158266 -0.130578 -0.174744 -0.042014 0.183705 -0.170035 0.156487 -0.047425 -0.040569 0.132811 -0.040421 0.110605 -0.123276 -0.099984 0.283651 0.114585 -0.085578 -0.135773 0.192407 -0.165272 0.124432 0.061325 -0.289465 0.012766 -0.082717 -0.125021 -0.080574 0.048998 -0.042104 0.248489 -0.023307 -0.073749 0.115749 0.076327 -0.249505 -0.194508 0.163101 -0.094757 0.009986 0.025067 0.056344 -0.185136 -0.016392 -0.006042 -0.132250 0.082082 0.064465 -0.108986 -0.201880 0.003467 0.068294 -0.101565 -0.271839 0.311314 0.054191 -0.008035 -0.119191 0.160728 -0.143266 0.032037 -0.106084 -0.005738 -0.224682 -0.029806 0.157491 0.100232 -0.026902 0.151637 -0.088029 -0.106371 -0.194676 0.072948 -0.043268 0.037712 0.102420 -0.155158 0.015274 -0.117649 -0.303900 0.046281 -0.007871 -0.180065 -0.126862 -0.055369 -0.056650 -0.047335 0.146767 -0.248871 0.088364 0.183450 -0.089314 -0.049074 -0.012764 0.142965 -0.076959 -0.392050 -0.111008 0.026033 0.199513 0.006786 0.011989 0.128560 0.043225 0.037613 -0.001402 0.122470 0.064313 0.056924 0.086213 -0.295177 -0.197581 0.379676 0.069452 0.106420 0.198700 -0.092178 0.113558 -0.094738 0.032855 -0.356104 0.224148 -0.084346 -0.064775 0.053034 -0.051086 -0.383340 0.064453 0.026331 -0.079769 -0.059869 0.076119 0.064028 0.297654 -0.059684 -0.105690 0.127998 0.058154 0.007485 0.091683 0.069536 -0.066013 0.012594 0.143685 0.119528 0.369694 -0.008519 -0.332200 -0.294324 0.088443 -0.008461 0.127394 -0.115455 0.181936 -0.028895 -0.113756 0.042780 -0.096055 -0.159645 -0.013306 -0.049921 0.048986 -0.126501 0.053314 -0.440801 -0.201377 0.149342 -0.137807 -0.132498 0.074694 -0.156471 -0.152250 0.360319 -0.232413 -0.090712 -0.111581 -0.205648 -0.059235 -0.089908 0.103895 0.013398 0.076083 0.107589 -0.171376 -0.194330 -0.104887 -0.056548 0.257478 0.088815 0.044044 0.004623 0.150468 -0.002860 -0.140531 -0.117847 0.084646 0.147323 -0.063908 -0.114900 -0.121453 -0.078062 -0.336535 -0.315845 -0.196471 -0.078773 -0.182502 -0.058914 0.286555 -0.057429 0.137231 -0.358694 -0.069107 0.141221 -0.087928 0.105494 -0.093223
TCC 0.174682 0.032103 -0.185069 -0.050547 0.127670 -0.281099 -0.171222 0.112067 -0.037193 0.120420 0.136292 -0.121011 -0.051728 -0.193499 0.004173 -0.084635 -0.119036 0.333100 -0.098810 0.220280 0.223949 0.335493 0.129841 -0.007812 0.251930 0.223795 0.050806 -0.315938 -0.115155 -0.266724 -0.090161 0.165370 0.268952 -0.140446 -0.047146 -0.377609 -0.257511 -0.566464 0.344477 0.095478 0.020681 -0.211626 -0.090683 -0.233242 0.171676 -0.025591 -0.206969 0.049055 -0.080660 -0.107257 0.087840 0.274945 -0.081226 -0.283109 -0.036744 0.111204 -0.252897 0.035048 -0.226658 -0.019587 -0.022516 -0.078116 -0.277086 -0.017884 -0.171607 -0.045962 0.093187 -0.124103 0.003289 -0.150478 -0.121876 0.196767 -0.119169 -0.094287 0.008378 0.228126 0.060507 -0.035571 -0.033127 0.343383 -0.138834 0.029810 0.153667 0.114425 -0.048507 -0.092255 0.017594 0.074320 -0.257677 0.198473 -0.202517 0.079651 0.352382 -0.224642 0.055239 0.038091 -0.078764 0.047488 -0.057678 0.172628 -0.132055 -0.042812 0.098647 0.268712 -0.265694 -0.143681 -0.061936 -0.188323 -0.040392 -0.109488 -0.132389 0.120604 -0.048291 -0.024432 0.007124 -0.186916 -0.005442 0.374465 0.050824 0.071429 0.209581 0.004512 -0.015310 -0.125067 0.101141 0.309511 0.002486 -0.213069 0.121602 -0.249242 0.236781 -0.093836 0.090495 -0.114554 0.158041 -0.207113 -0.056466 0.229727 -0.098311 0.210700 0.048058 -0.083602 -0.270330 -0.199864 0.018274 -0.072093 0.016466 -0.171012 -0.028188 0.020228 0.267240 0.245700 -0.165806 -0.063813 -0.194648 -0.213691 0.156010 0.095709 -0.189585 0.374155 -0.230430 0.078218 -0.106144 -0.157606 0.085953 -0.048109 -0.096705 -0.098382 -0.156512 -0.046147 0.077872 -0.206682 -0.115273 -0.067527 0.081472 0.137827 0.198777 0.200374 0.024430 -0.106247 0.002955 -0.173251 0.145547 -0.106170 -0.139793 -0.153825 0.064118 -0.181690 0.182418 -0.109615 -0.073146 -0.261358 0.052557 -0.000505 0.143625 0.022728 0.038087 0.057001 0.044117 0.083369 -0.048334 0.181636 -0.001637 -0.068726 -0.169457 -0.060158 -0.007811 0.122967 -0.085398 0.135857 -0.200814 -0.242767 0.048749 -0.110478 0.020380 0.145514 0.030998 0.105230 -0.364628 -0.358524 -0.041167 -0.079108 -0.105761 0.034822 -0.015338 0.163362 0.058601 0.065361 0.194976 0.040831 -0.076425 -0.007273 0.064732 0.187222 -0.181211 0.134160 -0.018634 -0.273174 -0.167655 -0.207015 -0.086134 -0.122336 0.212448 0.162664 -0.018139 -0.099107 -0.395751 -0.080948 -0.052980 0.009051 -0.172927 0.155240 -0.135591 0.221939 0.223595 -0.198048 -0.092263 0.040630 -0.056815 0.077148 -0.099058 -0.092640 -0.064787 -0.021919 -0.086132 0.222455 0.122214 0.219176 -0.249495 0.107181 -0.055354 0.230189 -0.226859 0.190964 -0.051516 0.054601 -0.058351 -0.020008 0.273468 -0.008630 0.112768 0.008430 -0.136745 0.245604 0.060131 0.142249 -0.127871 0.111891 0.121330 0.178578 -0.180305 -0.000041 0.178740 -0.089621 0.171388 -0.046954 -0.133361 -0.214771 -0.048729 0.096665
TTG -0.082503 0.082924 0.119511 -0.064703 0.218335 -0.063875 0.005633 -0.049443 -0.117404 -0.223865 0.001939 0.143477 -0.187498 0.036261 -0.202345 0.025100 -0.098647 -0.120415 0.213394 0.185278 0.178983 0.116029 0.046046 -0.184880 0.034315 -0.010925 -0.038396 0.158783 -0.226624 0.087972 0.044801 -0.012066 -0.199519 0.144820 -0.056748 0.270558 0.248843 0.033109 0.020355 -0.094887 -0.172619 -0.145254 -0.137969 -0.117262 -0.005778 -0.149639 0.101794 0.236958 -0.054584 -0.001147 -0.096021 -0.155769 0.151717 -0.026490 -0.145071 0.282731 0.023301 0.119230 0.070651 0.000292 -0.104575 -0.048485 -0.246637 -0.157894 -0.093231 0.035833 -0.088357 -0.015570 -0.112721 0.099807 -0.055699 -0.070125 0.087102 0.236713 0.082238 0.198088 -0.025006 0.046263 -0.263336 0.109191 -0.068796 -0.029929 -0.058499 -0.171369 -0.088157 -0.244645 -0.228226 -0.135360 -0.051360 0.121277 0.226141 -0.057958 0.110276 -0.460852 0.084681 -0.023705 0.172406 0.064835 -0.150178 -0.075907 -0.090941 -0.074448 -0.065046 0.173879 -0.266633 -0.268991 0.093510 0.143426 -0.316141 -0.056635 0.180420 -0.151597 -0.088174 0.077920 0.389643 0.051729 -0.035777 0.115775 0.245079 -0.083135 -0.345917 0.001671 -0.403360 0.218307 0.249657 0.017885 -0.216088 -0.070392 -0.090595 0.269989 0.129173 0.115478 -0.070650 -0.001316 -0.093840 0.194890 -0.047121 0.162370 -0.000860 -0.034335 0.022751 -0.165184 0.101475 0.091854 0.044196 -0.068827 -0.225053 -0.131487 -0.005245 0.014172 0.023808 0.311967 0.107902 -0.059257 -0.092034 -0.052259 -0.044864 -0.009458 0.164191 -0.021055 -0.331749 -0.113375 -0.196354 -0.246746 -0.255917 -0.095891 -0.330043 -0.070302 -0.064676 -0.199482 0.106567 0.075832 -0.062417 -0.011487 0.074157 -0.148299 -0.036689 0.034021 -0.077837 0.122528 -0.166917 0.150135 0.227905 -0.118990 -0.005174 0.072100 0.317735 0.115281 -0.386363 -0.079269 -0.206995 0.146809 0.080523 -0.021369 -0.271410 -0.020892 0.144239 0.206971 0.232477 0.128330 -0.179853 -0.291369 0.046326 0.196010 0.037778 0.142364 -0.051629 -0.156173 0.061033 0.156846 -0.182544 0.189373 -0.299423 0.207118 -0.085022 0.225066 0.050571 -0.007269 -0.045726 -0.098591 -0.164569 -0.054918 -0.041347 0.038158 0.217770 0.047159 0.288543 -0.007632 0.251934 0.162660 0.105025 -0.076445 -0.487613 0.122442 0.125937 0.017966 0.062864 0.048649 -0.094830 -0.100797 0.086738 -0.214103 -0.051238 0.028695 -0.084117 -0.150878 0.162354 -0.112950 -0.313977 0.030005 0.191959 -0.015690 0.021929 0.073140 -0.097395 0.049788 -0.019876 -0.015097 -0.130305 -0.043596 -0.081114 -0.159690 -0.152729 0.211120 -0.066679 0.038061 -0.208035 0.184633 -0.184730 -0.043393 -0.190702 0.331077 0.038234 0.108359 -0.104925 -0.018197 0.025635 -0.048558 0.036586 -0.074628 0.089749 -0.058945 -0.308478 -0.021661 0.230981 -0.182353 -0.117247 0.016385 0.001786 -0.127363 -0.116289 0.118932 -0.127882 -0.054827 0.052145 -0.133766 -0.092043 0.086673 0.307140 0.141531
GGC -0.172128 0.630980 0.176397 0.133668 -0.092941 -0.015393 0.122934 0.068856 0.116066 -0.065740 -0.172948 -0.207326 0.114675 0.116377 -0.090580 0.071296 -0.358308 0.118108 -0.105027 -0.257988 -0.003908 -0.088172 0.071261 0.297841 0.148156 0.263676 0.173907 0.015687 0.132658 -0.034088 0.114516 -0.003888 -0.290293 -0.115021 -0.073331 -0.228675 0.229332 -0.380333 0.284392 -0.120758 0.087386 0.202074 0.115695 -0.015266 0.158575 0.051896 -0.012987 0.077213 -0.200554 -0.083378 0.160346 -0.208026 0.069939 -0.162288 -0.314271 -0.057610 0.036015 -0.108599 0.120436 -0.283013 -0.193706 0.081760 -0.400564 -0.071644 -0.105465 0.008265 -0.170151 -0.367398 -0.243260 -0.188118 -0.041006 -0.203927 -0.243231 0.149830 0.009141 0.073166 -0.016762 0.090746 -0.034122 0.118658 -0.113432 0.124959 0.085754 0.178388 0.297803 -0.032883 -0.351001 -0.118648 -0.102519 0.275290 -0.262261 0.056322 -0.059014 -0.097767 -0.075179 -0.161431 -0.077540 -0.147065 0.143463 0.257165 0.209740 -0.250794 0.024805 0.248062 -0.000222 0.112418 0.036813 -0.128507 0.241000 0.138962 0.039587 -0.038974 0.118182 0.016849 0.162248 -0.080367 0.137760 0.258164 0.131941 0.004986 -0.123488 0.101149 -0.054183 -0.185019 0.028218 -0.038641 -0.153194 0.118305 0.022665 -0.127662 0.052140 -0.080786 0.008936 -0.316983 0.114807 -0.088026 0.122486 -0.195090 0.020512 0.092717 0.207760 -0.086965 0.143247 -0.002721 0.051917 -0.019359 0.060401 -0.034028 0.034985 0.107742 0.102583 -0.062383 0.221948 -0.279535 -0.045912 -0.344907 -0.011584 -0.012696 -0.227252 0.428198 -0.465512 0.036916 -0.031563 -0.066939 0.043704 0.113894 -0.315128 0.119017 0.173628 -0.067697 -0.033786 0.292187 -0.161589 0.025410 0.262003 -0.052360 -0.104765 0.003989 0.061267 -0.145793 -0.140109 -0.424945 -0.044163 0.087393 0.034713 -0.106118 -0.182011 -0.202958 0.101385 0.120810 -0.166280 0.140119 -0.047983 0.057833 -0.272528 -0.193783 0.054511 -0.058801 -0.036575 -0.091533 -0.158745 0.063778 -0.168052 0.059491 -0.300808 -0.223963 -0.188590 -0.047667 0.079277 -0.052140 -0.324211 -0.015940 0.117986 0.130098 -0.176361 0.086202 -0.048128 0.323780 -0.044650 -0.162984 0.262679 0.049685 -0.041232 0.157153 0.112327 0.017813 -0.135366 0.072134 0.233764 0.334485 -0.067659 -0.233999 -0.203852 0.000224 -0.109443 0.199112 -0.067538 0.159951 0.069177 0.027620 -0.043155 -0.109290 -0.416772 0.197857 0.034871 0.035893 0.028327 -0.014007 -0.161273 0.249380 -0.216631 -0.084957 0.205769 -0.090089 -0.156925 -0.046687 0.153077 -0.122092 0.214066 -0.056078 -0.030545 0.342484 0.158174 0.053280 0.309578 0.192992 0.088489 0.007577 -0.097240 0.014343 -0.069118 0.067164 0.067376 -0.041435 -0.226092 -0.008665 0.384002 -0.081075 -0.094874 0.250495 -0.023937 -0.058134 0.039472 -0.256810 -0.088794 -0.363676 -0.042111 0.010523 0.004701 -0.166933 0.282624 0.227895 0.110856 -0.111412 -0.225598 -0.271792 -0.112217 -0.135951 -0.067292 -0.376103
